{
  "input_sequences": [], 
  "inputs": [
    {
      "name": "node_0", 
      "variables": [
        {
          "name": "variable_0", 
          "offset": -6.468264661088239, 
          "scale": 2.547059912805884
        }, 
        {
          "name": "variable_1", 
          "offset": -0.24005876419197356, 
          "scale": 5.385043489953696
        }, 
        {
          "name": "variable_2", 
          "offset": -4.207736207507909, 
          "scale": 0.920105860339139
        }, 
        {
          "name": "variable_3", 
          "offset": -0.32681771933563236, 
          "scale": 4.494005474239541
        }, 
        {
          "name": "variable_4", 
          "offset": -1.2120931495946625, 
          "scale": 0.9863117864013426
        }, 
        {
          "name": "variable_5", 
          "offset": -0.9734642239132437, 
          "scale": 1.4186719492927842
        }, 
        {
          "name": "variable_6", 
          "offset": -91.10464925216876, 
          "scale": 0.01344074740451794
        }, 
        {
          "name": "variable_7", 
          "offset": -4.188526495174317, 
          "scale": 1.1260381515829956
        }, 
        {
          "name": "variable_8", 
          "offset": -0.005708591206818198, 
          "scale": 0.5211490349378606
        }, 
        {
          "name": "variable_9", 
          "offset": -705.0327298606838, 
          "scale": 0.0027287027471239148
        }, 
        {
          "name": "variable_10", 
          "offset": -125.07154075630665, 
          "scale": 0.012183731282822994
        }, 
        {
          "name": "variable_11", 
          "offset": -67.22062986971457, 
          "scale": 0.022145010032294337
        }, 
        {
          "name": "variable_12", 
          "offset": -0.0014012789551827618, 
          "scale": 0.4585691322913353
        }, 
        {
          "name": "variable_13", 
          "offset": 0.02711626044615221, 
          "scale": 0.3845991402159513
        }, 
        {
          "name": "variable_14", 
          "offset": 0.04175392445287922, 
          "scale": 0.5489238320085699
        }, 
        {
          "name": "variable_15", 
          "offset": 0.06259163597998886, 
          "scale": 0.5508402508600846
        }, 
        {
          "name": "variable_16", 
          "offset": -0.6380186395428251, 
          "scale": 2.836844384192357
        }, 
        {
          "name": "variable_17", 
          "offset": -0.5473267184656011, 
          "scale": 2.7323049859255493
        }
      ]
    }, 
    {
      "name": "node_1", 
      "variables": [
        {
          "name": "variable_0", 
          "offset": -123.64362948557086, 
          "scale": 0.17810599547473738
        }, 
        {
          "name": "variable_1", 
          "offset": -0.02113637444800848, 
          "scale": 88.98549288822781
        }, 
        {
          "name": "variable_2", 
          "offset": -2.614758524740462, 
          "scale": 0.7136393476719951
        }
      ]
    }
  ], 
  "layers": [
    {
      "activation": "rectified", 
      "architecture": "dense", 
      "bias": [
        -0.029331568628549576, 
        -0.2925854027271271, 
        -0.30547574162483215, 
        -0.2648724615573883, 
        -0.043776486068964005, 
        -0.17301328480243683, 
        0.08545033633708954, 
        -0.20261885225772858, 
        0.1690007597208023, 
        -0.24377402663230896, 
        -0.2181743085384369, 
        -0.06882569938898087, 
        -0.035590436309576035, 
        -0.27791470289230347, 
        -0.08284876495599747, 
        -0.15832224488258362, 
        -0.224920853972435, 
        -0.18188190460205078, 
        -0.28774595260620117, 
        -0.19942978024482727, 
        -0.12398531287908554, 
        -0.16692151129245758, 
        -0.21484610438346863, 
        -0.4389501214027405, 
        -0.1838633269071579, 
        -0.05666670948266983, 
        -0.1669476330280304, 
        0.016567347571253777, 
        -0.29472434520721436, 
        -0.1411113440990448, 
        -0.29333406686782837, 
        -0.0832618847489357, 
        -0.2907511591911316, 
        -0.2829170227050781, 
        -0.28893598914146423, 
        -0.0643574446439743, 
        0.04417109116911888, 
        0.11826607584953308, 
        -0.03474787622690201, 
        -0.0765628069639206, 
        -0.2732067406177521, 
        0.01390773057937622, 
        -0.13591569662094116, 
        -0.36380553245544434, 
        -0.14753864705562592, 
        0.05267037823796272, 
        -0.08857160806655884, 
        -0.3550631105899811, 
        -0.09995689988136292, 
        -0.31438082456588745, 
        -0.27962028980255127, 
        -0.2194661945104599, 
        0.009996146894991398, 
        -0.15426243841648102, 
        0.05247904360294342, 
        0.16641473770141602, 
        -0.13169436156749725, 
        -0.04417519271373749, 
        -0.08057950437068939, 
        -0.12696167826652527, 
        -0.054704081267118454, 
        -0.1516212522983551, 
        -0.13943937420845032, 
        -0.36493316292762756, 
        -0.2675003409385681, 
        -0.2837507128715515, 
        0.10629616677761078, 
        -0.2560833990573883, 
        -0.3305615484714508, 
        -0.11137939244508743, 
        -0.16679611802101135, 
        -0.03395307809114456, 
        -0.26167142391204834, 
        0.003557131625711918, 
        0.11555279046297073, 
        -0.050135500729084015, 
        -0.3486171364784241, 
        -0.014856085181236267, 
        -0.09911734610795975, 
        -0.21482320129871368
      ], 
      "weights": [
        0.015372452326118946, 
        -0.3601466417312622, 
        0.3281085789203644, 
        -0.5725725889205933, 
        0.3127250373363495, 
        -0.3571450710296631, 
        -0.25221550464630127, 
        -0.3107527792453766, 
        0.19357497990131378, 
        -0.09166646003723145, 
        -0.10698030889034271, 
        0.5205134749412537, 
        -0.31478673219680786, 
        0.2950344979763031, 
        -0.3629443347454071, 
        0.22747182846069336, 
        0.08655724674463272, 
        0.33086612820625305, 
        0.3560190796852112, 
        -0.7521988749504089, 
        -0.02914409339427948, 
        0.2207157462835312, 
        -0.024071313440799713, 
        0.2693540155887604, 
        0.057196591049432755, 
        -0.14970913529396057, 
        -0.03414643555879593, 
        -0.10886189341545105, 
        0.0365469865500927, 
        -0.11544544994831085, 
        0.35887038707733154, 
        0.10705981403589249, 
        -0.09966523200273514, 
        0.006522909738123417, 
        0.0035188558977097273, 
        0.20098824799060822, 
        -0.5364699959754944, 
        0.28761976957321167, 
        0.1978473961353302, 
        -0.07541191577911377, 
        0.009574545547366142, 
        -0.12037158757448196, 
        0.15168602764606476, 
        -0.3647240996360779, 
        -0.2834150195121765, 
        0.15515777468681335, 
        0.1736505776643753, 
        -0.6308555006980896, 
        0.09063288569450378, 
        0.4252340495586395, 
        0.05321624502539635, 
        -0.08462685346603394, 
        0.1646016538143158, 
        -0.1236329898238182, 
        -0.020601050928235054, 
        -0.23515234887599945, 
        0.1846737563610077, 
        -0.20229187607765198, 
        -0.2721688449382782, 
        0.0701265037059784, 
        0.5417966842651367, 
        -0.1169765442609787, 
        -0.19249427318572998, 
        -0.021608028560876846, 
        -0.3589925467967987, 
        0.03100312501192093, 
        -0.5453459620475769, 
        -0.3943774700164795, 
        0.025300275534391403, 
        0.08463955670595169, 
        0.30823251605033875, 
        0.36038321256637573, 
        0.15985462069511414, 
        0.2039218544960022, 
        -0.42511677742004395, 
        -0.08390603959560394, 
        -0.05398939922451973, 
        -0.12083547562360764, 
        -0.6268497705459595, 
        0.2749086916446686, 
        -0.14629463851451874, 
        0.0388355553150177, 
        0.4068371653556824, 
        -0.1694587916135788, 
        0.1275765597820282, 
        -0.1570437252521515, 
        -0.00503922626376152, 
        -0.2524942457675934, 
        0.07211961597204208, 
        -0.12773747742176056, 
        0.2272661328315735, 
        -0.4041663706302643, 
        0.11937091499567032, 
        -0.28770938515663147, 
        -0.3039020597934723, 
        0.026850037276744843, 
        -0.04910442978143692, 
        -0.028811924159526825, 
        -0.05155818536877632, 
        -0.2449471354484558, 
        -0.0914650484919548, 
        -0.13905978202819824, 
        -0.049917254596948624, 
        0.016605263575911522, 
        0.06588955223560333, 
        0.09962257742881775, 
        -0.25227728486061096, 
        -0.1219349130988121, 
        -0.27017155289649963, 
        0.11608245223760605, 
        -0.5235962271690369, 
        0.009354577399790287, 
        0.04408759996294975, 
        0.2718462347984314, 
        0.255013108253479, 
        -0.36475321650505066, 
        -0.4311872720718384, 
        0.33299553394317627, 
        0.016817959025502205, 
        0.6311784982681274, 
        0.18166214227676392, 
        0.2953120768070221, 
        0.17947839200496674, 
        0.2041214257478714, 
        -0.0711224228143692, 
        -0.0977340042591095, 
        -0.43043822050094604, 
        0.6950629353523254, 
        0.4180860221385956, 
        0.2813912034034729, 
        0.018113862723112106, 
        0.2588813006877899, 
        -0.07521422952413559, 
        0.09398441761732101, 
        -0.1643882542848587, 
        0.06492415815591812, 
        -0.1321505308151245, 
        -0.5468655824661255, 
        0.24932526051998138, 
        0.27915969491004944, 
        0.06658849120140076, 
        -0.04956663027405739, 
        -0.1559387445449829, 
        -0.00962737761437893, 
        -0.2955000698566437, 
        0.5310742855072021, 
        -0.06041824817657471, 
        0.8539412617683411, 
        0.09983541071414948, 
        0.06683733314275742, 
        -0.22951987385749817, 
        -0.34810346364974976, 
        -0.012190984562039375, 
        0.30598723888397217, 
        -0.3027595281600952, 
        0.6018285155296326, 
        -0.09792272001504898, 
        -0.08257731795310974, 
        0.21726195514202118, 
        0.1406080424785614, 
        0.0401812382042408, 
        0.04489794746041298, 
        0.1302853524684906, 
        0.42284321784973145, 
        0.15822559595108032, 
        -0.1905234158039093, 
        -0.03853430598974228, 
        0.22670288383960724, 
        -0.43672171235084534, 
        -0.13265202939510345, 
        -0.25528666377067566, 
        0.0030700124334543943, 
        0.212924525141716, 
        0.1578984558582306, 
        0.13421814143657684, 
        -0.10289356857538223, 
        -0.058036014437675476, 
        -0.025765560567378998, 
        0.31019601225852966, 
        -0.04239484667778015, 
        0.1554454267024994, 
        -0.5434842109680176, 
        0.1969931274652481, 
        -0.34227457642555237, 
        -0.07544649392366409, 
        0.18362946808338165, 
        -0.06493521481752396, 
        -0.041839849203825, 
        -0.04365498572587967, 
        -0.13788926601409912, 
        0.15238869190216064, 
        0.14212831854820251, 
        0.11611521244049072, 
        0.08173730969429016, 
        -0.018436623737215996, 
        -0.23397019505500793, 
        0.28540658950805664, 
        -0.03690573200583458, 
        -0.4110286235809326, 
        0.17199592292308807, 
        -0.002893251134082675, 
        -0.21856847405433655, 
        0.5243890881538391, 
        -0.03851950913667679, 
        -0.011810948140919209, 
        -0.18534867465496063, 
        0.09411894530057907, 
        -0.29004037380218506, 
        0.3246615529060364, 
        0.2535705268383026, 
        -0.04608616232872009, 
        0.16899196803569794, 
        -0.20882582664489746, 
        -0.25573840737342834, 
        -0.07520794868469238, 
        0.16063891351222992, 
        -0.556012749671936, 
        -0.09563875943422318, 
        0.4012054204940796, 
        0.30491480231285095, 
        0.46371302008628845, 
        -0.2456260770559311, 
        -0.20661386847496033, 
        0.013575096614658833, 
        -0.0836549624800682, 
        -0.33042481541633606, 
        -0.26209521293640137, 
        0.04426067695021629, 
        -0.029404517263174057, 
        0.05469483137130737, 
        0.16808757185935974, 
        0.0017091607442125678, 
        -0.10000498592853546, 
        -0.031364891678094864, 
        -0.17424198985099792, 
        -0.24756278097629547, 
        0.26874393224716187, 
        0.042514462023973465, 
        -0.07594644278287888, 
        0.10981929302215576, 
        0.06705135107040405, 
        -0.16880066692829132, 
        0.15480637550354004, 
        -0.2558414936065674, 
        -0.5146692395210266, 
        0.22586555778980255, 
        -0.20026610791683197, 
        -0.10670405626296997, 
        0.1926306188106537, 
        0.3083488643169403, 
        -0.3306375741958618, 
        0.10039332509040833, 
        -0.14459089934825897, 
        0.3610709309577942, 
        0.35911107063293457, 
        0.655614972114563, 
        -0.02718687430024147, 
        -0.16039210557937622, 
        0.042215071618556976, 
        -0.36401426792144775, 
        -0.1019475907087326, 
        0.02181333489716053, 
        0.1206575334072113, 
        -0.17651470005512238, 
        -0.014426039531826973, 
        0.3589029312133789, 
        -0.2252017706632614, 
        -0.3502327501773834, 
        -0.014231140725314617, 
        0.2493211030960083, 
        -0.2595416307449341, 
        0.12850524485111237, 
        -0.057167038321495056, 
        0.25309163331985474, 
        -0.5719879269599915, 
        -0.3211156725883484, 
        -0.047934792935848236, 
        -0.2938885986804962, 
        -0.21686333417892456, 
        0.1306115686893463, 
        0.42127931118011475, 
        0.1533682644367218, 
        -0.1118176206946373, 
        -0.19648399949073792, 
        0.2054787278175354, 
        0.25069695711135864, 
        -0.1165187805891037, 
        0.23167486488819122, 
        0.08806455135345459, 
        -0.4683823883533478, 
        0.26282092928886414, 
        0.15632972121238708, 
        -0.19519278407096863, 
        -0.07967355102300644, 
        0.026189668104052544, 
        0.22140681743621826, 
        0.4709099233150482, 
        -0.16109247505664825, 
        -0.10068465024232864, 
        0.04924648627638817, 
        -0.21616870164871216, 
        -0.40769094228744507, 
        -0.18069837987422943, 
        0.12582263350486755, 
        -0.0491834431886673, 
        -0.13899730145931244, 
        0.1465584933757782, 
        0.22153633832931519, 
        -0.24494710564613342, 
        -0.3113413453102112, 
        -0.057596176862716675, 
        0.0029621643479913473, 
        0.46578648686408997, 
        0.33238089084625244, 
        -0.3576393723487854, 
        0.14905990660190582, 
        -0.2403348684310913, 
        0.14508649706840515, 
        -0.08063284307718277, 
        -0.08994027972221375, 
        0.2597147822380066, 
        -0.05095769837498665, 
        -0.20518124103546143, 
        0.20755058526992798, 
        0.11682118475437164, 
        -0.2291647046804428, 
        0.16547343134880066, 
        -0.0020064476411789656, 
        0.35029223561286926, 
        0.16514946520328522, 
        -0.32773879170417786, 
        -0.13216491043567657, 
        0.14484864473342896, 
        -0.0038556205108761787, 
        0.39304065704345703, 
        0.4388836920261383, 
        -0.26473096013069153, 
        0.06354105472564697, 
        0.17596538364887238, 
        0.21845901012420654, 
        -0.34436896443367004, 
        0.2628043591976166, 
        0.13417933881282806, 
        -0.6135120391845703, 
        -0.10832678526639938, 
        0.018412156030535698, 
        -0.312468945980072, 
        0.253476619720459, 
        0.26607847213745117, 
        -0.1383495330810547, 
        0.016939319670200348, 
        -0.08052144199609756, 
        -0.19816820323467255, 
        0.19321170449256897, 
        -0.3558795154094696, 
        -0.10537313669919968, 
        -0.20281913876533508, 
        -0.2105748951435089, 
        0.3347039818763733, 
        -0.17564624547958374, 
        0.17187896370887756, 
        -0.5264939069747925, 
        0.47458675503730774, 
        0.44117289781570435, 
        0.21542003750801086, 
        0.3183334767818451, 
        0.21274012327194214, 
        -0.12838581204414368, 
        -0.06351487338542938, 
        -0.2263389527797699, 
        0.14640924334526062, 
        -0.16716094315052032, 
        -0.12572218477725983, 
        0.16394269466400146, 
        -0.051955822855234146, 
        0.20649486780166626, 
        -0.051657069474458694, 
        -0.04051286354660988, 
        -0.11692824214696884, 
        0.4236319065093994, 
        -0.24739256501197815, 
        -0.3498317301273346, 
        0.049037910997867584, 
        0.3590483069419861, 
        0.07202097773551941, 
        0.4574832022190094, 
        -0.17548240721225739, 
        0.05982450023293495, 
        0.1854812055826187, 
        -0.04552283510565758, 
        0.3229895234107971, 
        0.3058687448501587, 
        0.2450302541255951, 
        0.19996745884418488, 
        0.09073836356401443, 
        -0.2086324691772461, 
        -0.033029209822416306, 
        0.4257921874523163, 
        -0.23241880536079407, 
        0.06923357397317886, 
        -0.040208250284194946, 
        0.14739754796028137, 
        0.48580116033554077, 
        0.5593706369400024, 
        0.11296167969703674, 
        0.1213250458240509, 
        -0.6941104531288147, 
        0.07201207429170609, 
        -0.08979113399982452, 
        -0.04946700856089592, 
        0.11985491961240768, 
        -0.06299424171447754, 
        0.06969361752271652, 
        -0.016334950923919678, 
        0.06868963688611984, 
        -0.5298609733581543, 
        0.32263660430908203, 
        -0.1833716481924057, 
        0.11538519710302353, 
        -0.11464028060436249, 
        0.04237489774823189, 
        0.26790741086006165, 
        -0.24815434217453003, 
        -0.08195178210735321, 
        -0.4499790370464325, 
        0.21032360196113586, 
        0.05310871824622154, 
        -0.08032497018575668, 
        0.07205236703157425, 
        -0.23092377185821533, 
        -0.13759905099868774, 
        0.11799808591604233, 
        -0.3096376657485962, 
        0.24983911216259003, 
        0.11794839054346085, 
        0.18347951769828796, 
        0.25678515434265137, 
        -0.2474239021539688, 
        0.37097689509391785, 
        -0.24460364878177643, 
        -0.6637547016143799, 
        0.31922832131385803, 
        0.2159499228000641, 
        0.3285802900791168, 
        0.015273027122020721, 
        0.0477115772664547, 
        -0.15835106372833252, 
        0.17973998188972473, 
        -0.05293266847729683, 
        -0.43088358640670776, 
        -0.37709107995033264, 
        0.11387334018945694, 
        -0.2790987491607666, 
        -0.42558732628822327, 
        0.36411020159721375, 
        -0.1538352072238922, 
        -0.5166687965393066, 
        0.44551488757133484, 
        0.15681128203868866, 
        -0.06950139999389648, 
        0.457760214805603, 
        0.09318383038043976, 
        -0.11860154569149017, 
        -0.0466412752866745, 
        -0.016665030270814896, 
        -0.1650988608598709, 
        -0.008278178051114082, 
        0.0803600326180458, 
        0.1691632717847824, 
        0.1294163018465042, 
        -0.058666158467531204, 
        0.3391611576080322, 
        0.14538510143756866, 
        -0.2283284068107605, 
        -0.1847095936536789, 
        0.11174759268760681, 
        0.4432304799556732, 
        -0.13434959948062897, 
        0.23761488497257233, 
        -0.1482487916946411, 
        0.13622629642486572, 
        -0.39002540707588196, 
        0.13338884711265564, 
        -0.19892005622386932, 
        0.1859084665775299, 
        -0.23951277136802673, 
        0.025099070742726326, 
        0.47989022731781006, 
        -0.013173938728868961, 
        0.5245779156684875, 
        -0.11696873605251312, 
        0.06344334781169891, 
        -0.7148164510726929, 
        -0.10165347158908844, 
        -0.2875056862831116, 
        -0.11706032603979111, 
        0.5229318141937256, 
        0.170065775513649, 
        -0.1757066696882248, 
        0.25423672795295715, 
        -0.1533968299627304, 
        -0.27947402000427246, 
        -0.051767151802778244, 
        -0.0546775758266449, 
        -0.1335916966199875, 
        -0.41976335644721985, 
        -0.2352711707353592, 
        0.0073817078955471516, 
        -0.38283053040504456, 
        0.23425638675689697, 
        0.003110043704509735, 
        -0.06378684937953949, 
        -0.2816982865333557, 
        0.3368246555328369, 
        0.12418145686388016, 
        -0.07759805023670197, 
        0.5816807746887207, 
        0.17600399255752563, 
        0.05847430229187012, 
        0.01790151745080948, 
        0.011600568890571594, 
        0.22406165301799774, 
        0.3000267744064331, 
        0.710856020450592, 
        0.02803831733763218, 
        0.6259957551956177, 
        0.3406427800655365, 
        0.2615945339202881, 
        -0.3417166769504547, 
        -0.15392808616161346, 
        0.1709700971841812, 
        -0.23126599192619324, 
        0.14302045106887817, 
        -0.49476778507232666, 
        -0.13756516575813293, 
        0.09238231182098389, 
        -0.24291853606700897, 
        0.13606536388397217, 
        0.08201263844966888, 
        -0.10525409132242203, 
        0.302945077419281, 
        0.24014651775360107, 
        0.3831753134727478, 
        -0.46339842677116394, 
        -0.4120996296405792, 
        -0.2740468978881836, 
        0.3460603952407837, 
        0.20855878293514252, 
        -0.30164438486099243, 
        0.04050908610224724, 
        -0.35255616903305054, 
        0.2666011452674866, 
        0.18791769444942474, 
        0.010060184635221958, 
        0.12420134991407394, 
        0.20425894856452942, 
        0.09676115214824677, 
        0.0625636950135231, 
        -0.034777600318193436, 
        0.1684499830007553, 
        0.1031552329659462, 
        -0.4237147569656372, 
        0.20407631993293762, 
        -0.2966577708721161, 
        -0.43866899609565735, 
        -0.4933326840400696, 
        -0.22826853394508362, 
        -0.11000190675258636, 
        0.33166179060935974, 
        -0.5041124820709229, 
        0.13029681146144867, 
        0.1826656013727188, 
        0.3795029819011688, 
        -0.10324544459581375, 
        -0.15559878945350647, 
        0.015732839703559875, 
        0.4379831552505493, 
        -0.5033569931983948, 
        -0.023092811927199364, 
        -0.11633814126253128, 
        -0.04478401318192482, 
        0.1893165558576584, 
        -0.018318550661206245, 
        0.1940971165895462, 
        -0.22578629851341248, 
        -0.18531756103038788, 
        0.057603757828474045, 
        0.2359296977519989, 
        0.2103840857744217, 
        0.06429945677518845, 
        -0.025326382368803024, 
        0.16271302103996277, 
        -0.18282710015773773, 
        -0.013462012633681297, 
        0.37171563506126404, 
        -0.3280732035636902, 
        0.06284837424755096, 
        0.2407551258802414, 
        -0.1481056660413742, 
        0.18921034038066864, 
        0.3931961953639984, 
        0.07026489078998566, 
        0.021357053890824318, 
        -0.4151495695114136, 
        -0.4943641126155853, 
        0.32770153880119324, 
        -0.38891804218292236, 
        -0.24844029545783997, 
        0.056009866297245026, 
        -0.11105242371559143, 
        0.06077456846833229, 
        -0.013853766024112701, 
        0.3383544087409973, 
        0.27621498703956604, 
        0.23300369083881378, 
        -0.3428930938243866, 
        -0.283133327960968, 
        -0.34181129932403564, 
        -0.3144129812717438, 
        0.027295148000121117, 
        0.015333808027207851, 
        0.07960525155067444, 
        0.48052695393562317, 
        0.02012469619512558, 
        0.08123303949832916, 
        -0.2950170934200287, 
        -0.014708826318383217, 
        -0.15886510908603668, 
        0.16041146218776703, 
        -0.015714632347226143, 
        -0.3868471086025238, 
        0.5351659655570984, 
        -0.38240188360214233, 
        0.015799202024936676, 
        -0.021917307749390602, 
        0.07035347074270248, 
        0.1489948034286499, 
        0.09888266026973724, 
        -0.14220912754535675, 
        0.0736842006444931, 
        0.11590435355901718, 
        0.33489277958869934, 
        -0.43120068311691284, 
        -0.006656989920884371, 
        0.044259004294872284, 
        0.03171016648411751, 
        0.15586820244789124, 
        -0.42004984617233276, 
        -0.19044168293476105, 
        0.2331891804933548, 
        0.4494766891002655, 
        0.4450204074382782, 
        0.05876661464571953, 
        0.04465639591217041, 
        -0.5149339437484741, 
        0.14908212423324585, 
        -0.05055540055036545, 
        0.027873365208506584, 
        0.3531574010848999, 
        0.07431747019290924, 
        0.05913934111595154, 
        0.053173311054706573, 
        -0.07136132568120956, 
        -0.2204294204711914, 
        0.11513321846723557, 
        0.4480992257595062, 
        -0.36042848229408264, 
        -0.11436119675636292, 
        -0.222962886095047, 
        0.0743035152554512, 
        0.03422285616397858, 
        -0.3283787965774536, 
        -0.32133328914642334, 
        0.3658907413482666, 
        -0.19108569622039795, 
        0.2565929591655731, 
        0.2770991027355194, 
        0.38099971413612366, 
        0.13778290152549744, 
        0.28136971592903137, 
        -0.07677915692329407, 
        -0.10222537070512772, 
        -0.3468562364578247, 
        -0.09644882380962372, 
        0.18112488090991974, 
        0.3448805809020996, 
        0.06164802610874176, 
        1.0435465574264526, 
        0.18997791409492493, 
        -0.12998899817466736, 
        -0.12640728056430817, 
        0.07105812430381775, 
        -0.2654094099998474, 
        -0.08186127245426178, 
        0.10754454880952835, 
        0.2529391050338745, 
        -0.004171107430011034, 
        -0.045251935720443726, 
        -0.057792700827121735, 
        0.021391859278082848, 
        0.17491461336612701, 
        0.09156671166419983, 
        -0.6024919748306274, 
        0.028659574687480927, 
        -0.13189095258712769, 
        0.28179535269737244, 
        0.1499219387769699, 
        0.03243078663945198, 
        0.18035049736499786, 
        -0.37528860569000244, 
        -0.019436808302998543, 
        -0.23848813772201538, 
        0.26270046830177307, 
        -0.5640937089920044, 
        0.06736085563898087, 
        -0.32968348264694214, 
        0.26802539825439453, 
        0.1370863914489746, 
        -0.09238199144601822, 
        -0.1989317387342453, 
        0.15063442289829254, 
        0.294332891702652, 
        0.29667186737060547, 
        -0.19809859991073608, 
        -0.16687345504760742, 
        -0.3156372606754303, 
        -0.0768393948674202, 
        0.4161364734172821, 
        0.43189096450805664, 
        -0.19897961616516113, 
        -0.38069504499435425, 
        0.14455349743366241, 
        -0.14428485929965973, 
        0.0971134677529335, 
        -0.046383086591959, 
        -0.09365087002515793, 
        0.11894416064023972, 
        -0.20181824266910553, 
        -0.3655316233634949, 
        0.3190419375896454, 
        0.04078855365514755, 
        -0.15400724112987518, 
        0.33506035804748535, 
        -0.5221014022827148, 
        -0.1479567587375641, 
        0.283514142036438, 
        -0.09842385351657867, 
        -0.1372206062078476, 
        0.5002440810203552, 
        0.43329644203186035, 
        0.12751007080078125, 
        0.24743440747261047, 
        0.036281246691942215, 
        0.08970259875059128, 
        -0.18904301524162292, 
        -0.13649879395961761, 
        0.3727659285068512, 
        -0.31326308846473694, 
        -0.1717918962240219, 
        -0.3257693648338318, 
        -0.12025929987430573, 
        -0.09707529842853546, 
        0.14483755826950073, 
        -0.33729252219200134, 
        -0.027168376371264458, 
        -0.02838532067835331, 
        -0.334835022687912, 
        0.23231977224349976, 
        -0.18624098598957062, 
        -0.17978404462337494, 
        0.006716777570545673, 
        0.10443348437547684, 
        0.32026544213294983, 
        0.30649223923683167, 
        0.29035189747810364, 
        -0.46037617325782776, 
        0.0791349783539772, 
        0.06061228737235069, 
        -0.44714152812957764, 
        -0.13062191009521484, 
        0.16349251568317413, 
        -0.13796821236610413, 
        -0.0869683101773262, 
        0.027678433805704117, 
        0.2174568623304367, 
        0.3773742616176605, 
        -0.01620982214808464, 
        -0.10971337556838989, 
        0.010764080099761486, 
        0.24556128680706024, 
        -0.019937483593821526, 
        -0.2307792603969574, 
        -0.049737732857465744, 
        0.21811172366142273, 
        -0.12566038966178894, 
        0.13749614357948303, 
        0.17288090288639069, 
        -0.39575067162513733, 
        -0.002969875931739807, 
        0.15507890284061432, 
        0.3239642381668091, 
        -0.1511695235967636, 
        0.07432693988084793, 
        0.3806295692920685, 
        -0.05254454165697098, 
        -0.16200502216815948, 
        -0.08752748370170593, 
        -0.28588056564331055, 
        0.46118009090423584, 
        -0.2903623580932617, 
        -0.03614674136042595, 
        0.2583397924900055, 
        -0.568723201751709, 
        0.5193030834197998, 
        0.12265228480100632, 
        0.1517677903175354, 
        -0.3172707259654999, 
        -0.38065433502197266, 
        0.331874281167984, 
        -0.2861083447933197, 
        0.0685868039727211, 
        0.3966388702392578, 
        -0.21815593540668488, 
        -0.08705808967351913, 
        0.2590753734111786, 
        0.13492533564567566, 
        -0.288207471370697, 
        -0.018417270854115486, 
        -0.3971559703350067, 
        0.4721389710903168, 
        0.16716234385967255, 
        0.009324450045824051, 
        0.052848201245069504, 
        0.1082577183842659, 
        -0.15094797313213348, 
        0.347184956073761, 
        -0.4471292197704315, 
        0.08626993000507355, 
        0.3052195608615875, 
        -0.10696353018283844, 
        0.0915551409125328, 
        0.47320082783699036, 
        0.049332067370414734, 
        0.03427548334002495, 
        0.05482982099056244, 
        -0.16397301852703094, 
        0.2707696557044983, 
        -0.4793615937232971, 
        0.028599202632904053, 
        -0.33794668316841125, 
        -0.1744370013475418, 
        -0.09547954797744751, 
        0.022640647366642952, 
        0.11479084193706512, 
        -0.18568885326385498, 
        0.22573460638523102, 
        -0.2277131825685501, 
        0.1231246292591095, 
        0.36204075813293457, 
        -0.0034676359500736, 
        -0.00639365753158927, 
        -0.006534581072628498, 
        -0.018393216654658318, 
        -0.14090394973754883, 
        -0.3421083390712738, 
        0.3868688941001892, 
        -0.11460768431425095, 
        0.3496697247028351, 
        0.06207623332738876, 
        0.25262126326560974, 
        0.16368888318538666, 
        -0.40310612320899963, 
        0.1978115737438202, 
        0.2642477750778198, 
        0.31902700662612915, 
        -0.34901943802833557, 
        -0.06703425198793411, 
        -0.4386727213859558, 
        -0.40304985642433167, 
        -0.22021164000034332, 
        -0.11355432122945786, 
        -0.19718116521835327, 
        -0.1374044418334961, 
        0.21997635066509247, 
        0.3513961732387543, 
        0.6479114890098572, 
        0.054545123130083084, 
        -0.10031185299158096, 
        0.36150068044662476, 
        -0.6988016963005066, 
        0.1712767481803894, 
        -0.10792969167232513, 
        -0.11008554697036743, 
        0.17130766808986664, 
        -0.09656865894794464, 
        -0.21975761651992798, 
        0.07711280137300491, 
        0.13028490543365479, 
        -0.1143750324845314, 
        -0.07560202479362488, 
        -0.33052757382392883, 
        0.46884843707084656, 
        -0.3434498608112335, 
        -0.12373505532741547, 
        -0.21529848873615265, 
        0.40344035625457764, 
        0.1366368681192398, 
        0.12991493940353394, 
        -0.10751277208328247, 
        0.32740968465805054, 
        0.09163127094507217, 
        -0.15201005339622498, 
        -0.03246532380580902, 
        -0.2085726261138916, 
        -0.3145236372947693, 
        -0.021292801946401596, 
        -0.3397555351257324, 
        -0.20449048280715942, 
        -0.44239526987075806, 
        -0.0827035903930664, 
        0.10346543788909912, 
        -0.34498727321624756, 
        -0.4307624101638794, 
        0.1748150736093521, 
        0.1964907944202423, 
        -0.33299684524536133, 
        0.051221154630184174, 
        0.38609054684638977, 
        -0.3672959506511688, 
        -0.4249182939529419, 
        -0.18998439610004425, 
        -0.002152683911845088, 
        -0.10239546746015549, 
        0.07964465022087097, 
        -0.14202344417572021, 
        0.3209030032157898, 
        -0.35695162415504456, 
        0.6547529697418213, 
        -0.12195125967264175, 
        0.37348315119743347, 
        0.21671563386917114, 
        -0.23110879957675934, 
        0.1426987648010254, 
        0.3098223805427551, 
        0.2570926547050476, 
        0.2052464336156845, 
        -0.07344719022512436, 
        0.15046393871307373, 
        -0.0767868310213089, 
        -0.133681058883667, 
        -0.021419432014226913, 
        0.22409996390342712, 
        -0.09412401914596558, 
        0.004387507680803537, 
        0.058302510529756546, 
        -0.2978983521461487, 
        -0.09209249168634415, 
        0.01946938969194889, 
        -0.11860360950231552, 
        0.33485159277915955, 
        0.00018209894187748432, 
        0.22229348123073578, 
        0.4312020540237427, 
        -0.015696285292506218, 
        0.06847142428159714, 
        0.02761414647102356, 
        -0.3761339783668518, 
        -0.16314393281936646, 
        0.005230015143752098, 
        0.3130098879337311, 
        0.19863392412662506, 
        -0.10644800215959549, 
        -0.030924757942557335, 
        0.2909530699253082, 
        -0.41898688673973083, 
        -0.18855150043964386, 
        0.2694856822490692, 
        0.2679946720600128, 
        -0.100521981716156, 
        -0.23060083389282227, 
        -0.18907339870929718, 
        -0.006885174661874771, 
        0.4031154215335846, 
        0.5700227618217468, 
        0.2061823010444641, 
        -0.24288801848888397, 
        0.022297941148281097, 
        0.06521692126989365, 
        -0.16243945062160492, 
        0.04554319381713867, 
        -0.12093601375818253, 
        -0.15813438594341278, 
        0.17404663562774658, 
        0.626346230506897, 
        0.4375803768634796, 
        -0.03463031351566315, 
        -0.4398128092288971, 
        0.45552724599838257, 
        0.0826943889260292, 
        -0.18051086366176605, 
        0.5512608885765076, 
        0.49667754769325256, 
        0.027172483503818512, 
        -0.30670255422592163, 
        0.15034453570842743, 
        -0.02562464401125908, 
        0.1366647183895111, 
        0.30541834235191345, 
        0.10413108766078949, 
        0.4493226110935211, 
        0.002040127059444785, 
        0.21643207967281342, 
        0.08236781507730484, 
        0.06519125401973724, 
        0.08151137828826904, 
        -0.04194166883826256, 
        0.45478489995002747, 
        -0.3892114460468292, 
        0.12523962557315826, 
        -0.3343186676502228, 
        -0.06170632317662239, 
        -0.6860883831977844, 
        0.12135399878025055, 
        -0.044536665081977844, 
        0.0985104888677597, 
        -0.14664441347122192, 
        -0.1544586420059204, 
        0.36877113580703735, 
        0.32476314902305603, 
        0.5510808229446411, 
        0.040060870349407196, 
        0.19032186269760132, 
        -0.23257221281528473, 
        0.16437257826328278, 
        0.08808771520853043, 
        -0.04455165937542915, 
        0.33052030205726624, 
        -0.7160028219223022, 
        -0.12597337365150452, 
        -0.11533074826002121, 
        0.01919379271566868, 
        0.07521625608205795, 
        0.08109570294618607, 
        0.0016907219542190433, 
        -0.18021397292613983, 
        -0.03795218467712402, 
        -0.18464066088199615, 
        -0.18020644783973694, 
        0.040633752942085266, 
        -0.03742058575153351, 
        -0.623570442199707, 
        0.16335885226726532, 
        -0.2808043956756592, 
        0.20700080692768097, 
        0.7153187990188599, 
        0.5334665775299072, 
        -0.08491829037666321, 
        -0.02690754644572735, 
        -0.18750493228435516, 
        -0.25782477855682373, 
        0.2854979336261749, 
        -0.1587914377450943, 
        0.002951947972178459, 
        0.3920292854309082, 
        -0.2557561695575714, 
        0.7532188892364502, 
        0.3784903883934021, 
        -0.2298901528120041, 
        -0.09577244520187378, 
        0.41384854912757874, 
        -0.49447914958000183, 
        -0.2492854744195938, 
        0.36192598938941956, 
        0.19313186407089233, 
        -0.26170963048934937, 
        0.05563997104763985, 
        0.12780700623989105, 
        0.15081346035003662, 
        0.3327200412750244, 
        -0.17353247106075287, 
        0.33562764525413513, 
        -0.45952704548835754, 
        -0.09938478469848633, 
        -0.15059076249599457, 
        0.12801231443881989, 
        0.14277705550193787, 
        -0.23700900375843048, 
        -0.2469681352376938, 
        0.26582133769989014, 
        0.1056509017944336, 
        0.15719076991081238, 
        0.007794155273586512, 
        0.4469277858734131, 
        0.4355407953262329, 
        0.28199103474617004, 
        -0.17541836202144623, 
        0.19660373032093048, 
        0.2896166741847992, 
        0.25421538949012756, 
        0.8952416181564331, 
        -0.09484004229307175, 
        0.28749775886535645, 
        -0.08248015493154526, 
        0.04283994063735008, 
        0.28951096534729004, 
        -0.45104435086250305, 
        0.031639840453863144, 
        0.15318258106708527, 
        -0.2726440727710724, 
        -0.16432133316993713, 
        0.07270321249961853, 
        0.16613154113292694, 
        -0.244921013712883, 
        0.023204058408737183, 
        -0.11687825620174408, 
        0.0942917987704277, 
        -0.1137676015496254, 
        0.43800053000450134, 
        0.43686920404434204, 
        0.29377293586730957, 
        -0.06975225359201431, 
        -0.06893400847911835, 
        0.3188480734825134, 
        -0.2810675799846649, 
        -0.14437532424926758, 
        -0.07231103628873825, 
        -0.062241099774837494, 
        -0.4950181841850281, 
        0.2500554919242859, 
        0.08588502556085587, 
        -0.0016221723053604364, 
        -0.062126338481903076, 
        0.12487627565860748, 
        -0.04569077119231224, 
        0.21469488739967346, 
        -0.3083159625530243, 
        -0.2919860780239105, 
        -0.14913611114025116, 
        -0.25405681133270264, 
        0.04026222974061966, 
        0.35078543424606323, 
        0.024058232083916664, 
        -0.16082823276519775, 
        0.05652191489934921, 
        -0.5585516095161438, 
        0.06483271718025208, 
        0.262488454580307, 
        0.048227619379758835, 
        -0.056828539818525314, 
        -0.07940579205751419, 
        0.22052037715911865, 
        -0.21248142421245575, 
        -0.10453913360834122, 
        0.2893942594528198, 
        0.16099245846271515, 
        0.02796245738863945, 
        0.03852934017777443, 
        -0.16376593708992004, 
        -0.22118110954761505, 
        0.40139901638031006, 
        -0.044893961399793625, 
        -0.272843599319458, 
        0.27517518401145935, 
        -0.49503400921821594, 
        0.3708106279373169, 
        -0.07258735597133636, 
        -0.06784945726394653, 
        0.07097763568162918, 
        -0.0066880034282803535, 
        -0.19164524972438812, 
        0.318474143743515, 
        -0.2184664011001587, 
        0.28177040815353394, 
        -0.2780090570449829, 
        0.18985456228256226, 
        -0.0026018330827355385, 
        0.2631186246871948, 
        -0.16288749873638153, 
        -0.002402042504400015, 
        -0.11249249428510666, 
        -0.23151621222496033, 
        0.04709241911768913, 
        0.39669930934906006, 
        0.2356584221124649, 
        -0.01103677973151207, 
        -0.041520994156599045, 
        -0.030771248042583466, 
        0.25022080540657043, 
        0.09857162088155746, 
        0.5013415813446045, 
        -0.35694974660873413, 
        0.5167949199676514, 
        0.42719143629074097, 
        0.047344326972961426, 
        -0.14944089949131012, 
        0.1699414700269699, 
        0.06897585093975067, 
        -0.06969862431287766, 
        0.22949042916297913, 
        0.5929174423217773, 
        0.09643498808145523, 
        -0.25433552265167236, 
        0.269589364528656, 
        0.173026442527771, 
        0.041812170296907425, 
        0.3311217129230499, 
        -0.14625859260559082, 
        0.0695401281118393, 
        0.20148919522762299, 
        -0.12958505749702454, 
        0.10488732159137726, 
        0.05669480562210083, 
        0.5588703751564026, 
        0.2924187481403351, 
        0.11182697862386703, 
        0.042977236211299896, 
        -0.3694581687450409, 
        0.5514667630195618, 
        -0.38767924904823303, 
        -0.2962615489959717, 
        0.043272536247968674, 
        0.1387426257133484, 
        -0.05058741569519043, 
        -0.09865003079175949, 
        0.19992007315158844, 
        0.1717257797718048, 
        0.10556785017251968, 
        0.09763612598180771, 
        -0.34656089544296265, 
        -0.1541043519973755, 
        0.08358778059482574, 
        -0.047657035291194916, 
        -0.13118959963321686, 
        0.24991555511951447, 
        -0.2459787130355835, 
        0.21541942656040192, 
        -0.19669918715953827, 
        -0.4365871250629425, 
        -0.15275287628173828, 
        -0.23669950664043427, 
        -0.08316114544868469, 
        -0.35323020815849304, 
        0.43178892135620117, 
        -0.42584943771362305, 
        0.04253923520445824, 
        -0.48238497972488403, 
        -0.07989228516817093, 
        -0.21084757149219513, 
        0.047966379672288895, 
        -0.22429366409778595, 
        0.2458721101284027, 
        -0.33784544467926025, 
        0.017912235110998154, 
        0.3207993805408478, 
        -0.4024701714515686, 
        -0.034881964325904846, 
        -0.16438516974449158, 
        0.0490441657602787, 
        0.09630248695611954, 
        0.1883656531572342, 
        0.48937687277793884, 
        -0.6226444840431213, 
        -0.5316711664199829, 
        -0.12701314687728882, 
        -0.03857332840561867, 
        -0.10007714480161667, 
        -0.8013122081756592, 
        -0.0553998239338398, 
        -0.04823301360011101, 
        -0.039119161665439606, 
        -0.07093831896781921, 
        -0.1351631134748459, 
        -0.07383815944194794, 
        -0.07909880578517914, 
        -0.035891853272914886, 
        0.04484934359788895, 
        -0.043499939143657684, 
        -0.008904492482542992, 
        0.13841859996318817, 
        0.4342193305492401, 
        -0.1439846009016037, 
        0.22147266566753387, 
        0.18244020640850067, 
        0.056098904460668564, 
        0.13912101089954376, 
        -0.04515170678496361, 
        0.3760274052619934, 
        0.014678449369966984, 
        0.011161950416862965, 
        0.6991028189659119, 
        -0.18878301978111267, 
        -0.19917340576648712, 
        0.14133895933628082, 
        -0.32254019379615784, 
        -0.23634709417819977, 
        0.263245552778244, 
        -0.20917095243930817, 
        -0.3694944381713867, 
        0.17317664623260498, 
        -0.14532651007175446, 
        -0.1532096266746521, 
        0.27838629484176636, 
        0.016777584329247475, 
        0.29832667112350464, 
        0.4317677319049835, 
        0.10791585594415665, 
        0.3186624050140381, 
        0.22329317033290863, 
        -0.20174890756607056, 
        -0.008330208249390125, 
        0.10822392255067825, 
        -0.2615814507007599, 
        -0.11799752712249756, 
        0.4131869077682495, 
        0.2211395502090454, 
        0.07956428825855255, 
        0.11952963471412659, 
        0.040231503546237946, 
        0.12387081980705261, 
        -0.12142184376716614, 
        0.035611096769571304, 
        0.058864276856184006, 
        -0.4511781930923462, 
        0.2936069965362549, 
        0.1708131581544876, 
        -0.20051191747188568, 
        -0.1655493825674057, 
        0.10812044888734818, 
        0.1966756135225296, 
        -0.2086097151041031, 
        0.024661647155880928, 
        -0.2204257696866989, 
        -0.15163664519786835, 
        0.596938967704773, 
        -0.26814091205596924, 
        -0.28617754578590393, 
        0.195102721452713, 
        -0.13732339441776276, 
        -0.3385119140148163, 
        -0.0669693872332573, 
        0.5648506283760071, 
        0.28943732380867004, 
        0.27711614966392517, 
        0.33782708644866943, 
        0.0648622214794159, 
        -0.3500131070613861, 
        -0.2952164113521576, 
        0.04626401141285896, 
        0.046467285603284836, 
        0.03321118652820587, 
        -0.1402226686477661, 
        0.48615026473999023, 
        0.02782876417040825, 
        0.3245631456375122, 
        -0.011098125949501991, 
        0.20943334698677063, 
        -0.23060393333435059, 
        0.22292640805244446, 
        0.2465772181749344, 
        -0.1865837574005127, 
        0.30233943462371826, 
        0.2803052067756653, 
        0.48087215423583984, 
        -0.3255118727684021, 
        -0.20627088844776154, 
        0.24250392615795135, 
        0.00018280348740518093, 
        -0.3540690541267395, 
        0.11364105343818665, 
        -0.2183435708284378, 
        -0.14575287699699402, 
        0.146561399102211, 
        -0.28153878450393677, 
        0.0037876253481954336, 
        0.05237061157822609, 
        -0.06967101991176605, 
        -0.01882546953856945, 
        -0.016114220023155212, 
        -0.1212506964802742, 
        0.01279993262141943, 
        0.5961523652076721, 
        0.23509299755096436, 
        -0.015732862055301666, 
        0.02926761284470558, 
        0.061513032764196396, 
        0.08195514231920242, 
        -0.10822843760251999, 
        0.44288015365600586, 
        -0.1986641138792038, 
        0.721227765083313, 
        -0.048414915800094604, 
        -0.10898976773023605, 
        -0.47029799222946167, 
        -0.11762221157550812, 
        -0.1831928938627243, 
        0.35777807235717773, 
        0.12227671593427658, 
        0.4320254325866699, 
        0.051052026450634, 
        0.020269475877285004, 
        -0.27462038397789, 
        -0.29450568556785583, 
        0.13392283022403717, 
        0.08973759412765503, 
        0.021162766963243484, 
        -0.3251360058784485, 
        0.13079994916915894, 
        0.3530048727989197, 
        0.050848715007305145, 
        0.379400372505188, 
        -0.2187650501728058, 
        -0.26382532715797424, 
        0.18065732717514038, 
        0.12725844979286194, 
        0.201860249042511, 
        0.3756806552410126, 
        0.33726441860198975, 
        0.4650970995426178, 
        0.2748216390609741, 
        0.042804230004549026, 
        0.19047273695468903, 
        -0.39163029193878174, 
        -0.1481925994157791, 
        -0.19550560414791107, 
        -0.19197861850261688, 
        -0.06377069652080536, 
        -0.15156856179237366, 
        0.05258531868457794, 
        0.26692768931388855, 
        -0.012383094057440758, 
        0.231528177857399, 
        0.40897616744041443, 
        -0.18557009100914001, 
        0.13184255361557007, 
        0.42515823245048523, 
        0.2788316011428833, 
        0.015798689797520638, 
        -0.29820719361305237, 
        -0.10731049627065659, 
        -0.03941604867577553
      ]
    }, 
    {
      "activation": "rectified", 
      "architecture": "dense", 
      "bias": [
        -0.05123777687549591, 
        -0.07358468323945999, 
        0.05951587110757828, 
        -0.020572014153003693, 
        -0.055800676345825195, 
        -0.07584759593009949, 
        -0.12195349484682083, 
        -0.051677025854587555, 
        0.008455813862383366, 
        0.056163590401411057, 
        0.016809379681944847, 
        0.08098921924829483, 
        -0.04548743739724159, 
        0.089164599776268, 
        -0.07993411272764206, 
        0.04622046649456024, 
        -0.04979876056313515, 
        0.16093702614307404, 
        0.01779276132583618, 
        -0.08336085826158524, 
        -0.07622895389795303, 
        -0.02520393207669258, 
        0.04760120436549187, 
        -0.11670496314764023, 
        0.016717173159122467, 
        -0.036968301981687546, 
        -0.07990662753582001, 
        0.0066592455841600895, 
        -0.06160404160618782, 
        -0.0074639692902565, 
        -0.04993055760860443, 
        0.008254165761172771, 
        -0.05359582602977753, 
        -0.01247423142194748, 
        0.0888553112745285, 
        -0.10804355889558792, 
        0.10064776986837387, 
        -0.10124415904283524, 
        0.10246871411800385, 
        -0.09677059203386307, 
        0.14585377275943756, 
        -0.06405240297317505, 
        -0.010708633810281754, 
        0.059226248413324356, 
        -0.043929826468229294, 
        0.030803928151726723, 
        0.02817533165216446, 
        0.055782850831747055, 
        0.03666191175580025, 
        -0.03181186318397522, 
        -0.06093370541930199, 
        0.10756499320268631, 
        -0.13804325461387634, 
        -0.07735414057970047, 
        -0.10798356682062149, 
        0.07777363061904907, 
        -0.006557044107466936, 
        -0.10301695019006729, 
        0.0508236400783062, 
        0.11316392570734024
      ], 
      "weights": [
        -0.044103045016527176, 
        0.031253039836883545, 
        0.23038482666015625, 
        -0.06726519763469696, 
        -0.2696415185928345, 
        -0.13383084535598755, 
        0.12283226102590561, 
        -0.3181953728199005, 
        0.15948903560638428, 
        -0.3256216049194336, 
        -0.2609064280986786, 
        0.07562252879142761, 
        0.15913619101047516, 
        -0.1392822265625, 
        0.11041489988565445, 
        -0.10444892197847366, 
        0.0057367985136806965, 
        0.028434993699193, 
        -0.08956950902938843, 
        -0.15691117942333221, 
        0.029524248093366623, 
        -0.3492315113544464, 
        0.0967198982834816, 
        -0.04344721511006355, 
        0.016339173540472984, 
        -0.25030097365379333, 
        -0.01599149778485298, 
        -0.15513847768306732, 
        -0.012520302087068558, 
        0.012411742471158504, 
        0.09860493242740631, 
        -0.07422764599323273, 
        -0.06850120425224304, 
        -0.023912541568279266, 
        -0.07940607517957687, 
        -0.14856868982315063, 
        0.07476590573787689, 
        -0.1317838430404663, 
        0.19278328120708466, 
        -0.2184431254863739, 
        0.04786960408091545, 
        -0.0819859728217125, 
        -0.21918782591819763, 
        0.027299530804157257, 
        0.11378709971904755, 
        0.06135747209191322, 
        -0.2042839229106903, 
        0.06410466134548187, 
        -0.003863909747451544, 
        0.033264413475990295, 
        -0.47155067324638367, 
        -0.18665730953216553, 
        0.12456445395946503, 
        0.07306837290525436, 
        -0.2500491738319397, 
        0.04565933346748352, 
        0.15098929405212402, 
        0.2691323459148407, 
        -0.3513888120651245, 
        0.05030781403183937, 
        -0.081179678440094, 
        -0.25867959856987, 
        -0.09740670025348663, 
        -0.1822531521320343, 
        -0.05705641210079193, 
        0.029068756848573685, 
        0.10787919163703918, 
        0.03449884429574013, 
        0.03746986389160156, 
        -0.20226739346981049, 
        -0.28000742197036743, 
        -0.004396835807710886, 
        -0.15956668555736542, 
        0.16205225884914398, 
        0.11499220132827759, 
        0.145743727684021, 
        -0.17436732351779938, 
        -0.06936827301979065, 
        0.2716001272201538, 
        -0.07538501173257828, 
        -0.02730502001941204, 
        0.21008364856243134, 
        -0.1375817507505417, 
        -0.20002292096614838, 
        0.07445848733186722, 
        -0.06181047856807709, 
        -0.20207524299621582, 
        0.09802981466054916, 
        -0.4320889711380005, 
        0.062779001891613, 
        -0.07622352242469788, 
        0.18527807295322418, 
        -0.0810769721865654, 
        -0.19888126850128174, 
        -0.18103580176830292, 
        -0.4296421706676483, 
        0.0060529825277626514, 
        -0.09628789871931076, 
        0.03639799728989601, 
        0.025790898129343987, 
        -0.06339713931083679, 
        0.12108521163463593, 
        0.18910445272922516, 
        0.04318837821483612, 
        0.034791573882102966, 
        0.10685741156339645, 
        -0.1549818515777588, 
        -0.014287294819951057, 
        -0.07142522186040878, 
        0.07006897032260895, 
        0.14628790318965912, 
        -0.20431272685527802, 
        -0.10823431611061096, 
        0.05373700335621834, 
        0.007838328368961811, 
        0.06365405023097992, 
        -0.12262364476919174, 
        -0.16002894937992096, 
        -0.0661093145608902, 
        -0.2833313047885895, 
        0.23607085645198822, 
        -0.19937309622764587, 
        -0.19545215368270874, 
        -0.017402291297912598, 
        -0.07843868434429169, 
        -0.0843854695558548, 
        0.12763169407844543, 
        -0.24033194780349731, 
        0.1256091296672821, 
        -0.27913010120391846, 
        -0.0010624134447425604, 
        -0.13781064748764038, 
        0.05198138207197189, 
        0.09219404309988022, 
        0.01647135615348816, 
        -0.074209064245224, 
        0.051429394632577896, 
        0.1804976463317871, 
        0.10025232285261154, 
        -0.0525733083486557, 
        0.28044646978378296, 
        0.13413900136947632, 
        0.010137775912880898, 
        -0.19920025765895844, 
        0.003780767321586609, 
        0.07130026072263718, 
        -0.1594887673854828, 
        -0.01760770007967949, 
        -0.15123894810676575, 
        0.14544543623924255, 
        0.1296410858631134, 
        -0.3829480707645416, 
        -0.11732620000839233, 
        0.06638484448194504, 
        -0.15287207067012787, 
        0.16544531285762787, 
        0.07631344348192215, 
        -0.016826897859573364, 
        -0.26579567790031433, 
        0.12967278063297272, 
        -0.08258478343486786, 
        -0.1790405660867691, 
        -0.29842549562454224, 
        -0.3874320089817047, 
        0.20330627262592316, 
        -0.03402331471443176, 
        0.05890980362892151, 
        -0.014838133007287979, 
        -0.08414596319198608, 
        0.10353752225637436, 
        0.10457782447338104, 
        0.07113086432218552, 
        -0.18651199340820312, 
        -0.19032596051692963, 
        -0.22747613489627838, 
        -0.5451539158821106, 
        -0.7418873906135559, 
        -0.16412422060966492, 
        0.1012171134352684, 
        0.2395600527524948, 
        0.008351879194378853, 
        0.057204533368349075, 
        -0.051796384155750275, 
        -0.14306914806365967, 
        -0.422133207321167, 
        0.07002800703048706, 
        -0.1295611560344696, 
        0.08256860822439194, 
        -0.010928946547210217, 
        0.07643548399209976, 
        -0.40744489431381226, 
        0.0870773121714592, 
        -0.10565114766359329, 
        -0.572131335735321, 
        -0.04052886366844177, 
        -0.007904197089374065, 
        -0.06411844491958618, 
        -0.04022080823779106, 
        0.06879937648773193, 
        -0.3789719045162201, 
        -0.14857950806617737, 
        0.1056438609957695, 
        -0.08668453246355057, 
        -0.28959906101226807, 
        -0.05567849799990654, 
        -0.029623830690979958, 
        0.06085946783423424, 
        -0.01392919197678566, 
        0.2560063302516937, 
        -0.3705750107765198, 
        0.0639488473534584, 
        -0.6238402724266052, 
        -0.2820086181163788, 
        -0.26648858189582825, 
        0.17338526248931885, 
        -0.4139743745326996, 
        -0.23462526500225067, 
        -0.1509130895137787, 
        0.15450067818164825, 
        -0.2866191565990448, 
        -0.17653170228004456, 
        -0.013460667803883553, 
        -0.388742059469223, 
        0.1609363704919815, 
        0.15189842879772186, 
        -0.06785689294338226, 
        -0.07244764268398285, 
        -0.2600320875644684, 
        -0.4830698072910309, 
        -0.06302620470523834, 
        0.06730105727910995, 
        0.1734641045331955, 
        -0.4409666955471039, 
        0.119603730738163, 
        0.014950118958950043, 
        -0.3098917603492737, 
        -0.006036847364157438, 
        -0.16602525115013123, 
        -0.3363807797431946, 
        -0.12482403218746185, 
        -0.13717903196811676, 
        -0.31101730465888977, 
        0.07508207112550735, 
        -0.5556315779685974, 
        0.048914067447185516, 
        0.03337287902832031, 
        -0.026472413912415504, 
        -0.0880289375782013, 
        -0.01579967513680458, 
        -0.05613121762871742, 
        -0.6995178461074829, 
        0.0246827881783247, 
        0.08911299705505371, 
        0.1689814329147339, 
        0.11194447427988052, 
        -0.16774006187915802, 
        0.24269241094589233, 
        -0.3513120412826538, 
        -0.011911836452782154, 
        -0.25536423921585083, 
        0.08625896275043488, 
        0.1717129647731781, 
        -0.16954642534255981, 
        -0.2971723973751068, 
        0.15416650474071503, 
        0.15427851676940918, 
        0.09425117820501328, 
        -0.2752101421356201, 
        -0.11870919167995453, 
        0.07171577960252762, 
        -0.209530770778656, 
        0.18924686312675476, 
        0.034436702728271484, 
        -0.2110256403684616, 
        0.0655871257185936, 
        -0.1986660361289978, 
        -0.05139054358005524, 
        -0.5641514658927917, 
        0.13065558671951294, 
        0.09136343002319336, 
        -0.2465718686580658, 
        -0.22631961107254028, 
        -0.5732733011245728, 
        -0.036929160356521606, 
        -0.05630706623196602, 
        -0.030575167387723923, 
        0.18080735206604004, 
        -0.5811944007873535, 
        -0.24873429536819458, 
        0.07568719238042831, 
        -0.1215551421046257, 
        0.08611977845430374, 
        -0.24750639498233795, 
        -0.06937852501869202, 
        0.017703626304864883, 
        -0.15650297701358795, 
        0.018016358837485313, 
        -0.05550779402256012, 
        0.15922869741916656, 
        0.062206704169511795, 
        -0.1244397684931755, 
        -0.11209192872047424, 
        0.28203079104423523, 
        -0.41245484352111816, 
        -0.09043479710817337, 
        -0.11478505283594131, 
        0.21501424908638, 
        -0.28760749101638794, 
        -0.15349674224853516, 
        -0.4283893406391144, 
        -0.3925701081752777, 
        -0.07953596860170364, 
        0.02088497206568718, 
        -0.0051090046763420105, 
        0.12311044335365295, 
        -0.15313664078712463, 
        -0.30013060569763184, 
        -0.22485996782779694, 
        0.026248697191476822, 
        -0.5873537063598633, 
        -0.12630490958690643, 
        0.09458008408546448, 
        -0.16815800964832306, 
        0.2111073136329651, 
        0.08653587102890015, 
        -0.022775599732995033, 
        0.05511176586151123, 
        -0.06333228200674057, 
        -0.04015812277793884, 
        -0.4062696695327759, 
        0.04697176441550255, 
        -0.24455265700817108, 
        -0.15550124645233154, 
        0.1296565979719162, 
        0.06575482338666916, 
        0.10339191555976868, 
        0.01544719748198986, 
        0.1416698694229126, 
        -0.07997293770313263, 
        -0.0889543816447258, 
        -0.011870748363435268, 
        0.0649632140994072, 
        -0.06136150658130646, 
        -0.07818377763032913, 
        -0.07683262974023819, 
        -0.31875133514404297, 
        -0.10007929056882858, 
        -0.018682798370718956, 
        -0.1678256243467331, 
        -0.191756471991539, 
        0.0505504310131073, 
        -0.1900676190853119, 
        0.13982461392879486, 
        -0.08170663565397263, 
        -0.04397570714354515, 
        -0.049262192100286484, 
        -0.09659712761640549, 
        -0.07812496274709702, 
        -0.00808768067508936, 
        -0.14089475572109222, 
        0.2148798555135727, 
        -0.21502861380577087, 
        -0.0774720162153244, 
        0.0020481592509895563, 
        -0.34065696597099304, 
        -0.22090119123458862, 
        -0.07760962843894958, 
        0.14905686676502228, 
        -0.09720028936862946, 
        -0.1923113614320755, 
        -0.05950118228793144, 
        0.057675790041685104, 
        -0.11542649567127228, 
        0.07558929175138474, 
        -0.09527794271707535, 
        0.0546172596514225, 
        -0.2836599051952362, 
        -0.1784025877714157, 
        0.14455947279930115, 
        -0.03891289606690407, 
        0.04164572060108185, 
        -0.07030332833528519, 
        -0.13872845470905304, 
        0.10062211751937866, 
        -0.057820696383714676, 
        -0.03742857277393341, 
        0.05096690356731415, 
        -0.14047303795814514, 
        0.045768462121486664, 
        -0.11153887212276459, 
        -0.15773655474185944, 
        -0.1762203723192215, 
        0.19233816862106323, 
        -0.04343828558921814, 
        -0.3387913107872009, 
        -0.23718979954719543, 
        -0.15351837873458862, 
        0.00264585274271667, 
        0.03805823251605034, 
        0.003200636012479663, 
        -0.14905418455600739, 
        0.11761525273323059, 
        -0.1812484860420227, 
        -0.08377788215875626, 
        0.04452865198254585, 
        0.09812478721141815, 
        0.04259171336889267, 
        0.04585900157690048, 
        -0.3081043064594269, 
        0.1422785520553589, 
        0.008659829385578632, 
        -0.3630719780921936, 
        0.1473003476858139, 
        -0.06631816178560257, 
        -0.2964257001876831, 
        -0.0892995297908783, 
        0.005390719976276159, 
        -0.06102248281240463, 
        0.014076726511120796, 
        -0.08590160310268402, 
        0.05228933319449425, 
        0.050743043422698975, 
        0.172635018825531, 
        -0.07817216962575912, 
        0.0650714635848999, 
        -0.20499008893966675, 
        -0.2840365767478943, 
        -0.07916605472564697, 
        0.13862444460391998, 
        -0.024651363492012024, 
        0.10360163450241089, 
        -0.2091188132762909, 
        0.20242150127887726, 
        -0.020473044365644455, 
        -0.0010247540194541216, 
        -0.2397766411304474, 
        -0.03553327918052673, 
        -0.19940263032913208, 
        -0.08019857853651047, 
        0.06889954954385757, 
        0.19697305560112, 
        -0.2389931082725525, 
        -0.25498002767562866, 
        0.0006446700426749885, 
        -0.45194682478904724, 
        0.015337489545345306, 
        0.09770578891038895, 
        0.1238117516040802, 
        -0.1740417331457138, 
        -0.13849887251853943, 
        0.11889848858118057, 
        0.11391396820545197, 
        0.11620104312896729, 
        0.14005602896213531, 
        -0.06038356199860573, 
        -0.08183763921260834, 
        -0.14621734619140625, 
        -0.21312354505062103, 
        -0.08528843522071838, 
        -0.08530331403017044, 
        -0.1357031613588333, 
        0.1260204166173935, 
        0.09794268012046814, 
        0.14041933417320251, 
        -0.005878813099116087, 
        0.21507824957370758, 
        -0.05657889321446419, 
        0.13991710543632507, 
        -0.010849916376173496, 
        -0.1235262081027031, 
        -0.10428566485643387, 
        -0.1241544857621193, 
        0.061422199010849, 
        -0.22634468972682953, 
        0.05392596125602722, 
        0.015804851427674294, 
        -0.02434048242866993, 
        -0.37746956944465637, 
        -0.01850823685526848, 
        -0.15312570333480835, 
        0.09916699677705765, 
        0.006667287088930607, 
        0.02764340676367283, 
        -0.08917324244976044, 
        -0.05093168839812279, 
        -0.25804680585861206, 
        0.05645130202174187, 
        0.11807858943939209, 
        -0.15748833119869232, 
        0.003224611282348633, 
        -0.07743707299232483, 
        0.1165282130241394, 
        -0.05550079420208931, 
        0.0003891056985594332, 
        -0.09776189178228378, 
        -0.19537241756916046, 
        -0.19371427595615387, 
        0.09307990968227386, 
        -0.05587708577513695, 
        -0.004661662969738245, 
        0.070783331990242, 
        0.13851219415664673, 
        0.35563337802886963, 
        -0.4204215407371521, 
        0.06299638003110886, 
        -0.15833522379398346, 
        -0.024368207901716232, 
        0.0248374305665493, 
        -0.16037972271442413, 
        0.15933078527450562, 
        -0.005232204217463732, 
        0.07374851405620575, 
        -0.2474561482667923, 
        0.03376779705286026, 
        0.17595382034778595, 
        -0.06058969348669052, 
        -0.2198803573846817, 
        -0.1733551323413849, 
        -0.026748254895210266, 
        -0.3043070435523987, 
        0.0768689289689064, 
        -0.004081695340573788, 
        0.015809668228030205, 
        -0.3081940710544586, 
        0.09093181043863297, 
        0.05905339494347572, 
        0.12197738885879517, 
        0.10419445484876633, 
        0.17617619037628174, 
        0.13931748270988464, 
        0.17312605679035187, 
        0.005296709947288036, 
        0.04673417657613754, 
        -0.14853478968143463, 
        -0.05320478975772858, 
        -0.32987073063850403, 
        0.17193001508712769, 
        0.1332135647535324, 
        0.0024272738955914974, 
        -0.12219533324241638, 
        0.02326107583940029, 
        0.15594297647476196, 
        0.07290689647197723, 
        0.03854835405945778, 
        -0.00507165864109993, 
        -0.0009673478198237717, 
        -0.008906064555048943, 
        -0.012526409700512886, 
        0.2416483610868454, 
        0.10419510304927826, 
        0.18518100678920746, 
        -0.254896342754364, 
        -0.18031612038612366, 
        -0.14196643233299255, 
        -0.0380241796374321, 
        -0.11634145677089691, 
        -0.044363733381032944, 
        -0.012310253456234932, 
        -0.03688051179051399, 
        -0.07465548813343048, 
        0.054125022143125534, 
        0.10227254033088684, 
        -0.13112971186637878, 
        0.16783872246742249, 
        0.12044942378997803, 
        0.05319365859031677, 
        -0.09009885787963867, 
        -0.3746064007282257, 
        -0.5454827547073364, 
        0.23930540680885315, 
        0.051984935998916626, 
        -0.057484205812215805, 
        -0.31968405842781067, 
        -0.001996293431147933, 
        -0.061918605118989944, 
        0.06798769533634186, 
        0.013182707130908966, 
        -0.11197315901517868, 
        0.10475525259971619, 
        0.041280753910541534, 
        -0.020175635814666748, 
        0.04670153558254242, 
        -0.08956008404493332, 
        -0.016928981989622116, 
        0.07867813110351562, 
        -0.25948575139045715, 
        -0.13795213401317596, 
        0.15575043857097626, 
        -0.0418693870306015, 
        -0.20496384799480438, 
        0.06421797722578049, 
        0.11979438364505768, 
        0.005207838024944067, 
        0.09295853227376938, 
        -0.05418401211500168, 
        -0.06982537358999252, 
        -0.139499232172966, 
        -0.11146832257509232, 
        -0.25071650743484497, 
        -0.28733211755752563, 
        -0.035671066492795944, 
        -0.2933289408683777, 
        0.048985280096530914, 
        0.09216466546058655, 
        -0.05131989344954491, 
        -0.2599976658821106, 
        -0.18745286762714386, 
        0.11639384925365448, 
        -0.29493293166160583, 
        -0.3211003541946411, 
        -0.10012353956699371, 
        -0.05212096869945526, 
        -0.3714085519313812, 
        0.043003760278224945, 
        -0.12959106266498566, 
        -0.09963972866535187, 
        -0.3184434771537781, 
        -0.396452933549881, 
        0.09862200170755386, 
        -0.30705976486206055, 
        0.008497938513755798, 
        -0.05823985114693642, 
        -0.0917849913239479, 
        0.04707251861691475, 
        -0.003913077991455793, 
        0.0906977504491806, 
        -0.17940358817577362, 
        0.031136179342865944, 
        0.08738188445568085, 
        -0.1854700744152069, 
        0.17211690545082092, 
        0.06052443012595177, 
        -0.019629372283816338, 
        0.04071308672428131, 
        -0.08151606470346451, 
        -0.05892828851938248, 
        0.2255951464176178, 
        -0.16467852890491486, 
        -0.020352492108941078, 
        0.1180780753493309, 
        0.01693502999842167, 
        0.09075521677732468, 
        -0.01678732968866825, 
        -0.0784788653254509, 
        0.032314084470272064, 
        -0.11292722821235657, 
        -0.0165097638964653, 
        -0.1940770000219345, 
        -0.38294079899787903, 
        0.12097668647766113, 
        -0.04523308947682381, 
        -0.12192618101835251, 
        0.07381172478199005, 
        0.015248625539243221, 
        -0.07764741033315659, 
        0.02923244796693325, 
        -0.06977488100528717, 
        0.04660186544060707, 
        -0.0002121619472745806, 
        0.192189559340477, 
        -0.05098821595311165, 
        0.08310280740261078, 
        -0.12939190864562988, 
        -0.05144539102911949, 
        -0.1084977313876152, 
        -0.06100926548242569, 
        -0.08480047434568405, 
        0.08973603695631027, 
        0.233809232711792, 
        -0.07717099040746689, 
        -0.06515654921531677, 
        0.05628569424152374, 
        0.08110132068395615, 
        0.053582530468702316, 
        0.18668530881404877, 
        -0.07842360436916351, 
        -0.19042135775089264, 
        -0.029441630467772484, 
        -0.08197390288114548, 
        -0.00886363536119461, 
        -0.11274448782205582, 
        -0.00756291626021266, 
        0.06863641738891602, 
        -0.027490966022014618, 
        0.013556396588683128, 
        -0.5070385336875916, 
        -0.11881739646196365, 
        0.07739830762147903, 
        -0.10603568702936172, 
        -0.35802125930786133, 
        0.016997164115309715, 
        -0.030428767204284668, 
        -0.32855772972106934, 
        0.06441757082939148, 
        -0.039260134100914, 
        0.05234955623745918, 
        -0.06684186309576035, 
        -0.23489195108413696, 
        0.026146700605750084, 
        0.162379190325737, 
        -0.022528549656271935, 
        -0.04420683905482292, 
        -0.0003144003276247531, 
        -0.14074330031871796, 
        0.08655273169279099, 
        -0.08969751745462418, 
        -0.05824309214949608, 
        0.070771723985672, 
        -0.07437535375356674, 
        0.1827879250049591, 
        -0.11810899525880814, 
        0.04511205852031708, 
        -0.06030762195587158, 
        0.13264036178588867, 
        -0.2144116461277008, 
        0.049084559082984924, 
        0.36797741055488586, 
        -0.2342952936887741, 
        0.17562493681907654, 
        0.00811476819217205, 
        0.03070032224059105, 
        -0.18834537267684937, 
        0.15152400732040405, 
        -0.21748211979866028, 
        -0.0516345277428627, 
        0.12002070993185043, 
        -0.02225550077855587, 
        0.07365026324987411, 
        0.2309904545545578, 
        -0.08221238106489182, 
        -0.383002907037735, 
        0.08156070858240128, 
        0.022411789745092392, 
        0.05949162691831589, 
        -0.06542370468378067, 
        -0.25599411129951477, 
        0.15834155678749084, 
        -0.032537251710891724, 
        0.083432137966156, 
        -0.4040021300315857, 
        0.1645452380180359, 
        -0.047102224081754684, 
        -0.06516990065574646, 
        -0.1280072033405304, 
        0.035249460488557816, 
        0.12640230357646942, 
        0.10398605465888977, 
        -0.036368828266859055, 
        -0.1681489795446396, 
        -0.1629011332988739, 
        -0.3996928036212921, 
        0.0037779470440000296, 
        0.09519238024950027, 
        -0.4475788474082947, 
        -0.09501105546951294, 
        -0.08492814749479294, 
        -0.0344407744705677, 
        0.02175602875649929, 
        -0.16396798193454742, 
        -0.0019747342448681593, 
        -0.07042254507541656, 
        0.06720632314682007, 
        -0.40534141659736633, 
        -0.15074217319488525, 
        0.036105114966630936, 
        -0.19860336184501648, 
        -0.059966787695884705, 
        -0.4161843955516815, 
        -0.0745227187871933, 
        -0.2792094051837921, 
        -0.211313858628273, 
        -0.027684256434440613, 
        0.1673993170261383, 
        0.07124730199575424, 
        -0.3445185422897339, 
        -0.00791103020310402, 
        0.03718636557459831, 
        0.020606212317943573, 
        -0.20988531410694122, 
        -0.15414667129516602, 
        -0.41156065464019775, 
        -0.11456441879272461, 
        0.354147344827652, 
        -0.24361595511436462, 
        0.0720645859837532, 
        -0.24645863473415375, 
        0.0897681787610054, 
        -0.10193580389022827, 
        -0.19986176490783691, 
        -0.019694896414875984, 
        -0.11358531564474106, 
        0.12096954137086868, 
        0.15273325145244598, 
        -0.04557539150118828, 
        -0.029346376657485962, 
        -0.032687846571207047, 
        -0.08657831698656082, 
        -0.13483883440494537, 
        0.07647821307182312, 
        -0.17497296631336212, 
        -0.055983904749155045, 
        -0.03927747532725334, 
        -0.10403763502836227, 
        -0.21596120297908783, 
        0.08232194185256958, 
        0.143662229180336, 
        -0.2025962769985199, 
        -0.2249232530593872, 
        -0.4868105351924896, 
        0.11900365352630615, 
        -0.0018323268741369247, 
        -0.36999696493148804, 
        -0.45540714263916016, 
        0.0905323252081871, 
        -0.2741800546646118, 
        -0.25715363025665283, 
        0.09295305609703064, 
        -0.01825173944234848, 
        -0.01190061867237091, 
        -0.01828068122267723, 
        0.09048635512590408, 
        0.10155031830072403, 
        0.11809437721967697, 
        0.03615107759833336, 
        -0.048861343413591385, 
        -0.2933332026004791, 
        -0.03183365985751152, 
        0.34217342734336853, 
        0.13725265860557556, 
        -0.3180186152458191, 
        -0.005757870618253946, 
        0.03231433033943176, 
        -0.06843454390764236, 
        0.11046594381332397, 
        0.14416652917861938, 
        0.06333455443382263, 
        -0.09686432778835297, 
        -0.260530561208725, 
        -0.3571465313434601, 
        -0.2821224331855774, 
        -0.04696590453386307, 
        -0.3315728008747101, 
        0.16920049488544464, 
        0.04522237554192543, 
        -0.15092626214027405, 
        0.10320153832435608, 
        -0.038954202085733414, 
        0.0938110277056694, 
        -0.05205472931265831, 
        -0.45611488819122314, 
        0.004642218351364136, 
        0.11674164980649948, 
        -0.024725202471017838, 
        0.02386060170829296, 
        -0.09318871051073074, 
        -0.07061485946178436, 
        -0.4391144812107086, 
        -0.2514367997646332, 
        0.009813421405851841, 
        -0.38944169878959656, 
        -0.02583962120115757, 
        -0.07453075796365738, 
        -0.24513666331768036, 
        0.01075327955186367, 
        -0.19239701330661774, 
        0.1032199040055275, 
        -0.23183928430080414, 
        0.0037586665712296963, 
        -0.08403151482343674, 
        -0.05295513942837715, 
        0.21486380696296692, 
        -0.0670504942536354, 
        0.05126507207751274, 
        0.12748143076896667, 
        -0.05936579778790474, 
        -0.07063993811607361, 
        0.004784353543072939, 
        -0.0501992404460907, 
        0.05291542038321495, 
        0.008264943026006222, 
        0.15487830340862274, 
        0.027088435366749763, 
        -0.5465255975723267, 
        -0.13307295739650726, 
        0.15769225358963013, 
        -0.43608394265174866, 
        -0.09516718238592148, 
        -0.06906450539827347, 
        0.028676392510533333, 
        -0.244587242603302, 
        0.1713859885931015, 
        0.007531338836997747, 
        -0.026833144947886467, 
        -0.09242155402898788, 
        0.10332433134317398, 
        -0.5180887579917908, 
        0.07420258224010468, 
        0.009964903816580772, 
        0.16836240887641907, 
        0.19509382545948029, 
        -0.024905571714043617, 
        -0.3797109127044678, 
        0.11125979572534561, 
        -0.18218865990638733, 
        -0.08795055001974106, 
        -0.07436888664960861, 
        -0.11683260649442673, 
        -0.12495165318250656, 
        -0.2276279181241989, 
        -0.13242830336093903, 
        -0.28702396154403687, 
        -0.7007425427436829, 
        -0.16519266366958618, 
        0.12251029908657074, 
        0.05054570361971855, 
        -0.19786407053470612, 
        0.11473764479160309, 
        0.07016746699810028, 
        0.06579617410898209, 
        -0.14102569222450256, 
        0.18939347565174103, 
        0.04572568088769913, 
        0.08721861243247986, 
        -0.2732330858707428, 
        0.005494885146617889, 
        -0.011121769435703754, 
        -0.03299722820520401, 
        -0.39106103777885437, 
        -0.10862814635038376, 
        0.00856702122837305, 
        -0.24431553483009338, 
        -0.2697617709636688, 
        0.1461516171693802, 
        -0.007725148927420378, 
        0.06455674767494202, 
        0.033144768327474594, 
        0.04243294522166252, 
        0.038810133934020996, 
        -0.04853063076734543, 
        -0.25751161575317383, 
        -0.15461398661136627, 
        0.019850222393870354, 
        0.08128935098648071, 
        0.1804792433977127, 
        0.17363685369491577, 
        -0.5224332213401794, 
        -0.23264774680137634, 
        -0.2893565893173218, 
        -0.14053627848625183, 
        0.11056429147720337, 
        -0.08542639762163162, 
        0.12507610023021698, 
        -0.008335179649293423, 
        -0.37785452604293823, 
        0.06253654509782791, 
        -0.06755043566226959, 
        -0.2957442104816437, 
        0.17041240632534027, 
        -0.11092651635408401, 
        0.013088583014905453, 
        -0.02766210213303566, 
        0.07769700139760971, 
        -0.21521776914596558, 
        -0.10548955202102661, 
        0.06758514791727066, 
        0.0744960755109787, 
        -0.3044845163822174, 
        0.03232939913868904, 
        -0.3978130519390106, 
        0.049514852464199066, 
        -0.022049428895115852, 
        -0.07094886898994446, 
        -0.3179902732372284, 
        0.07777740061283112, 
        -0.3863290250301361, 
        -0.27420899271965027, 
        -0.059501100331544876, 
        0.01942833885550499, 
        0.04021209105849266, 
        0.03225257992744446, 
        0.08980918675661087, 
        -0.13952629268169403, 
        0.047078363597393036, 
        -0.09365232288837433, 
        0.14743220806121826, 
        0.03183000534772873, 
        -0.11901053786277771, 
        -0.11195143312215805, 
        0.0971786305308342, 
        -0.14018221199512482, 
        -0.003272267756983638, 
        0.005043416284024715, 
        -0.019417621195316315, 
        0.28989073634147644, 
        0.017155617475509644, 
        -0.21254222095012665, 
        -0.2998654246330261, 
        0.15637613832950592, 
        -0.12475376576185226, 
        -0.2580643594264984, 
        -0.001722339540719986, 
        -0.35360780358314514, 
        -0.0745539590716362, 
        -0.11382688581943512, 
        0.07036864757537842, 
        0.06291258335113525, 
        -0.20197351276874542, 
        -0.09203186631202698, 
        -0.022451968863606453, 
        -0.24602721631526947, 
        0.1643436849117279, 
        0.07083477824926376, 
        -0.3891552686691284, 
        -0.07796020805835724, 
        -0.16832022368907928, 
        -0.1050613522529602, 
        -0.24493025243282318, 
        -0.25614050030708313, 
        -0.10872126370668411, 
        -0.1778038889169693, 
        0.08108354359865189, 
        -0.19125984609127045, 
        0.05222085490822792, 
        0.19001570343971252, 
        -0.21753904223442078, 
        0.08083783835172653, 
        -0.39381569623947144, 
        0.0771411657333374, 
        0.044302601367235184, 
        0.10267449170351028, 
        0.18947429955005646, 
        -0.12626415491104126, 
        0.003957499284297228, 
        0.05286499485373497, 
        0.02582920715212822, 
        0.08750113844871521, 
        -0.05056086927652359, 
        -0.2385488897562027, 
        0.10405152291059494, 
        0.22387517988681793, 
        -0.15876750648021698, 
        -0.4379706084728241, 
        -0.5499053001403809, 
        -0.3858051896095276, 
        0.21658216416835785, 
        -0.5471833348274231, 
        0.2297656536102295, 
        -0.2923448085784912, 
        -0.014318552799522877, 
        0.02377133071422577, 
        0.07168378680944443, 
        0.08866271376609802, 
        -0.07352885603904724, 
        -0.050794512033462524, 
        0.24875101447105408, 
        -0.027895793318748474, 
        -0.6831074357032776, 
        0.0623616985976696, 
        0.07116737216711044, 
        0.07285784184932709, 
        -0.550477921962738, 
        0.12975919246673584, 
        0.2526908218860626, 
        -0.19955621659755707, 
        -0.37728816270828247, 
        0.10694155842065811, 
        -0.13694292306900024, 
        0.2379806488752365, 
        -0.1275394856929779, 
        -0.10377573221921921, 
        -0.0444488525390625, 
        -0.31367793679237366, 
        0.017229465767741203, 
        -0.3578389286994934, 
        -0.3375111222267151, 
        -0.16947107017040253, 
        -0.13561338186264038, 
        -0.04365556687116623, 
        -0.0475643016397953, 
        -0.2894682288169861, 
        -0.21971973776817322, 
        -0.19196385145187378, 
        -0.20238761603832245, 
        -0.29737648367881775, 
        0.2793690860271454, 
        0.18716531991958618, 
        -0.3575569987297058, 
        0.1643054485321045, 
        -0.0358959324657917, 
        0.2950044870376587, 
        0.18706312775611877, 
        -0.7044743895530701, 
        0.22547809779644012, 
        0.03539456054568291, 
        -0.1403678059577942, 
        -0.233798548579216, 
        -0.16513946652412415, 
        -0.20874261856079102, 
        -0.04020188748836517, 
        -0.18530325591564178, 
        -0.6018539667129517, 
        0.2415991723537445, 
        -0.09541312605142593, 
        0.036787278950214386, 
        0.01752926968038082, 
        -0.14207983016967773, 
        -0.04084845632314682, 
        0.11468838900327682, 
        -0.3410640060901642, 
        -0.26208847761154175, 
        -0.03921786695718765, 
        0.14897722005844116, 
        -0.4114348888397217, 
        -0.2652430534362793, 
        0.037657275795936584, 
        0.09220059216022491, 
        -0.24099566042423248, 
        0.07082130759954453, 
        -0.42735669016838074, 
        -0.028094297274947166, 
        -0.06598744541406631, 
        -0.0725962445139885, 
        -0.22489449381828308, 
        -0.027654442936182022, 
        0.14397230744361877, 
        0.04037526249885559, 
        0.03847305849194527, 
        -0.20922043919563293, 
        -0.26442015171051025, 
        -0.04282420501112938, 
        0.20913377404212952, 
        0.03990187495946884, 
        0.2271622270345688, 
        -0.07634180784225464, 
        -0.2137121856212616, 
        0.0959853082895279, 
        0.21297982335090637, 
        -0.053641486912965775, 
        0.014406250789761543, 
        0.08483003824949265, 
        0.21810679137706757, 
        -0.06289565563201904, 
        0.05877653509378433, 
        0.05135299265384674, 
        0.0030812593176960945, 
        0.05583015829324722, 
        -0.09855077415704727, 
        -0.08764148503541946, 
        -0.07956146448850632, 
        -0.18681810796260834, 
        0.2464892864227295, 
        0.010397795587778091, 
        0.09198594093322754, 
        -0.03321852907538414, 
        -0.039388760924339294, 
        -0.14344754815101624, 
        -0.1967209279537201, 
        -0.010009309276938438, 
        -0.22159314155578613, 
        -0.1444835662841797, 
        -0.12526197731494904, 
        0.1595902144908905, 
        0.014638331718742847, 
        -0.016576185822486877, 
        -0.036121219396591187, 
        -0.15840217471122742, 
        -0.19598601758480072, 
        -0.2043386846780777, 
        0.13725176453590393, 
        -0.19907841086387634, 
        0.0018582070479169488, 
        -0.16778819262981415, 
        -0.17647583782672882, 
        0.05228811874985695, 
        0.04134847968816757, 
        0.05195348337292671, 
        -0.14775404334068298, 
        -0.13453908264636993, 
        0.07657989859580994, 
        0.016071485355496407, 
        -0.042781516909599304, 
        0.0316898450255394, 
        -0.21007899940013885, 
        -0.031003916636109352, 
        -0.3407432436943054, 
        0.03985472396016121, 
        -0.06809154897928238, 
        0.025323914363980293, 
        0.23188172280788422, 
        0.13437730073928833, 
        -0.07659370452165604, 
        -0.2978276312351227, 
        0.2100796401500702, 
        -0.01629476808011532, 
        -0.2026783674955368, 
        -0.3488159775733948, 
        0.1242445781826973, 
        -0.032350730150938034, 
        -0.11335787177085876, 
        -0.07703807950019836, 
        0.030710462480783463, 
        -0.09313492476940155, 
        0.09950856119394302, 
        -0.3514460027217865, 
        -0.04584675282239914, 
        0.024268656969070435, 
        0.0072289505042135715, 
        -0.02124101109802723, 
        -0.22255687415599823, 
        0.05229394882917404, 
        -0.08254134654998779, 
        0.06458587944507599, 
        -0.26372718811035156, 
        -0.18454517424106598, 
        0.06393235176801682, 
        -0.16915254294872284, 
        -0.026882031932473183, 
        -0.012067913077771664, 
        0.14708416163921356, 
        -0.008953534066677094, 
        -0.08562221378087997, 
        0.10538513958454132, 
        -0.10749251395463943, 
        -0.17878878116607666, 
        0.08609431236982346, 
        -0.14820662140846252, 
        0.11040844768285751, 
        -0.09242217242717743, 
        -0.1925245225429535, 
        -0.02535266801714897, 
        -0.41057896614074707, 
        -0.3144589066505432, 
        0.08344779908657074, 
        -0.5291047096252441, 
        -0.04861310124397278, 
        0.006023246329277754, 
        0.05132371187210083, 
        0.08824249356985092, 
        -0.15691933035850525, 
        0.09274213016033173, 
        0.05752721428871155, 
        0.18318605422973633, 
        -0.034773871302604675, 
        -0.048396751284599304, 
        -0.06387919187545776, 
        0.15526996552944183, 
        0.11486174911260605, 
        -0.3621520400047302, 
        -0.1418440192937851, 
        -0.26366081833839417, 
        -0.1932082176208496, 
        -0.19602899253368378, 
        0.11409878730773926, 
        -0.14148516952991486, 
        0.22533348202705383, 
        0.10751081258058548, 
        0.18317359685897827, 
        -0.13057415187358856, 
        -0.040262579917907715, 
        -0.0767800360918045, 
        -0.19099605083465576, 
        -0.030334463343024254, 
        -0.1410440355539322, 
        -0.0569884330034256, 
        0.2628980278968811, 
        -0.4116242229938507, 
        -0.02016269415616989, 
        0.06757640838623047, 
        -0.3568766117095947, 
        0.04711325839161873, 
        -0.18318858742713928, 
        0.03050868585705757, 
        0.12289552390575409, 
        0.13737201690673828, 
        0.01903466321527958, 
        -0.28822991251945496, 
        -0.11244744807481766, 
        0.1387469619512558, 
        -0.3366193473339081, 
        -0.06424854695796967, 
        0.09494605660438538, 
        0.1686250865459442, 
        -0.06937482208013535, 
        -0.3423512578010559, 
        -0.1385630965232849, 
        0.10022133588790894, 
        -0.20500317215919495, 
        0.07995132356882095, 
        -0.15081065893173218, 
        -0.026099354028701782, 
        -0.04921992868185043, 
        -0.19353213906288147, 
        -0.19404883682727814, 
        0.06291209161281586, 
        -0.07600599527359009, 
        -0.1135086789727211, 
        -0.09929945319890976, 
        -0.08882861584424973, 
        -0.06868892163038254, 
        -0.046687327325344086, 
        -0.06344841420650482, 
        -0.07392872124910355, 
        -0.015450126491487026, 
        0.008541172370314598, 
        -0.35110920667648315, 
        -0.14082229137420654, 
        -0.062138862907886505, 
        -0.02841634303331375, 
        -0.1344340592622757, 
        -0.13614581525325775, 
        0.0018036729888990521, 
        0.1121106892824173, 
        -0.06211553514003754, 
        0.24238207936286926, 
        -0.02706296183168888, 
        -0.3550688326358795, 
        0.03355013206601143, 
        -0.275963693857193, 
        -0.2875375747680664, 
        -0.09974861890077591, 
        -0.0552457794547081, 
        -0.2800253927707672, 
        0.03516959771513939, 
        -0.07920023798942566, 
        -0.16722528636455536, 
        -0.1260487288236618, 
        -0.3445371985435486, 
        0.0403861440718174, 
        0.13088610768318176, 
        -0.18006235361099243, 
        0.020526092499494553, 
        0.0017344998195767403, 
        -0.10674155503511429, 
        0.09233418852090836, 
        0.016077520325779915, 
        -0.1181565374135971, 
        -0.0748414546251297, 
        -0.12068213522434235, 
        -0.19486291706562042, 
        -0.0012396358652040362, 
        0.03407399728894234, 
        0.01537046954035759, 
        -0.36181920766830444, 
        0.11504828929901123, 
        0.029843151569366455, 
        -0.2110241949558258, 
        0.05207441747188568, 
        -0.033581607043743134, 
        -0.08968763798475266, 
        0.0006709889858029783, 
        -0.07894560694694519, 
        0.03445930406451225, 
        0.1619933843612671, 
        0.09648678451776505, 
        0.36278557777404785, 
        0.11840653419494629, 
        0.13066865503787994, 
        0.12328013777732849, 
        0.10437822341918945, 
        0.18591558933258057, 
        -0.7718104124069214, 
        -0.5458441376686096, 
        -0.12629418075084686, 
        -0.6709215641021729, 
        0.16050666570663452, 
        -0.15172404050827026, 
        0.29317399859428406, 
        -0.23174434900283813, 
        0.18312378227710724, 
        0.03467725217342377, 
        0.03739713132381439, 
        -0.10649865865707397, 
        -0.08760209381580353, 
        -0.31493085622787476, 
        -0.12899111211299896, 
        -0.3059660494327545, 
        -0.6873661875724792, 
        0.21128346025943756, 
        0.12770286202430725, 
        -0.0821697786450386, 
        -0.2294871062040329, 
        0.06669823080301285, 
        0.023114433512091637, 
        -0.31325817108154297, 
        -0.2685021162033081, 
        0.10327903926372528, 
        0.06702704727649689, 
        0.09693224728107452, 
        -0.07248054444789886, 
        0.10206872969865799, 
        -0.05952133238315582, 
        0.12590141594409943, 
        0.19242413341999054, 
        -0.361897736787796, 
        -0.08124581724405289, 
        -0.11671564728021622, 
        0.16543951630592346, 
        -0.13221746683120728, 
        -0.007511939387768507, 
        -0.295013427734375, 
        -0.1962313950061798, 
        -0.19058412313461304, 
        -0.7799256443977356, 
        -0.7007331252098083, 
        -0.04193412512540817, 
        -0.08903536200523376, 
        0.03973499685525894, 
        0.10657233744859695, 
        0.07645279914140701, 
        -0.1609850525856018, 
        0.01732291653752327, 
        -0.5388758182525635, 
        -0.25918814539909363, 
        -0.1363137662410736, 
        0.051967862993478775, 
        -0.27907365560531616, 
        -0.35389721393585205, 
        0.07877583056688309, 
        0.26403698325157166, 
        -0.03922056034207344, 
        -0.38956117630004883, 
        0.08179915696382523, 
        -0.033542927354574203, 
        0.08971160650253296, 
        -0.17702661454677582, 
        0.08001229912042618, 
        -0.16855864226818085, 
        0.11485513299703598, 
        -0.390307754278183, 
        -0.248475581407547, 
        -0.006840958725661039, 
        -0.16630412638187408, 
        -0.5601580739021301, 
        0.09260609745979309, 
        0.04095599055290222, 
        0.16207647323608398, 
        -0.029709942638874054, 
        0.0758550614118576, 
        -0.537771463394165, 
        0.15232087671756744, 
        0.09519689530134201, 
        0.0850272849202156, 
        -0.14608503878116608, 
        -0.02296466939151287, 
        0.010347053408622742, 
        0.06810108572244644, 
        0.00876845233142376, 
        -0.17385542392730713, 
        -0.34844470024108887, 
        -0.3895121216773987, 
        0.03005816414952278, 
        0.20275452733039856, 
        0.00901868473738432, 
        0.08705364167690277, 
        0.0030441603157669306, 
        -0.07628067582845688, 
        0.11313997954130173, 
        -0.0022953078150749207, 
        -0.1279478371143341, 
        0.01578737609088421, 
        0.01563979871571064, 
        -0.029854560270905495, 
        0.02983594872057438, 
        0.1538088470697403, 
        -0.08380483090877533, 
        0.04706234857439995, 
        -0.10036158561706543, 
        -0.35038188099861145, 
        -0.13143408298492432, 
        -0.08412565290927887, 
        -0.028139248490333557, 
        -0.26268133521080017, 
        0.17881780862808228, 
        0.11507250368595123, 
        -0.2359924167394638, 
        -0.2093072235584259, 
        -0.05741919204592705, 
        -0.07588507235050201, 
        -0.1571701318025589, 
        -0.0867874026298523, 
        0.13789987564086914, 
        -0.1432962268590927, 
        0.15667133033275604, 
        0.10434359312057495, 
        0.10265982151031494, 
        -0.3815810978412628, 
        -0.159956693649292, 
        -0.007749918848276138, 
        -0.17229968309402466, 
        -0.11870172619819641, 
        -0.09846946597099304, 
        0.10966964066028595, 
        -0.09158215671777725, 
        -0.02894524484872818, 
        -0.30933740735054016, 
        -0.10641227662563324, 
        -0.12408405542373657, 
        -0.11204372346401215, 
        -0.055344246327877045, 
        -0.06740468740463257, 
        0.022956807166337967, 
        -0.10667524486780167, 
        -0.15680411458015442, 
        0.21243366599082947, 
        -0.42477503418922424, 
        0.1008855402469635, 
        -0.24518625438213348, 
        0.010299066081643105, 
        0.03709476441144943, 
        -0.016035865992307663, 
        -0.10759046673774719, 
        -0.1850253939628601, 
        0.07808652520179749, 
        -0.007787669077515602, 
        -0.22909851372241974, 
        -0.09431356191635132, 
        0.0815848857164383, 
        -0.3293188810348511, 
        0.14284631609916687, 
        0.19137679040431976, 
        0.030179619789123535, 
        0.18909238278865814, 
        -0.0696471557021141, 
        -0.09308014065027237, 
        0.2447051703929901, 
        -0.05567960813641548, 
        -0.32671210169792175, 
        0.12462661415338516, 
        -0.36372464895248413, 
        -0.20779527723789215, 
        0.0807574987411499, 
        -0.14107267558574677, 
        -0.029040129855275154, 
        0.062231436371803284, 
        -0.19418348371982574, 
        0.0345630943775177, 
        -0.15480808913707733, 
        0.006289275363087654, 
        0.15080566704273224, 
        -0.09249038994312286, 
        0.0035680478904396296, 
        0.08740773797035217, 
        0.08236830681562424, 
        0.03189617022871971, 
        0.06169745326042175, 
        -0.05225200206041336, 
        -0.1271018236875534, 
        -0.33357951045036316, 
        0.038019441068172455, 
        -0.2246234267950058, 
        0.05517052859067917, 
        0.09958559274673462, 
        -0.027716323733329773, 
        0.12613308429718018, 
        -0.09634405374526978, 
        -0.02881249226629734, 
        -0.03895055502653122, 
        -0.1867353618144989, 
        0.00798675138503313, 
        0.06151926517486572, 
        -0.2236699014902115, 
        -0.24699667096138, 
        0.09338695555925369, 
        0.028685487806797028, 
        -0.08549418300390244, 
        -0.14251846075057983, 
        -0.1639176309108734, 
        -0.11385348439216614, 
        -0.04836167022585869, 
        -0.30331021547317505, 
        0.11928362399339676, 
        -0.010649021714925766, 
        0.06362677365541458, 
        -0.07770924270153046, 
        -0.31877070665359497, 
        -0.017214542254805565, 
        -0.20025324821472168, 
        -0.29665520787239075, 
        -0.05096952244639397, 
        -0.09158571064472198, 
        0.05674773082137108, 
        -0.15050357580184937, 
        0.14610043168067932, 
        0.11700540035963058, 
        0.26600584387779236, 
        0.010597621090710163, 
        -0.35334882140159607, 
        0.0362723134458065, 
        0.08572746068239212, 
        -0.21736012399196625, 
        0.010375180281698704, 
        0.0869516134262085, 
        -0.06543908268213272, 
        0.1569179743528366, 
        -0.2752736806869507, 
        0.13290682435035706, 
        0.08817911893129349, 
        -0.3181679844856262, 
        0.11199894547462463, 
        0.10492691397666931, 
        -0.00779567938297987, 
        -0.09774550795555115, 
