{
  "input_sequences": [], 
  "inputs": [
    {
      "name": "node_0", 
      "variables": [
        {
          "name": "variable_0", 
          "offset": -6.468264661088239, 
          "scale": 2.547059912805884
        }, 
        {
          "name": "variable_1", 
          "offset": -0.24005876419197356, 
          "scale": 5.385043489953696
        }, 
        {
          "name": "variable_2", 
          "offset": -4.207736207507909, 
          "scale": 0.920105860339139
        }, 
        {
          "name": "variable_3", 
          "offset": -0.32681771933563236, 
          "scale": 4.494005474239541
        }, 
        {
          "name": "variable_4", 
          "offset": -1.2120931495946625, 
          "scale": 0.9863117864013426
        }, 
        {
          "name": "variable_5", 
          "offset": -0.9734642239132437, 
          "scale": 1.4186719492927842
        }, 
        {
          "name": "variable_6", 
          "offset": -91.10464925216876, 
          "scale": 0.01344074740451794
        }, 
        {
          "name": "variable_7", 
          "offset": -4.188526495174317, 
          "scale": 1.1260381515829956
        }, 
        {
          "name": "variable_8", 
          "offset": -0.005708591206818198, 
          "scale": 0.5211490349378606
        }, 
        {
          "name": "variable_9", 
          "offset": -705.0327298606838, 
          "scale": 0.0027287027471239148
        }, 
        {
          "name": "variable_10", 
          "offset": -125.07154075630665, 
          "scale": 0.012183731282822994
        }, 
        {
          "name": "variable_11", 
          "offset": -67.22062986971457, 
          "scale": 0.022145010032294337
        }, 
        {
          "name": "variable_12", 
          "offset": -0.0014012789551827618, 
          "scale": 0.4585691322913353
        }, 
        {
          "name": "variable_13", 
          "offset": 0.02711626044615221, 
          "scale": 0.3845991402159513
        }, 
        {
          "name": "variable_14", 
          "offset": 0.04175392445287922, 
          "scale": 0.5489238320085699
        }, 
        {
          "name": "variable_15", 
          "offset": 0.06259163597998886, 
          "scale": 0.5508402508600846
        }, 
        {
          "name": "variable_16", 
          "offset": -0.6380186395428251, 
          "scale": 2.836844384192357
        }, 
        {
          "name": "variable_17", 
          "offset": -0.5473267184656011, 
          "scale": 2.7323049859255493
        }
      ]
    }, 
    {
      "name": "node_1", 
      "variables": [
        {
          "name": "variable_0", 
          "offset": -123.64362948557086, 
          "scale": 0.17810599547473738
        }, 
        {
          "name": "variable_1", 
          "offset": -0.02113637444800848, 
          "scale": 88.98549288822781
        }, 
        {
          "name": "variable_2", 
          "offset": -2.614758524740462, 
          "scale": 0.7136393476719951
        }
      ]
    }
  ], 
  "layers": [
    {
      "activation": "rectified", 
      "architecture": "dense", 
      "bias": [
        -0.343792200088501, 
        -0.1683783084154129, 
        -0.10246318578720093, 
        -0.2509850859642029, 
        -0.1968519389629364, 
        -0.19944535195827484, 
        -0.005786805879324675, 
        -0.04711869731545448, 
        0.02501959167420864, 
        -0.0883716270327568, 
        -0.12758587300777435, 
        -0.14535406231880188, 
        -0.010179528966546059, 
        -0.15520203113555908, 
        -0.13292020559310913, 
        -0.15447622537612915, 
        -0.2391066551208496, 
        -0.07635703682899475, 
        -0.15208548307418823, 
        -0.2943868637084961, 
        -0.06133290007710457, 
        -0.21779359877109528, 
        0.06517262011766434, 
        -0.4062578082084656, 
        0.1287749856710434, 
        -0.08026380091905594, 
        -0.14616276323795319, 
        -0.0926472544670105, 
        -0.18316979706287384, 
        -0.0038598740939050913, 
        -0.22982926666736603, 
        0.0033772685565054417, 
        -0.24138297140598297, 
        -0.2841232419013977, 
        -0.23488949239253998, 
        -0.2701788544654846, 
        -0.1258261352777481, 
        0.01747290790081024, 
        0.032076943665742874, 
        0.006286699790507555, 
        -0.4486379325389862, 
        0.13383400440216064, 
        -0.11272642761468887, 
        -0.12946948409080505, 
        -0.02086801826953888, 
        0.02069837786257267, 
        -0.050348397344350815, 
        -0.2120865136384964, 
        -0.03495773300528526, 
        -0.2388913333415985, 
        -0.2842296063899994, 
        -0.09572779387235641, 
        0.052187081426382065, 
        -0.06878507882356644, 
        -0.1838657259941101, 
        0.15270595252513885, 
        -0.11251319199800491, 
        -0.054322946816682816, 
        0.04116033390164375, 
        0.14672182500362396, 
        -0.1567854881286621, 
        -0.26754844188690186, 
        -0.10026974231004715, 
        -0.18920071423053741, 
        -0.23684537410736084, 
        -0.3975248336791992, 
        0.3287934362888336, 
        -0.3273506164550781, 
        -0.13199755549430847, 
        0.011786028742790222, 
        -0.19022230803966522, 
        0.24499745666980743, 
        -0.3295062482357025, 
        -0.10375713557004929, 
        -0.056893330067396164, 
        0.08175373077392578, 
        -0.2020578235387802, 
        0.01980985701084137, 
        -0.11736346781253815, 
        -0.2092200219631195
      ], 
      "weights": [
        -0.24068330228328705, 
        -0.2746278643608093, 
        0.36904358863830566, 
        -0.24450401961803436, 
        0.40232986211776733, 
        -0.4052581787109375, 
        -0.08570563793182373, 
        -0.18834170699119568, 
        0.2205510139465332, 
        -0.14646288752555847, 
        -0.011114955879747868, 
        0.28392159938812256, 
        -0.2110225111246109, 
        0.22910840809345245, 
        -0.3278273046016693, 
        0.3239419758319855, 
        0.25436192750930786, 
        0.33462101221084595, 
        0.38617563247680664, 
        -0.5894551277160645, 
        0.09376277774572372, 
        0.2845298945903778, 
        0.12289386987686157, 
        0.28064173460006714, 
        0.25990256667137146, 
        0.07263889908790588, 
        -0.04752198979258537, 
        -0.07838556170463562, 
        -0.132449671626091, 
        -0.28995805978775024, 
        0.13563700020313263, 
        0.12625175714492798, 
        -0.2502840757369995, 
        -0.04668891429901123, 
        0.2864862382411957, 
        0.20587433874607086, 
        -0.28941094875335693, 
        0.17114819586277008, 
        0.10508663207292557, 
        -0.12904848158359528, 
        -0.3375133275985718, 
        0.030334781855344772, 
        -0.0443841814994812, 
        -0.3264698088169098, 
        -0.1088264063000679, 
        0.20945481956005096, 
        0.0793912336230278, 
        -0.38054630160331726, 
        0.2158549726009369, 
        0.4073386788368225, 
        0.12257634103298187, 
        0.012171277776360512, 
        0.10745858401060104, 
        -0.0789676383137703, 
        0.05191543698310852, 
        -0.3991532027721405, 
        0.10194806754589081, 
        -0.1614610105752945, 
        -0.3485769033432007, 
        -0.00324568641372025, 
        0.3320613205432892, 
        -0.13164404034614563, 
        -0.1359025537967682, 
        0.016567770391702652, 
        -0.18849262595176697, 
        0.12559553980827332, 
        -0.5350069403648376, 
        -0.3605324327945709, 
        -0.23418696224689484, 
        0.07144436240196228, 
        0.2367887794971466, 
        0.34944793581962585, 
        0.11506466567516327, 
        -0.09449558705091476, 
        -0.348153293132782, 
        -0.1539289504289627, 
        -0.06385327875614166, 
        -0.19350630044937134, 
        -0.604955792427063, 
        -0.12840355932712555, 
        -0.2870045602321625, 
        0.0709870308637619, 
        0.1830252707004547, 
        -0.06905756145715714, 
        0.39936959743499756, 
        -0.08941128849983215, 
        -0.05286538973450661, 
        -0.034860484302043915, 
        0.25148165225982666, 
        -0.10143403708934784, 
        0.3890587091445923, 
        -0.3746853470802307, 
        0.15361425280570984, 
        -0.24365733563899994, 
        -0.0844389870762825, 
        0.04345162212848663, 
        0.023274250328540802, 
        -0.15079942345619202, 
        0.06640060991048813, 
        -0.09050220251083374, 
        0.07440278679132462, 
        -0.13046959042549133, 
        -0.08200636506080627, 
        -0.007685558404773474, 
        0.2064308524131775, 
        0.2748990058898926, 
        -0.23359878361225128, 
        -0.06806398183107376, 
        -0.2574115991592407, 
        0.22929023206233978, 
        -0.4445372223854065, 
        0.11198477447032928, 
        0.04978631064295769, 
        0.3149079382419586, 
        0.1283082365989685, 
        -0.462445467710495, 
        -0.5482571721076965, 
        0.3271472156047821, 
        0.004322335589677095, 
        0.5231480002403259, 
        0.10418758541345596, 
        0.1525600403547287, 
        0.06713339686393738, 
        0.31341293454170227, 
        -0.12237048149108887, 
        -0.21400697529315948, 
        -0.42562729120254517, 
        0.6989241242408752, 
        0.2752188742160797, 
        0.1783120185136795, 
        0.10638584196567535, 
        0.23577016592025757, 
        -0.21266904473304749, 
        0.08700641244649887, 
        -0.3596111238002777, 
        -0.025593794882297516, 
        -0.019732169806957245, 
        -0.44979357719421387, 
        0.2530191242694855, 
        0.27209702134132385, 
        0.004535297863185406, 
        0.11401896923780441, 
        -0.027034839615225792, 
        0.06128793954849243, 
        -0.2909668982028961, 
        0.24273589253425598, 
        -0.2549321949481964, 
        0.5709204077720642, 
        0.1639421582221985, 
        0.1276906132698059, 
        -0.3448273837566376, 
        -0.2707546651363373, 
        -0.09120886027812958, 
        0.40458160638809204, 
        0.09680622071027756, 
        0.5153534412384033, 
        -0.020024960860610008, 
        -0.24486804008483887, 
        0.24669142067432404, 
        0.30609068274497986, 
        -0.12822549045085907, 
        -0.05984009802341461, 
        0.15351061522960663, 
        0.4844053387641907, 
        0.144015371799469, 
        -0.1661510169506073, 
        0.24919350445270538, 
        0.1381436288356781, 
        -0.31273922324180603, 
        -0.10805464535951614, 
        -0.32466599345207214, 
        -0.010563037358224392, 
        0.26717156171798706, 
        0.05282938852906227, 
        0.06954740732908249, 
        -0.08974920958280563, 
        0.03782762959599495, 
        -0.1506257951259613, 
        0.3590652346611023, 
        -0.03432304412126541, 
        0.13681045174598694, 
        -0.5142307281494141, 
        0.0732884407043457, 
        -0.26440420746803284, 
        0.08599480986595154, 
        0.032295964658260345, 
        -0.28840363025665283, 
        -0.06642242521047592, 
        -0.116050586104393, 
        -0.04413038492202759, 
        0.3084716200828552, 
        0.15521487593650818, 
        0.12488916516304016, 
        0.08661764860153198, 
        -0.08092045038938522, 
        -0.07332396507263184, 
        0.2207433581352234, 
        -0.002370182191953063, 
        -0.35303521156311035, 
        0.16946014761924744, 
        0.04208117350935936, 
        -0.40934255719184875, 
        0.3944256901741028, 
        0.07960055768489838, 
        -0.0005812632734887302, 
        -0.3453953266143799, 
        0.1892758160829544, 
        -0.3099660575389862, 
        0.40203213691711426, 
        0.24373303353786469, 
        -0.11034462600946426, 
        0.20319975912570953, 
        -0.3409920632839203, 
        -0.03690149635076523, 
        0.07174307107925415, 
        0.10403840243816376, 
        -0.18821923434734344, 
        0.1446792334318161, 
        0.37050291895866394, 
        0.49330934882164, 
        0.20072920620441437, 
        -0.2934475541114807, 
        -0.08132414519786835, 
        -0.05666116997599602, 
        -0.057351596653461456, 
        -0.056593574583530426, 
        0.13725176453590393, 
        0.04823323339223862, 
        0.11311260610818863, 
        0.21749836206436157, 
        -0.09414792060852051, 
        0.04113570600748062, 
        -0.296874076128006, 
        0.30737337470054626, 
        -0.09111721813678741, 
        -0.3737963140010834, 
        0.1930505633354187, 
        -0.1150021180510521, 
        0.1415090560913086, 
        0.09992028027772903, 
        -0.01849406026303768, 
        -0.3206155300140381, 
        0.012267756275832653, 
        -0.08808549493551254, 
        -0.40855711698532104, 
        0.07139763981103897, 
        -0.23986011743545532, 
        -0.32171979546546936, 
        0.4583427608013153, 
        0.29996708035469055, 
        -0.13796308636665344, 
        0.11920720338821411, 
        -0.26842957735061646, 
        0.20376215875148773, 
        0.458763986825943, 
        0.6831711530685425, 
        0.13738705217838287, 
        0.03126515448093414, 
        0.16261650621891022, 
        -0.4004269540309906, 
        -0.05308612808585167, 
        0.0007464849622920156, 
        0.1912807673215866, 
        -0.6455491185188293, 
        0.06016743183135986, 
        0.16388769447803497, 
        0.02570914663374424, 
        0.08802364766597748, 
        0.010673201642930508, 
        0.04793717712163925, 
        -0.4267728328704834, 
        -0.01046461146324873, 
        -0.18439212441444397, 
        0.2691905200481415, 
        -0.3866778314113617, 
        -0.2418624460697174, 
        -0.13307073712348938, 
        -0.30957192182540894, 
        -0.22514206171035767, 
        -0.10894801467657089, 
        0.3141045868396759, 
        0.15823927521705627, 
        -0.13375747203826904, 
        0.06115544214844704, 
        0.3137596845626831, 
        0.03900826722383499, 
        -0.049993328750133514, 
        0.171115905046463, 
        -0.12338043749332428, 
        0.2534729242324829, 
        0.2353576272726059, 
        0.219352126121521, 
        -0.015751851722598076, 
        0.14375153183937073, 
        -0.25628677010536194, 
        0.2101142853498459, 
        0.4253028929233551, 
        -0.2589802145957947, 
        0.4647842347621918, 
        -0.43987101316452026, 
        -0.17583774030208588, 
        -0.45566973090171814, 
        0.008620044216513634, 
        0.10717659443616867, 
        -0.07401744276285172, 
        -0.0780746191740036, 
        0.15176986157894135, 
        0.07116834819316864, 
        -0.31776440143585205, 
        -0.3449949324131012, 
        -0.13068348169326782, 
        -0.008462950587272644, 
        0.027183935046195984, 
        0.12815052270889282, 
        -0.16573353111743927, 
        0.10761818289756775, 
        0.060504160821437836, 
        -0.02971692569553852, 
        -0.34567439556121826, 
        -0.3868543803691864, 
        0.10746687650680542, 
        -0.06307415664196014, 
        -0.19123291969299316, 
        0.44392576813697815, 
        0.09229245781898499, 
        -0.1775388866662979, 
        0.12108398973941803, 
        0.05076201260089874, 
        0.5805197954177856, 
        0.2988032400608063, 
        -0.41407665610313416, 
        -0.04567787051200867, 
        0.14669844508171082, 
        -0.11144775152206421, 
        0.21949535608291626, 
        0.5732108950614929, 
        -0.07591862231492996, 
        0.059537485241889954, 
        0.30067798495292664, 
        0.2761480212211609, 
        -0.2358037382364273, 
        0.13216561079025269, 
        0.1867249310016632, 
        -0.7676758766174316, 
        0.03582657501101494, 
        0.12003577500581741, 
        -0.28017425537109375, 
        0.12875398993492126, 
        0.1879393458366394, 
        -0.08241210877895355, 
        -0.12885120511054993, 
        0.06038950756192207, 
        0.1182250827550888, 
        -0.08818593621253967, 
        -0.333904892206192, 
        -0.15650130808353424, 
        -0.1547727733850479, 
        -0.22139379382133484, 
        0.04095674678683281, 
        -0.26898133754730225, 
        -0.13147734105587006, 
        -0.23049458861351013, 
        0.379335880279541, 
        0.3469298481941223, 
        0.10382452607154846, 
        0.24582667648792267, 
        0.09648488461971283, 
        -0.5606681704521179, 
        -0.19453799724578857, 
        -0.3382214605808258, 
        0.35016414523124695, 
        -0.2769271433353424, 
        -0.32600241899490356, 
        0.17683830857276917, 
        0.3690672218799591, 
        0.30198562145233154, 
        -0.15270090103149414, 
        -0.054795701056718826, 
        -0.11877810955047607, 
        0.29585108160972595, 
        -0.15154555439949036, 
        -0.30230289697647095, 
        0.11651252210140228, 
        0.17963719367980957, 
        0.005633718799799681, 
        0.38655415177345276, 
        -0.17059491574764252, 
        0.06949730962514877, 
        0.23108521103858948, 
        -0.16188587248325348, 
        0.491252064704895, 
        0.1853136271238327, 
        0.17171183228492737, 
        0.31242960691452026, 
        0.3434951901435852, 
        -0.2634299397468567, 
        0.07445677369832993, 
        0.3757900595664978, 
        -0.6717954874038696, 
        0.10205326974391937, 
        0.09978070855140686, 
        0.15040138363838196, 
        0.01851344108581543, 
        0.10725767910480499, 
        0.3253132104873657, 
        0.0969696044921875, 
        -0.036966171115636826, 
        0.34970080852508545, 
        -0.07910124212503433, 
        0.14734680950641632, 
        -0.04848414286971092, 
        -0.11023009568452835, 
        -0.06639396399259567, 
        -0.007727810647338629, 
        0.03662586957216263, 
        -0.36873260140419006, 
        0.24202647805213928, 
        -0.2574523985385895, 
        0.11403024196624756, 
        -0.0930781438946724, 
        0.06398776918649673, 
        0.36381080746650696, 
        -0.09497617185115814, 
        -0.06888698041439056, 
        -0.6395128965377808, 
        0.34340012073516846, 
        -0.07007820159196854, 
        -0.010681943967938423, 
        -0.034247301518917084, 
        -0.1183876246213913, 
        -0.005279175471514463, 
        0.2077454775571823, 
        -0.2728385925292969, 
        0.17006352543830872, 
        0.0073845828883349895, 
        0.15582047402858734, 
        0.2998962104320526, 
        -0.26605668663978577, 
        0.25830766558647156, 
        -0.2785736322402954, 
        -0.5229734182357788, 
        0.1858392357826233, 
        0.3510960042476654, 
        0.4002096652984619, 
        0.0059167491272091866, 
        0.22490856051445007, 
        -0.1511540710926056, 
        0.17462347447872162, 
        -0.19887331128120422, 
        -0.09184465557336807, 
        -0.32434844970703125, 
        0.265967458486557, 
        -0.26191848516464233, 
        -0.43111085891723633, 
        0.263670951128006, 
        -0.10165197402238846, 
        -0.3483772575855255, 
        0.22000014781951904, 
        0.20898786187171936, 
        -0.10023100674152374, 
        0.471918523311615, 
        0.12777404487133026, 
        -0.07014140486717224, 
        -0.020765716210007668, 
        -0.1862439066171646, 
        0.02299579605460167, 
        -0.09364224970340729, 
        -0.04287077113986015, 
        0.08196256309747696, 
        0.10787367075681686, 
        -0.027150845155119896, 
        0.33857375383377075, 
        0.1658458560705185, 
        -0.24756242334842682, 
        -0.1721738576889038, 
        0.24071821570396423, 
        0.43124768137931824, 
        -0.13818798959255219, 
        0.0785098671913147, 
        -0.2241002321243286, 
        0.23826146125793457, 
        -0.4488587975502014, 
        0.03732268512248993, 
        -0.36032092571258545, 
        0.05100617930293083, 
        -0.2492443323135376, 
        -0.17434965074062347, 
        0.36218059062957764, 
        -0.09502100944519043, 
        0.45377057790756226, 
        -0.282651424407959, 
        0.29880577325820923, 
        -0.5520032644271851, 
        0.05418837070465088, 
        -0.2917061746120453, 
        -0.30092093348503113, 
        0.6235576868057251, 
        0.08520220965147018, 
        -0.23754756152629852, 
        0.46041786670684814, 
        -0.12710781395435333, 
        -0.17268620431423187, 
        0.04010890796780586, 
        -0.10796248912811279, 
        -0.11006000638008118, 
        -0.6923225522041321, 
        -0.2790473401546478, 
        -0.003701385809108615, 
        -0.2553230822086334, 
        0.09517544507980347, 
        -0.06530628353357315, 
        -0.03497442975640297, 
        -0.12478218227624893, 
        0.33473697304725647, 
        -0.021579163148999214, 
        0.047009263187646866, 
        0.5073950290679932, 
        0.27302247285842896, 
        0.028689522296190262, 
        0.07349571585655212, 
        -0.10477981716394424, 
        0.25296109914779663, 
        0.2423720359802246, 
        0.3673010766506195, 
        0.0060043646954, 
        0.6590789556503296, 
        0.17873255908489227, 
        0.13651420176029205, 
        -0.376811683177948, 
        -0.2616941034793854, 
        0.2414654791355133, 
        -0.2858583331108093, 
        0.09297260642051697, 
        -0.4950253665447235, 
        -0.027594126760959625, 
        0.15115448832511902, 
        -0.1856967657804489, 
        0.38097450137138367, 
        0.19000805914402008, 
        -0.10786975920200348, 
        0.17150817811489105, 
        0.45812124013900757, 
        0.28776660561561584, 
        -0.35558345913887024, 
        -0.24467498064041138, 
        -0.1768985241651535, 
        0.31597885489463806, 
        0.2734147906303406, 
        -0.568009614944458, 
        -0.1009593978524208, 
        -0.30216896533966064, 
        0.11824619770050049, 
        0.26274919509887695, 
        0.05666675046086311, 
        -0.020456822589039803, 
        -0.018310777842998505, 
        0.27857476472854614, 
        -0.09362758696079254, 
        -0.20230768620967865, 
        0.3135097324848175, 
        -0.17225106060504913, 
        -0.357446551322937, 
        0.18996992707252502, 
        -0.24264885485172272, 
        -0.013085042126476765, 
        0.07564175873994827, 
        -0.135855570435524, 
        -0.2938832938671112, 
        0.43679797649383545, 
        -0.40912866592407227, 
        0.23381319642066956, 
        0.2143896073102951, 
        0.14464250206947327, 
        -0.13591831922531128, 
        -0.22552448511123657, 
        0.17003604769706726, 
        0.2926050126552582, 
        -0.7215220928192139, 
        -0.1666322499513626, 
        -0.1706080138683319, 
        0.01706274412572384, 
        0.029497191309928894, 
        -0.19481821358203888, 
        0.16768518090248108, 
        -0.39630240201950073, 
        -0.2163020223379135, 
        -0.13734719157218933, 
        0.32357510924339294, 
        0.249570831656456, 
        -0.010906440205872059, 
        -0.04924318194389343, 
        0.1560155153274536, 
        -0.0889723151922226, 
        0.01607733592391014, 
        0.34184539318084717, 
        -0.3440767228603363, 
        -0.01178943831473589, 
        0.19296354055404663, 
        -0.10872574150562286, 
        0.21522913873195648, 
        0.36806732416152954, 
        0.14558640122413635, 
        0.017582057043910027, 
        -0.378385066986084, 
        -0.4678957760334015, 
        0.2688555121421814, 
        -0.3839932382106781, 
        -0.15671522915363312, 
        -0.05654099956154823, 
        0.04441080987453461, 
        0.04369150474667549, 
        -0.1034386157989502, 
        0.4951142370700836, 
        0.1443190574645996, 
        0.2706665098667145, 
        -0.3400669991970062, 
        -0.3368261754512787, 
        -0.16339191794395447, 
        -0.2082478255033493, 
        -0.11360689997673035, 
        -0.057056963443756104, 
        0.1282595694065094, 
        0.4695325493812561, 
        0.1323438584804535, 
        0.00799142848700285, 
        -0.2865600883960724, 
        0.10616713762283325, 
        -0.27456194162368774, 
        -0.018107332289218903, 
        -0.12964309751987457, 
        -0.2727985382080078, 
        0.532313883304596, 
        -0.3950905203819275, 
        -0.03603994846343994, 
        -0.07499917596578598, 
        -0.02379382960498333, 
        -0.21390485763549805, 
        -0.2621972858905792, 
        -0.1951669454574585, 
        0.14230112731456757, 
        -0.10624087601900101, 
        0.23775865137577057, 
        -0.38999947905540466, 
        -0.21382251381874084, 
        0.19497506320476532, 
        0.1560647338628769, 
        0.4091362953186035, 
        -0.23676598072052002, 
        -0.43451443314552307, 
        0.14725711941719055, 
        0.48163557052612305, 
        0.3094722330570221, 
        0.026833243668079376, 
        -0.11379871517419815, 
        -0.44739991426467896, 
        0.1412457823753357, 
        -0.08182287961244583, 
        -0.11636537313461304, 
        0.4328887462615967, 
        -0.16948436200618744, 
        0.15102651715278625, 
        0.09506182372570038, 
        -0.13082106411457062, 
        -0.217131108045578, 
        0.02236299030482769, 
        0.20369821786880493, 
        -0.09721606224775314, 
        0.14541254937648773, 
        -0.09742274880409241, 
        -0.05179106071591377, 
        0.19703739881515503, 
        -0.054093137383461, 
        -0.5515711307525635, 
        0.23936685919761658, 
        -0.4587439298629761, 
        0.2524491846561432, 
        0.1353929340839386, 
        0.46309223771095276, 
        -0.019703561440110207, 
        0.16921167075634003, 
        -0.2738215923309326, 
        -0.20118409395217896, 
        -0.2994769513607025, 
        0.1727694869041443, 
        0.2959398329257965, 
        0.47126996517181396, 
        0.19173744320869446, 
        1.0700995922088623, 
        0.2949194312095642, 
        -0.02341652847826481, 
        0.013862705789506435, 
        0.1438075602054596, 
        -0.08178052306175232, 
        -0.1976662129163742, 
        0.10954789817333221, 
        -0.03741561248898506, 
        0.12539881467819214, 
        -0.008414589799940586, 
        -0.13307683169841766, 
        -0.1209154725074768, 
        0.174583300948143, 
        0.09910155087709427, 
        -0.40838631987571716, 
        0.053904950618743896, 
        -0.1628008335828781, 
        0.4060750901699066, 
        0.17142699658870697, 
        0.04405471310019493, 
        0.06001424416899681, 
        -0.4243525564670563, 
        0.232336163520813, 
        -0.10851193219423294, 
        0.23187533020973206, 
        -0.561522901058197, 
        0.09387417137622833, 
        -0.13851487636566162, 
        0.041093092411756516, 
        0.2614007294178009, 
        0.04952544346451759, 
        -0.17382191121578217, 
        0.006894245278090239, 
        0.4792449474334717, 
        0.2740708887577057, 
        -0.19531545042991638, 
        0.009059598669409752, 
        -0.2366485893726349, 
        -0.018457191064953804, 
        0.7044505476951599, 
        0.24011865258216858, 
        -0.1660207062959671, 
        -0.21502012014389038, 
        0.10325546562671661, 
        -0.40549370646476746, 
        0.05850392207503319, 
        -0.04232402890920639, 
        -0.01864616572856903, 
        0.06314542889595032, 
        -0.2836797535419464, 
        -0.2926841676235199, 
        0.3918027877807617, 
        -0.013558805920183659, 
        -0.28587207198143005, 
        0.3694239556789398, 
        -0.4134989380836487, 
        -0.20797985792160034, 
        0.13475318253040314, 
        0.011918350122869015, 
        -0.22210632264614105, 
        0.3824206590652466, 
        0.5111236572265625, 
        0.01261693611741066, 
        0.21261997520923615, 
        0.006409535650163889, 
        0.0815839022397995, 
        -0.2431628257036209, 
        -0.12101614475250244, 
        0.3472147583961487, 
        -0.1915701925754547, 
        -0.19969263672828674, 
        -0.3235796391963959, 
        -0.06370814889669418, 
        -0.12541282176971436, 
        0.1388102024793625, 
        -0.12183107435703278, 
        -0.12303513288497925, 
        -0.08757195621728897, 
        -0.2860589325428009, 
        0.16588325798511505, 
        -0.3754819333553314, 
        -0.1628357321023941, 
        -0.018593017011880875, 
        0.006942997220903635, 
        0.22789089381694794, 
        0.0884573683142662, 
        0.3402498662471771, 
        -0.5342883467674255, 
        0.2605804204940796, 
        0.1538427472114563, 
        -0.5166837573051453, 
        -0.2213112711906433, 
        0.13680824637413025, 
        -0.2678222060203552, 
        -0.1414768248796463, 
        0.1213509738445282, 
        0.017805887386202812, 
        0.2601996958255768, 
        -0.35421550273895264, 
        -0.06081145629286766, 
        -0.021497344598174095, 
        0.029151905328035355, 
        -0.30202099680900574, 
        -0.041706643998622894, 
        0.008445383980870247, 
        0.4708918333053589, 
        0.20376361906528473, 
        0.09396783262491226, 
        0.12460938841104507, 
        -0.12110710889101028, 
        0.0693516954779625, 
        -0.28585895895957947, 
        0.41360464692115784, 
        -0.042489565908908844, 
        0.09417086094617844, 
        0.20172414183616638, 
        0.1478758007287979, 
        -0.2267511487007141, 
        -0.09912098199129105, 
        -0.25481781363487244, 
        0.04083620011806488, 
        -0.524994969367981, 
        0.12226969748735428, 
        0.3065394163131714, 
        -0.44383904337882996, 
        0.42470595240592957, 
        0.27696362137794495, 
        0.21451334655284882, 
        0.014990545809268951, 
        -0.30487731099128723, 
        0.5135626196861267, 
        -0.24439282715320587, 
        0.07186675816774368, 
        0.35503730177879333, 
        -0.3044649660587311, 
        -0.08906625956296921, 
        0.09903635084629059, 
        -0.030276207253336906, 
        -0.22727225720882416, 
        -0.0834897831082344, 
        -0.5224529504776001, 
        0.31794965267181396, 
        0.03951331973075867, 
        -0.04226769134402275, 
        0.045267172157764435, 
        0.09348409622907639, 
        -0.2240140438079834, 
        0.3262573182582855, 
        -0.5329229235649109, 
        -0.02737331949174404, 
        0.37618952989578247, 
        0.07952958345413208, 
        0.09408950060606003, 
        0.5020580887794495, 
        -0.037435684353113174, 
        0.1183888241648674, 
        0.04978998005390167, 
        -0.260040819644928, 
        0.21794845163822174, 
        -0.518274188041687, 
        -0.12316825985908508, 
        -0.15651461482048035, 
        -0.37389445304870605, 
        -0.021875016391277313, 
        -0.08971408754587173, 
        0.09174195677042007, 
        -0.20081275701522827, 
        0.17062006890773773, 
        0.050386931747198105, 
        0.0838412269949913, 
        0.35151931643486023, 
        0.20111316442489624, 
        -0.0649498850107193, 
        -0.053550805896520615, 
        0.059395741671323776, 
        -0.11323577910661697, 
        -0.5446310639381409, 
        0.15930354595184326, 
        -0.10908455401659012, 
        0.24607352912425995, 
        0.03226065635681152, 
        0.18539103865623474, 
        -0.02993633598089218, 
        -0.4717685282230377, 
        0.13269707560539246, 
        -0.03592059016227722, 
        0.39787960052490234, 
        -0.5942032337188721, 
        -0.20735663175582886, 
        -0.22430004179477692, 
        -0.2296438366174698, 
        0.030993934720754623, 
        -0.04541048780083656, 
        -0.05853762850165367, 
        0.11935340613126755, 
        -0.280654639005661, 
        0.1787412166595459, 
        0.348323792219162, 
        -0.1457492560148239, 
        0.13253384828567505, 
        0.4163340926170349, 
        -0.01256051566451788, 
        0.4082011580467224, 
        -0.15037201344966888, 
        -0.6438074707984924, 
        0.2288563996553421, 
        -0.25280001759529114, 
        -0.11186833679676056, 
        0.07197750359773636, 
        0.040852271020412445, 
        -0.06166355311870575, 
        -0.07810063660144806, 
        -0.3039792776107788, 
        0.37160640954971313, 
        -0.32359904050827026, 
        -0.14874781668186188, 
        -0.07173178344964981, 
        0.4004707336425781, 
        0.46784675121307373, 
        0.3451273441314697, 
        -0.10573053359985352, 
        0.3781793415546417, 
        0.09288180619478226, 
        -0.05072341486811638, 
        0.2230730503797531, 
        -0.247806116938591, 
        -0.20240120589733124, 
        0.05201554670929909, 
        -0.5107080340385437, 
        -0.19570806622505188, 
        -0.29210326075553894, 
        -0.0444386787712574, 
        0.11421361565589905, 
        -0.3637624979019165, 
        -0.27315497398376465, 
        0.14154787361621857, 
        0.1486193835735321, 
        -0.28708285093307495, 
        0.11804129928350449, 
        0.43354836106300354, 
        -0.43111270666122437, 
        -0.2968265116214752, 
        -0.15719419717788696, 
        -0.10977311432361603, 
        0.16122078895568848, 
        0.3055117130279541, 
        0.06838145852088928, 
        0.24402666091918945, 
        -0.22990918159484863, 
        0.12777096033096313, 
        -0.29945874214172363, 
        0.4124172329902649, 
        0.21386611461639404, 
        -0.3620862066745758, 
        0.008566615171730518, 
        0.094560407102108, 
        0.20130974054336548, 
        0.27625206112861633, 
        0.14517401158809662, 
        0.3375536799430847, 
        -0.10281163454055786, 
        -0.12182030826807022, 
        0.06507202982902527, 
        0.25534388422966003, 
        -0.021549688652157784, 
        -0.15763844549655914, 
        -0.1466430425643921, 
        -0.4335463047027588, 
        -0.23845292627811432, 
        -0.13477914035320282, 
        -0.26405107975006104, 
        0.35981231927871704, 
        -0.06370178610086441, 
        0.12227826565504074, 
        0.35271066427230835, 
        -0.10778089612722397, 
        0.027341924607753754, 
        -0.14677365124225616, 
        -0.368039071559906, 
        -0.14957690238952637, 
        0.017232131212949753, 
        0.27433285117149353, 
        0.3407917320728302, 
        0.04825576767325401, 
        -0.07297072559595108, 
        0.32124972343444824, 
        -0.32625940442085266, 
        -0.18833786249160767, 
        0.2878098487854004, 
        0.1943683624267578, 
        -0.06875767558813095, 
        -0.32021045684814453, 
        -0.16248680651187897, 
        -0.13182546198368073, 
        0.4129916727542877, 
        0.5478205680847168, 
        0.051450878381729126, 
        -0.15409062802791595, 
        -0.03808541223406792, 
        -0.07032398134469986, 
        -0.35195064544677734, 
        -0.04051757976412773, 
        -0.1925593763589859, 
        -0.1517343968153, 
        0.09022774547338486, 
        0.5695768594741821, 
        0.4439391791820526, 
        0.042233195155858994, 
        -0.5815572738647461, 
        0.1901928335428238, 
        0.010080739855766296, 
        -0.29438939690589905, 
        0.27148112654685974, 
        0.6566817164421082, 
        0.036301251500844955, 
        -0.20980289578437805, 
        -0.15639378130435944, 
        -0.1045541912317276, 
        -0.0048560467548668385, 
        0.3816109299659729, 
        0.15065154433250427, 
        0.48480740189552307, 
        0.03164680674672127, 
        0.2665218412876129, 
        0.06514794379472733, 
        0.07049886137247086, 
        0.31987935304641724, 
        -0.05882135033607483, 
        0.15825116634368896, 
        -0.44820934534072876, 
        0.07346870750188828, 
        -0.32015517354011536, 
        0.05960286408662796, 
        -0.49920880794525146, 
        0.043502792716026306, 
        -0.1784362643957138, 
        -0.0687919408082962, 
        -0.07893639802932739, 
        -0.2675248980522156, 
        0.382169634103775, 
        0.3907111585140228, 
        0.5886889696121216, 
        0.04906585440039635, 
        0.11238329112529755, 
        -0.17898567020893097, 
        -0.06281216442584991, 
        -0.08203662931919098, 
        -0.06721216440200806, 
        0.29228442907333374, 
        -0.661381721496582, 
        -0.1177527904510498, 
        -0.003455610480159521, 
        -0.09733746200799942, 
        0.1037227138876915, 
        0.06740716099739075, 
        -0.11154253035783768, 
        -0.33603617548942566, 
        0.04790255054831505, 
        -0.16810066998004913, 
        -0.2469734102487564, 
        0.1753009408712387, 
        0.04570653289556503, 
        -0.4036049544811249, 
        0.26275214552879333, 
        -0.22271288931369781, 
        -0.011520390398800373, 
        0.42951804399490356, 
        0.4831703305244446, 
        0.1127638891339302, 
        -0.08580984175205231, 
        -0.1095157116651535, 
        -0.03665566444396973, 
        0.2860889732837677, 
        -0.29036641120910645, 
        0.13830840587615967, 
        0.4285045862197876, 
        -0.12769728899002075, 
        0.6246681213378906, 
        0.2908826470375061, 
        -0.12355154007673264, 
        -0.21612635254859924, 
        0.29395854473114014, 
        -0.5579997301101685, 
        -0.3400733470916748, 
        0.3176978528499603, 
        0.20965398848056793, 
        -0.1079879105091095, 
        0.2009284794330597, 
        0.09532732516527176, 
        0.047225479036569595, 
        0.1885974407196045, 
        -0.2996227443218231, 
        0.30646345019340515, 
        -0.657616138458252, 
        -0.19180575013160706, 
        0.014004887081682682, 
        0.05251416191458702, 
        0.008532794192433357, 
        -0.5930265784263611, 
        -0.46765416860580444, 
        0.15644943714141846, 
        0.015394891612231731, 
        0.13491755723953247, 
        0.04190554842352867, 
        0.43301063776016235, 
        0.3378461003303528, 
        0.12137852609157562, 
        -0.06233090162277222, 
        0.02232665941119194, 
        0.21089741587638855, 
        0.026581399142742157, 
        0.5019771456718445, 
        -0.05847938731312752, 
        0.21197082102298737, 
        0.06662557274103165, 
        0.08106020838022232, 
        0.2488216608762741, 
        -0.6713966727256775, 
        -0.02662607654929161, 
        0.00925108790397644, 
        -0.3475933074951172, 
        -0.24637609720230103, 
        0.11960025876760483, 
        0.2434316724538803, 
        -0.08310255408287048, 
        -0.06217395141720772, 
        -0.060075197368860245, 
        -0.08646831661462784, 
        -0.04001235216856003, 
        0.4143697917461395, 
        0.41808751225471497, 
        0.5547099709510803, 
        -0.13243594765663147, 
        -0.09141889959573746, 
        0.22733300924301147, 
        -0.197887122631073, 
        -0.08111903816461563, 
        -0.02970828488469124, 
        -0.04969671741127968, 
        -0.4843345582485199, 
        0.26140642166137695, 
        0.11925598233938217, 
        5.917728049098514e-05, 
        -0.09913061559200287, 
        0.04294533655047417, 
        -0.043589770793914795, 
        0.19183886051177979, 
        -0.2337186336517334, 
        -0.31840646266937256, 
        -0.28035232424736023, 
        -0.2653687596321106, 
        0.05045238509774208, 
        0.09463611990213394, 
        0.056785985827445984, 
        -0.11238134652376175, 
        0.1010642871260643, 
        -0.48329225182533264, 
        -0.05325867608189583, 
        0.10516258329153061, 
        -0.0616791695356369, 
        -0.19762155413627625, 
        -0.136809840798378, 
        0.04510912299156189, 
        -0.1170065775513649, 
        -0.2314918041229248, 
        0.2333153337240219, 
        0.35372644662857056, 
        -0.1086781695485115, 
        0.027256891131401062, 
        -0.18717068433761597, 
        -0.295756071805954, 
        0.24927780032157898, 
        -0.19320076704025269, 
        -0.3607906997203827, 
        0.42018428444862366, 
        -0.6638546586036682, 
        0.0988660380244255, 
        0.03976035490632057, 
        -0.18023954331874847, 
        0.029253240674734116, 
        -0.009592603892087936, 
        -0.10142942517995834, 
        0.10084513574838638, 
        -0.24881350994110107, 
        0.19718943536281586, 
        -0.07383999973535538, 
        0.04933406040072441, 
        0.01737058162689209, 
        0.4016782343387604, 
        0.08828452229499817, 
        -0.014825068414211273, 
        -0.2565762996673584, 
        -0.2762313187122345, 
        0.15140511095523834, 
        0.4794095456600189, 
        0.2373030185699463, 
        0.08942984789609909, 
        0.03572385385632515, 
        0.0782201737165451, 
        0.05587582662701607, 
        0.03354071453213692, 
        0.07174107432365417, 
        -0.3758029639720917, 
        0.6489731669425964, 
        0.38383373618125916, 
        -0.21486130356788635, 
        -0.06036362051963806, 
        0.3178958594799042, 
        0.0362582728266716, 
        -0.12213418632745743, 
        0.2474106103181839, 
        0.3950008749961853, 
        0.03631184995174408, 
        0.21147021651268005, 
        0.17329508066177368, 
        0.09527666866779327, 
        0.32897189259529114, 
        -0.011657195165753365, 
        -0.25312182307243347, 
        0.1445567011833191, 
        0.24739569425582886, 
        0.001380945323035121, 
        0.05827344208955765, 
        0.10477479547262192, 
        0.49799400568008423, 
        0.37232494354248047, 
        -0.0010597604559734464, 
        0.055596645921468735, 
        -0.3524652421474457, 
        0.27596721053123474, 
        -0.4431878328323364, 
        -0.3891550600528717, 
        -0.09186293184757233, 
        0.13091683387756348, 
        -0.2153773158788681, 
        -0.18607266247272491, 
        0.317033052444458, 
        -0.034171245992183685, 
        0.07546519488096237, 
        -0.11444402486085892, 
        -0.2667752206325531, 
        0.07130654901266098, 
        0.07271438091993332, 
        0.1618766188621521, 
        -0.13813644647598267, 
        0.11471358686685562, 
        -0.2628878355026245, 
        0.15093791484832764, 
        -0.14752429723739624, 
        -0.2686832547187805, 
        -0.16313603520393372, 
        -0.037986863404512405, 
        0.10689515620470047, 
        -0.21709394454956055, 
        0.42309901118278503, 
        -0.4162357449531555, 
        -0.13672372698783875, 
        -0.5545270442962646, 
        -0.1308376044034958, 
        -0.30116134881973267, 
        -0.07573646306991577, 
        -0.0738724023103714, 
        0.14936281740665436, 
        -0.2598279118537903, 
        0.23734521865844727, 
        0.4607484042644501, 
        -0.23639167845249176, 
        0.09452377259731293, 
        0.08357137441635132, 
        0.11323041468858719, 
        0.29287099838256836, 
        -0.17418473958969116, 
        0.3568030893802643, 
        -0.5347165465354919, 
        -0.4732121527194977, 
        -0.15477755665779114, 
        -0.018754996359348297, 
        -0.1958998590707779, 
        -0.6181093454360962, 
        0.12359217554330826, 
        -0.07861476391553879, 
        -0.014022314921021461, 
        -0.1174306869506836, 
        -0.23435646295547485, 
        -0.0810452252626419, 
        -0.1885291486978531, 
        -0.2215145230293274, 
        0.145656555891037, 
        -0.10102873295545578, 
        -0.10639507323503494, 
        0.021633034572005272, 
        0.3241753578186035, 
        -0.4144021272659302, 
        0.45341289043426514, 
        0.13767744600772858, 
        -0.07020652294158936, 
        0.10780881345272064, 
        0.058573294430971146, 
        0.1977706402540207, 
        -0.10304821282625198, 
        -0.042303018271923065, 
        0.6858269572257996, 
        -0.0904243141412735, 
        -0.27268388867378235, 
        0.12837420403957367, 
        -0.3389115333557129, 
        -0.13983958959579468, 
        -0.2004530429840088, 
        -0.13587354123592377, 
        -0.4215794801712036, 
        0.08279132843017578, 
        -0.20401129126548767, 
        -0.16951324045658112, 
        0.144537553191185, 
        -0.2563548982143402, 
        0.30309709906578064, 
        0.4520781636238098, 
        0.14997844398021698, 
        0.2896296977996826, 
        0.18122927844524384, 
        -0.35063979029655457, 
        -0.03359856456518173, 
        -0.05259136110544205, 
        -0.27336424589157104, 
        -0.10861049592494965, 
        0.29673823714256287, 
        -0.04297373816370964, 
        -0.20020756125450134, 
        0.014216221868991852, 
        -0.04090851917862892, 
        0.3473847508430481, 
        -0.1644478142261505, 
        0.20632870495319366, 
        0.16939660906791687, 
        -0.35884344577789307, 
        0.2219296544790268, 
        -0.1970086544752121, 
        -0.09993895888328552, 
        -0.19499249756336212, 
        0.11427071690559387, 
        0.06618229299783707, 
        -0.09224958717823029, 
        -0.007876066491007805, 
        -0.4156307578086853, 
        -0.2700948119163513, 
        0.43709543347358704, 
        -0.2882217466831207, 
        -0.29829296469688416, 
        0.11169515550136566, 
        0.05133359134197235, 
        -0.42681068181991577, 
        -0.19542372226715088, 
        0.3018772006034851, 
        0.13853472471237183, 
        0.43807530403137207, 
        0.15014055371284485, 
        -0.02425292879343033, 
        -0.31894928216934204, 
        -0.18098078668117523, 
        -0.07799442857503891, 
        0.06242477893829346, 
        0.06971075385808945, 
        -0.21796348690986633, 
        0.5225966572761536, 
        0.19178834557533264, 
        0.36018624901771545, 
        -0.22733421623706818, 
        0.24621525406837463, 
        -0.34058699011802673, 
        0.345170259475708, 
        0.23104147613048553, 
        -0.22651779651641846, 
        0.23054195940494537, 
        0.2603820562362671, 
        0.15164601802825928, 
        -0.29657092690467834, 
        -0.18889667093753815, 
        0.24430616199970245, 
        -0.0784771665930748, 
        -0.3060534596443176, 
        0.22491377592086792, 
        -0.6111069321632385, 
        -0.2500174939632416, 
        -0.068901926279068, 
        -0.24815984070301056, 
        -0.05906292051076889, 
        -0.10178395360708237, 
        0.04265332221984863, 
        -0.040551889687776566, 
        -0.002018071012571454, 
        -0.46845921874046326, 
        0.2979714274406433, 
        0.40546101331710815, 
        0.22167295217514038, 
        0.017907725647091866, 
        0.05714365839958191, 
        -0.05412589758634567, 
        0.30300000309944153, 
        -0.2559341490268707, 
        0.40861278772354126, 
        -0.06289803981781006, 
        0.6260817050933838, 
        -0.017544269561767578, 
        -0.010254111140966415, 
        -0.3311118483543396, 
        -0.17699724435806274, 
        -0.08298197388648987, 
        0.31484368443489075, 
        0.06565723568201065, 
        0.4606185555458069, 
        0.1485147476196289, 
        -0.12732520699501038, 
        -0.24903327226638794, 
        -0.1388416588306427, 
        -0.05950415879487991, 
        0.0455881729722023, 
        0.09236051142215729, 
        -0.41866394877433777, 
        0.12614662945270538, 
        0.2642405927181244, 
        -0.0661936029791832, 
        0.34681642055511475, 
        -0.12786951661109924, 
        -0.3177190124988556, 
        0.10285527259111404, 
        0.16611248254776, 
        0.29635319113731384, 
        0.24141795933246613, 
        0.34833091497421265, 
        0.5554671883583069, 
        0.02008611522614956, 
        0.12073472887277603, 
        0.3176229000091553, 
        -0.23601137101650238, 
        -0.2711259424686432, 
        -0.23141615092754364, 
        -0.2280384600162506, 
        -0.00410390505567193, 
        -0.23660889267921448, 
        0.14441493153572083, 
        0.2888481318950653, 
        0.06742145866155624, 
        0.19087092578411102, 
        0.3055685758590698, 
        -0.4091654121875763, 
        0.2797955870628357, 
        0.3747628629207611, 
        0.28626009821891785, 
        -0.199429452419281, 
        -0.0424967035651207, 
        -0.15969467163085938, 
        -0.03585217148065567
      ]
    }, 
    {
      "activation": "rectified", 
      "architecture": "dense", 
      "bias": [
        0.11437000334262848, 
        -0.11555439233779907, 
        0.017706934362649918, 
        0.2021118551492691, 
        0.014516556635499, 
        -0.10519175231456757, 
        -0.07023576647043228, 
        -0.0024800982791930437, 
        0.09306319057941437, 
        0.1478131264448166, 
        0.08840121328830719, 
        0.11060482263565063, 
        0.01453387551009655, 
        0.04692292585968971, 
        -0.006315702106803656, 
        0.0468117818236351, 
        0.046098221093416214, 
        0.06695910543203354, 
        0.02119605801999569, 
        -0.04232655465602875, 
        0.08949136734008789, 
        0.0399908684194088, 
        0.07928577065467834, 
        0.05614430457353592, 
        0.013413643464446068, 
        0.019939672201871872, 
        0.010920812375843525, 
        0.03567730635404587, 
        -0.06210614740848541, 
        0.011574623174965382, 
        -0.04836145415902138, 
        0.017961673438549042, 
        0.020215502008795738, 
        0.10894013941287994, 
        0.009144418872892857, 
        -0.11432434618473053, 
        0.00368518172763288, 
        -0.04328642785549164, 
        0.042699843645095825, 
        -0.005356522276997566, 
        0.10568788647651672, 
        -0.008296730928122997, 
        0.11854589730501175, 
        0.16654185950756073, 
        0.0025607061106711626, 
        0.1447211056947708, 
        -0.09079195559024811, 
        0.07228753715753555, 
        -0.015910523012280464, 
        0.04357004165649414, 
        -0.0017091906629502773, 
        0.05402016267180443, 
        0.11186184734106064, 
        -0.027716845273971558, 
        0.04163161292672157, 
        0.08435632288455963, 
        0.05930657684803009, 
        -0.12470942735671997, 
        0.044700995087623596, 
        0.00824731681495905
      ], 
      "weights": [
        -0.1515180617570877, 
        0.11145605891942978, 
        0.24322248995304108, 
        -0.008968443609774113, 
        -0.0145266717299819, 
        -0.08640501648187637, 
        0.12973417341709137, 
        -0.05929800495505333, 
        0.08922916650772095, 
        -0.10216037929058075, 
        -0.20951198041439056, 
        0.22222687304019928, 
        0.21799741685390472, 
        0.05058766156435013, 
        0.07190188020467758, 
        0.23288942873477936, 
        -0.009511971846222878, 
        0.0813385471701622, 
        0.03792828321456909, 
        -0.05582671985030174, 
        -0.06895127147436142, 
        -0.09081615507602692, 
        0.170992910861969, 
        0.16323719918727875, 
        -0.09165854752063751, 
        -0.08335933089256287, 
        -0.1881035715341568, 
        -0.20173875987529755, 
        -0.024119941517710686, 
        0.020773546770215034, 
        0.07387447357177734, 
        0.17131204903125763, 
        -0.021381273865699768, 
        -0.13137193024158478, 
        -0.0824732631444931, 
        -0.16490183770656586, 
        0.22629322111606598, 
        0.19989094138145447, 
        0.25508731603622437, 
        -0.2319760024547577, 
        -0.05870887264609337, 
        -0.02760162577033043, 
        -0.13989770412445068, 
        -0.11931607127189636, 
        0.21929113566875458, 
        0.1814519613981247, 
        -0.10504522174596786, 
        -0.2224057912826538, 
        0.09765204042196274, 
        -0.029804203659296036, 
        -0.14246724545955658, 
        0.0888429656624794, 
        0.10911627113819122, 
        -0.1805182546377182, 
        -0.12033969163894653, 
        0.20422327518463135, 
        0.05331707000732422, 
        0.24504207074642181, 
        -0.02005820907652378, 
        0.10444623976945877, 
        0.06961452960968018, 
        -0.003157959785312414, 
        -0.15167608857154846, 
        -0.1681510955095291, 
        -0.2439306676387787, 
        0.06485029309988022, 
        0.10903830081224442, 
        -0.15552598237991333, 
        -0.015489005483686924, 
        -0.1748095005750656, 
        -0.22311082482337952, 
        0.07492551952600479, 
        0.060275424271821976, 
        0.044472310692071915, 
        0.08549704402685165, 
        0.11314982920885086, 
        -0.09353536367416382, 
        0.11039897054433823, 
        -0.01387373823672533, 
        -0.13332131505012512, 
        0.14079706370830536, 
        0.04283035919070244, 
        0.0024368171580135822, 
        -0.2344740927219391, 
        -0.029371539130806923, 
        -0.039739999920129776, 
        -0.1712343543767929, 
        0.03143121674656868, 
        -0.2864440083503723, 
        0.04050883650779724, 
        -0.1256764680147171, 
        0.25294190645217896, 
        -0.1639842540025711, 
        -0.27571815252304077, 
        -0.2594427764415741, 
        -0.13665203750133514, 
        0.09816648066043854, 
        -0.21923072636127472, 
        0.04813225567340851, 
        -0.00028594493051059544, 
        -0.23343008756637573, 
        0.1077788695693016, 
        0.2609563171863556, 
        0.05324454978108406, 
        -0.17237558960914612, 
        0.2412230521440506, 
        -0.30723947286605835, 
        0.09609795361757278, 
        -0.05833498388528824, 
        0.17017245292663574, 
        0.12009560316801071, 
        -0.17536383867263794, 
        -0.12444750219583511, 
        0.011529211886227131, 
        0.21518756449222565, 
        -0.026797907426953316, 
        -0.03303905948996544, 
        -0.15140049159526825, 
        -0.18021279573440552, 
        -0.15423840284347534, 
        0.09538055956363678, 
        0.002738915616646409, 
        -0.11073262989521027, 
        -0.14971883594989777, 
        -0.0028563637752085924, 
        0.0293828547000885, 
        0.14188547432422638, 
        -0.10472068190574646, 
        0.10607056319713593, 
        -0.14403803646564484, 
        -0.11796779930591583, 
        -0.2444457858800888, 
        -0.11879297345876694, 
        0.17552177608013153, 
        0.0035670315846800804, 
        0.09554523974657059, 
        -0.22164855897426605, 
        0.07277552038431168, 
        -0.08278248459100723, 
        -0.11304210871458054, 
        0.23475627601146698, 
        0.04296191781759262, 
        -0.22344788908958435, 
        -0.26864901185035706, 
        0.011703419499099255, 
        0.07751746475696564, 
        -0.03249789774417877, 
        -0.019881827756762505, 
        -0.18167369067668915, 
        0.13844096660614014, 
        -0.14336562156677246, 
        -0.15751972794532776, 
        -0.10041274130344391, 
        -0.08361006528139114, 
        0.020405249670147896, 
        0.06409753113985062, 
        0.2845136523246765, 
        -0.012175639159977436, 
        -0.02141864411532879, 
        0.22410714626312256, 
        -0.04264019429683685, 
        -0.19671998918056488, 
        -0.053948331624269485, 
        -0.055106259882450104, 
        0.1745428889989853, 
        -0.18825078010559082, 
        0.13141116499900818, 
        -0.09879335016012192, 
        0.20268511772155762, 
        -0.11889659613370895, 
        0.06739407777786255, 
        -0.05183929204940796, 
        0.13368509709835052, 
        0.06714339554309845, 
        0.011536016128957272, 
        0.01668611355125904, 
        0.015584416687488556, 
        -0.007998176850378513, 
        -0.15300577878952026, 
        0.028108913451433182, 
        -0.07899191230535507, 
        0.10493876785039902, 
        0.1932225078344345, 
        -0.23893368244171143, 
        -0.015498008579015732, 
        -0.0005740433116443455, 
        0.2149667888879776, 
        0.24765025079250336, 
        0.09077425301074982, 
        -0.05804913863539696, 
        -0.5546693801879883, 
        0.07295651733875275, 
        -0.0218159481883049, 
        -0.15775728225708008, 
        -0.24674677848815918, 
        -0.1804000288248062, 
        0.15893299877643585, 
        -0.051247674971818924, 
        0.0899169072508812, 
        0.026928406208753586, 
        -0.10597547888755798, 
        0.23108839988708496, 
        -0.017862122505903244, 
        -0.06747203320264816, 
        -0.039623502641916275, 
        -0.08753912150859833, 
        -0.12931476533412933, 
        -0.08865263313055038, 
        0.2060275375843048, 
        -0.10739164054393768, 
        0.10034915059804916, 
        -0.09129481762647629, 
        0.039005719125270844, 
        0.12577898800373077, 
        0.17205320298671722, 
        -0.3033522963523865, 
        0.03562953695654869, 
        -0.364817351102829, 
        0.07126698642969131, 
        0.033643145114183426, 
        -0.11824919283390045, 
        -0.09293244034051895, 
        -0.3206593692302704, 
        0.046817176043987274, 
        0.17822521924972534, 
        0.1212780550122261, 
        -0.08610475808382034, 
        0.043839361518621445, 
        -0.4737582206726074, 
        -0.015899233520030975, 
        0.1676933318376541, 
        0.16821426153182983, 
        -0.1143505647778511, 
        -0.11073347926139832, 
        0.04159475490450859, 
        -0.37162983417510986, 
        -0.018446559086441994, 
        -0.04596787318587303, 
        -0.4563245475292206, 
        0.011854441836476326, 
        -0.12449577450752258, 
        0.13841897249221802, 
        0.2221674770116806, 
        -0.07482092827558517, 
        -0.2070259302854538, 
        0.028979063034057617, 
        -0.07726360112428665, 
        -0.006464228965342045, 
        -0.016219399869441986, 
        -0.5108815431594849, 
        -0.5681990385055542, 
        -0.19829678535461426, 
        0.09839034825563431, 
        -0.0655738115310669, 
        0.00015871615323703736, 
        0.04545037820935249, 
        0.12487266212701797, 
        -0.0416620671749115, 
        -0.23070816695690155, 
        0.13631506264209747, 
        -0.017578963190317154, 
        -0.10732527822256088, 
        0.22273926436901093, 
        -0.48180410265922546, 
        -0.024422740563750267, 
        -0.024029243737459183, 
        0.04870247840881348, 
        0.04161989316344261, 
        -0.1611974835395813, 
        0.14894552528858185, 
        -0.03892120346426964, 
        0.1973530352115631, 
        -0.5017898082733154, 
        0.00046448176726698875, 
        -0.08473046869039536, 
        -0.4219420552253723, 
        0.026785390451550484, 
        -0.15619438886642456, 
        -0.05258658900856972, 
        0.09566540271043777, 
        -0.17130450904369354, 
        -0.22302298247814178, 
        -0.3018227815628052, 
        0.15565580129623413, 
        -0.11832741647958755, 
        -0.05649450048804283, 
        0.07937758415937424, 
        0.011996684595942497, 
        -0.065364308655262, 
        0.09399792551994324, 
        -0.14999713003635406, 
        -0.1277644783258438, 
        -0.21629905700683594, 
        -0.22493338584899902, 
        -0.3139902651309967, 
        -0.1714070439338684, 
        -0.05250696465373039, 
        0.0012757175136357546, 
        -0.08303529769182205, 
        -0.034910108894109726, 
        -0.7630982995033264, 
        -0.165696918964386, 
        0.22991889715194702, 
        -0.037485722452402115, 
        -0.09745559096336365, 
        -0.49261122941970825, 
        -0.016270305961370468, 
        -0.08006337285041809, 
        0.15064500272274017, 
        -0.22357144951820374, 
        0.06515605747699738, 
        -0.0865926742553711, 
        -0.3850475549697876, 
        0.052866701036691666, 
        -0.07352765649557114, 
        -0.05498391389846802, 
        -0.5650365948677063, 
        -0.04256972298026085, 
        -0.05704054236412048, 
        0.10143822431564331, 
        -0.09064433723688126, 
        0.07937901467084885, 
        -0.049856867641210556, 
        0.16394531726837158, 
        0.11889322102069855, 
        0.010446378029882908, 
        -0.010027593933045864, 
        -0.16327320039272308, 
        -0.059503715485334396, 
        -0.1262909471988678, 
        0.13494548201560974, 
        -0.08150054514408112, 
        -0.20029579102993011, 
        0.03744131326675415, 
        -0.1451960653066635, 
        0.0283562820404768, 
        -0.3516165018081665, 
        0.13359755277633667, 
        -0.013078476302325726, 
        -0.06107301637530327, 
        -0.04704878851771355, 
        -0.050498902797698975, 
        -0.03067890927195549, 
        0.021820485591888428, 
        -0.008680076338350773, 
        -0.25056493282318115, 
        -0.16040852665901184, 
        -0.025775225833058357, 
        -0.12882757186889648, 
        -0.19484567642211914, 
        0.10204829275608063, 
        -0.026954688131809235, 
        0.19846558570861816, 
        -0.13139724731445312, 
        0.011581593193113804, 
        -0.019276095554232597, 
        -0.06080576777458191, 
        -0.1349635124206543, 
        -0.12876038253307343, 
        -0.20579372346401215, 
        0.052879538387060165, 
        -0.22787247598171234, 
        -0.06772264093160629, 
        -0.0724831074476242, 
        -0.26986604928970337, 
        -0.29876965284347534, 
        -0.20400531589984894, 
        0.15952762961387634, 
        -0.22903963923454285, 
        0.20506440103054047, 
        0.04308563098311424, 
        0.09515995532274246, 
        0.034842442721128464, 
        -0.013740896247327328, 
        -0.07782163470983505, 
        -0.14528654515743256, 
        -0.3118979334831238, 
        -0.4085008502006531, 
        0.10996203869581223, 
        0.024068495258688927, 
        -0.0386909656226635, 
        -0.20887814462184906, 
        0.028240809217095375, 
        0.09973224252462387, 
        0.03715691342949867, 
        -0.037819407880306244, 
        0.08985107392072678, 
        -0.14745187759399414, 
        0.1490415632724762, 
        0.029169632121920586, 
        -0.10368123650550842, 
        -0.058275360614061356, 
        0.1369762420654297, 
        0.011326033622026443, 
        -0.1722489595413208, 
        -0.13829907774925232, 
        -0.15386201441287994, 
        -0.011584974825382233, 
        0.039041902869939804, 
        0.16258305311203003, 
        -0.10672488808631897, 
        0.06501206010580063, 
        -0.21489708125591278, 
        0.10711191594600677, 
        0.09267690777778625, 
        0.039774585515260696, 
        -0.06840793788433075, 
        -0.015665147453546524, 
        -0.2442554533481598, 
        0.1183910146355629, 
        0.18324698507785797, 
        -0.2075050324201584, 
        0.035271789878606796, 
        -0.05296798050403595, 
        -0.15791907906532288, 
        0.11305315792560577, 
        -0.21479064226150513, 
        -0.09912967681884766, 
        -0.07715104520320892, 
        -0.089029461145401, 
        -0.06672801077365875, 
        0.05322076752781868, 
        -0.04748322069644928, 
        0.10767336934804916, 
        0.03277447819709778, 
        0.07669846713542938, 
        -0.13764603435993195, 
        0.028720054775476456, 
        0.2587759792804718, 
        -0.14077064394950867, 
        0.12845531105995178, 
        0.0034671069588512182, 
        0.11458122730255127, 
        -0.10701829940080643, 
        -0.00969349779188633, 
        -0.15640239417552948, 
        0.12550148367881775, 
        -0.14516505599021912, 
        0.2056589424610138, 
        0.12085279077291489, 
        0.029667705297470093, 
        -0.23663409054279327, 
        -0.14442802965641022, 
        0.042801883071660995, 
        -0.2586543560028076, 
        0.007167695090174675, 
        0.03108295612037182, 
        0.15341125428676605, 
        -0.23389457166194916, 
        0.06989874690771103, 
        0.10881299525499344, 
        0.028562726452946663, 
        0.09242907166481018, 
        0.048044271767139435, 
        0.018215641379356384, 
        -0.14396756887435913, 
        0.14454926550388336, 
        -0.28142428398132324, 
        -0.021537428721785545, 
        0.17570282518863678, 
        -0.32350781559944153, 
        0.0016408273950219154, 
        0.1343090832233429, 
        0.04757392778992653, 
        0.07959379255771637, 
        0.12856274843215942, 
        0.04372609779238701, 
        0.12592464685440063, 
        -0.005308966618031263, 
        -0.06505334377288818, 
        -0.14711296558380127, 
        0.026852058246731758, 
        0.05484268069267273, 
        -0.23517672717571259, 
        0.09882939606904984, 
        -0.13125814497470856, 
        -0.16984865069389343, 
        -0.3550425171852112, 
        -0.06235259026288986, 
        -0.12458014488220215, 
        0.19426943361759186, 
        -0.11338140070438385, 
        0.1680595874786377, 
        -0.17452698945999146, 
        -0.07645415514707565, 
        -0.10060214251279831, 
        0.1662558615207672, 
        0.08224467188119888, 
        -0.014456963166594505, 
        0.06308692693710327, 
        -0.0523645281791687, 
        0.23145350813865662, 
        0.22735436260700226, 
        0.1361987143754959, 
        -0.029205653816461563, 
        -0.16714777052402496, 
        0.022891251370310783, 
        -0.13740037381649017, 
        -0.08332398533821106, 
        0.015520796179771423, 
        0.16315820813179016, 
        -0.08165738731622696, 
        0.2710832953453064, 
        -0.12494880706071854, 
        0.1259375959634781, 
        -0.3791791796684265, 
        -0.09471964091062546, 
        -0.18891659379005432, 
        -0.22664675116539001, 
        0.03852617368102074, 
        0.06663323193788528, 
        0.12864524126052856, 
        -0.36044612526893616, 
        -0.09256692975759506, 
        0.11034274846315384, 
        -0.2687819004058838, 
        0.024176040664315224, 
        -0.45481064915657043, 
        -0.04525576904416084, 
        -0.06878494471311569, 
        -0.17732441425323486, 
        0.1504441201686859, 
        -0.20842278003692627, 
        -0.011994276195764542, 
        -0.0390319786965847, 
        0.040298134088516235, 
        0.010251685976982117, 
        0.04643881320953369, 
        0.18148235976696014, 
        0.161809504032135, 
        -0.40787965059280396, 
        0.1322508156299591, 
        -0.14031653106212616, 
        -0.3549095094203949, 
        -0.03243693336844444, 
        -0.12379930168390274, 
        0.1573188602924347, 
        0.10797242820262909, 
        -0.04300445690751076, 
        -0.0916534885764122, 
        -0.03554777801036835, 
        0.20151056349277496, 
        0.20190836489200592, 
        0.06305393576622009, 
        -0.2003965675830841, 
        -0.19594691693782806, 
        0.045010246336460114, 
        -0.5630639791488647, 
        0.13945849239826202, 
        -0.21905271708965302, 
        -0.20722007751464844, 
        0.09873426705598831, 
        -0.21277286112308502, 
        -0.1621568650007248, 
        -0.21021702885627747, 
        -0.01863776333630085, 
        -0.2531171441078186, 
        -0.014972622506320477, 
        0.029140396043658257, 
        -0.12900491058826447, 
        0.10542435944080353, 
        0.14143657684326172, 
        -0.19345706701278687, 
        0.22559192776679993, 
        -0.09877176582813263, 
        0.1056329756975174, 
        -0.059538859874010086, 
        -0.23847484588623047, 
        -0.3363613784313202, 
        -0.02905445545911789, 
        0.03975357487797737, 
        0.01359447930008173, 
        -0.09692097455263138, 
        0.0231364406645298, 
        -0.06534332782030106, 
        -0.09510865062475204, 
        -0.16335336863994598, 
        -0.05655187740921974, 
        0.1238250806927681, 
        0.06636416912078857, 
        0.2048555165529251, 
        0.05436042323708534, 
        -0.19981814920902252, 
        -0.09742589294910431, 
        0.03795948252081871, 
        -0.20399519801139832, 
        -0.12136802822351456, 
        -0.1287602037191391, 
        -0.17554695904254913, 
        -0.19921185076236725, 
        -0.11733218282461166, 
        0.08411937206983566, 
        0.08942142874002457, 
        0.16855108737945557, 
        -0.011420877650380135, 
        -0.08018503338098526, 
        -0.31419914960861206, 
        -0.032725512981414795, 
        -0.20472872257232666, 
        -0.2097945213317871, 
        0.06881546974182129, 
        -0.11083652824163437, 
        -0.11370880901813507, 
        0.19530430436134338, 
        -0.048184216022491455, 
        -0.1949923038482666, 
        -0.06921450793743134, 
        0.11263348907232285, 
        -0.03773937746882439, 
        0.24554191529750824, 
        -0.07389092445373535, 
        -0.07171077281236649, 
        -0.08544567227363586, 
        -0.03805693984031677, 
        -0.2064789980649948, 
        -0.15167994797229767, 
        -0.09970135241746902, 
        -0.20549461245536804, 
        0.07127918303012848, 
        -0.05949662998318672, 
        -0.0556248314678669, 
        -0.196383997797966, 
        -0.09562177211046219, 
        0.00017498382658232003, 
        -0.170569509267807, 
        0.059315066784620285, 
        -0.0183752179145813, 
        -0.015529456548392773, 
        -0.020378973335027695, 
        -0.10376651585102081, 
        0.19327007234096527, 
        -0.13263055682182312, 
        0.08811235427856445, 
        0.22337020933628082, 
        -0.1407187581062317, 
        -0.012475244700908661, 
        0.16213200986385345, 
        -0.481071412563324, 
        -0.05990933999419212, 
        0.1706332564353943, 
        0.14604370296001434, 
        0.09395547956228256, 
        0.06803863495588303, 
        -0.04527641460299492, 
        0.13429786264896393, 
        -0.14439930021762848, 
        -0.2779231071472168, 
        0.028230009600520134, 
        -0.3573325276374817, 
        0.2038603276014328, 
        -0.020306535065174103, 
        0.16222001612186432, 
        0.022444630041718483, 
        0.004667715169489384, 
        -0.20188850164413452, 
        -0.18181896209716797, 
        -0.3441990315914154, 
        -0.09219788759946823, 
        0.022524956613779068, 
        0.11816874891519547, 
        -0.23466569185256958, 
        0.055281862616539, 
        -0.2527891993522644, 
        0.08112992346286774, 
        -0.2733054459095001, 
        0.11994210630655289, 
        0.06707794964313507, 
        -0.05620298907160759, 
        0.11593697965145111, 
        0.10898953676223755, 
        -0.05626903846859932, 
        0.03448053449392319, 
        0.014249816536903381, 
        -0.029964538291096687, 
        0.0810241624712944, 
        -0.02102254144847393, 
        0.2010149508714676, 
        0.029581796377897263, 
        -0.03842129558324814, 
        -0.19209672510623932, 
        -0.08821382373571396, 
        -0.24753165245056152, 
        0.10194173455238342, 
        -0.13509154319763184, 
        -0.044188227504491806, 
        -0.36174318194389343, 
        -0.10901034623384476, 
        0.06718723475933075, 
        -0.24586841464042664, 
        0.10305031388998032, 
        0.05641015246510506, 
        0.003136028302833438, 
        -0.4363051950931549, 
        -0.028216401115059853, 
        -0.10904496908187866, 
        0.1700887382030487, 
        0.045071281492710114, 
        -0.33306294679641724, 
        -0.03796795755624771, 
        -0.14784641563892365, 
        0.01550141628831625, 
        -0.14126205444335938, 
        0.026943549513816833, 
        -0.10416252166032791, 
        -0.11468113958835602, 
        0.01308387890458107, 
        -0.26475104689598083, 
        0.21798987686634064, 
        -0.045293379575014114, 
        0.05537569895386696, 
        0.013823400251567364, 
        -0.06625062227249146, 
        -0.051141101866960526, 
        -0.040612537413835526, 
        -0.008339357562363148, 
        -0.07479263842105865, 
        0.17901787161827087, 
        -0.18947717547416687, 
        0.10554516315460205, 
        -0.0009169039549306035, 
        -0.09145408123731613, 
        0.055367033928632736, 
        0.0627632811665535, 
        -0.009181621484458447, 
        -0.2936812937259674, 
        0.015924878418445587, 
        0.07050035148859024, 
        0.10224214196205139, 
        0.11800588667392731, 
        -0.18806970119476318, 
        -0.08024771511554718, 
        0.1055358499288559, 
        0.055577609688043594, 
        -0.1789228767156601, 
        -0.08459779620170593, 
        0.07272887229919434, 
        0.12763510644435883, 
        0.07180585712194443, 
        0.1527419090270996, 
        -0.2851434051990509, 
        -0.035335417836904526, 
        -0.007121481467038393, 
        0.07933447510004044, 
        -0.05151994153857231, 
        -0.19666023552417755, 
        0.10328216850757599, 
        0.04813845828175545, 
        0.09815394878387451, 
        -0.3577204942703247, 
        -0.024531353265047073, 
        -0.5850604176521301, 
        0.0754537284374237, 
        0.01599760539829731, 
        -0.3233388066291809, 
        -0.3386271297931671, 
        -0.3524370789527893, 
        0.05748705938458443, 
        0.02113134041428566, 
        -0.0373823419213295, 
        -0.025106439366936684, 
        -0.1927652209997177, 
        0.008819980546832085, 
        -0.03261350095272064, 
        -0.2155979722738266, 
        0.045152176171541214, 
        -0.05403314158320427, 
        -0.12419605255126953, 
        -0.38154327869415283, 
        0.0003664323885459453, 
        -0.05937334895133972, 
        -0.1320296972990036, 
        -0.06744445860385895, 
        0.1859007626771927, 
        -0.1311839073896408, 
        -0.26828446984291077, 
        -0.1909538358449936, 
        -0.12871713936328888, 
        0.030059827491641045, 
        -0.0368511937558651, 
        -0.004379532299935818, 
        -0.3662579655647278, 
        0.016691308468580246, 
        0.21278002858161926, 
        -0.02772565372288227, 
        0.12316607683897018, 
        0.011277500540018082, 
        0.01695919781923294, 
        -0.363863468170166, 
        -0.15707343816757202, 
        -0.15737074613571167, 
        -0.027385864406824112, 
        0.060770418494939804, 
        0.1750122308731079, 
        -0.060261961072683334, 
        0.061658792197704315, 
        0.04145151004195213, 
        -0.5123381018638611, 
        -0.03220875561237335, 
        -0.19733291864395142, 
        0.023069975897669792, 
        -0.06822414696216583, 
        -0.02774099074304104, 
        0.10339800268411636, 
        -0.2542800307273865, 
        0.2912939488887787, 
        0.05969613417983055, 
        -0.0002041247789748013, 
        -0.39312395453453064, 
        -0.1347360908985138, 
        0.2139562964439392, 
        0.06547615677118301, 
        -0.031169338151812553, 
        -0.28521689772605896, 
        0.02992347441613674, 
        -0.6207607984542847, 
        -0.06951975077390671, 
        -0.0445338673889637, 
        0.13362078368663788, 
        0.03248493745923042, 
        -0.110313780605793, 
        0.007744606584310532, 
        0.10020294785499573, 
        0.22995632886886597, 
        -0.06551804393529892, 
        -0.11780542135238647, 
        -0.19938823580741882, 
        0.08385954797267914, 
        0.13479313254356384, 
        0.06596912443637848, 
        -0.07831786572933197, 
        -0.0749252438545227, 
        0.037963323295116425, 
        -0.230081245303154, 
        0.05393998324871063, 
        0.11201100051403046, 
        0.1304125040769577, 
        -0.21025289595127106, 
        -0.11024973541498184, 
        -0.24278613924980164, 
        -0.09817376732826233, 
        -0.16361096501350403, 
        -0.04835760220885277, 
        0.16149413585662842, 
        0.021805929020047188, 
        0.029840918257832527, 
        0.0961395725607872, 
        0.10510648787021637, 
        0.11082305014133453, 
        -0.18134048581123352, 
        -0.02898009866476059, 
        -0.059464432299137115, 
        0.06925787776708603, 
        -0.1987585425376892, 
        0.03360138088464737, 
        -0.0027330589946359396, 
        -0.12036556005477905, 
        -0.14786310493946075, 
        -0.23131021857261658, 
        0.03409581258893013, 
        0.03186405450105667, 
        -0.00014330234262160957, 
        -0.30376026034355164, 
        -0.1376631110906601, 
        0.06492272019386292, 
        -0.1440502405166626, 
        0.1092938482761383, 
        -0.08951211720705032, 
        -0.027467872947454453, 
        -0.1748461276292801, 
        -0.10536276549100876, 
        0.24726377427577972, 
        -0.1469978243112564, 
        -0.03742211312055588, 
        0.21095725893974304, 
        -0.044600747525691986, 
        -0.05264115333557129, 
        -0.08795136958360672, 
        0.02671685442328453, 
        0.16179902851581573, 
        0.10728416591882706, 
        -0.010068175382912159, 
        0.15595608949661255, 
        0.04719071462750435, 
        -0.038347046822309494, 
        0.02392687276005745, 
        -0.2566218972206116, 
        -0.08434940129518509, 
        -0.02807098627090454, 
        0.09231608361005783, 
        -0.04905815050005913, 
        0.1453031748533249, 
        0.03210483118891716, 
        0.1184934750199318, 
        -0.03102407418191433, 
        -0.029543161392211914, 
        -0.015024024993181229, 
        -0.013027023524045944, 
        0.11625410616397858, 
        0.24131089448928833, 
        -0.21628548204898834, 
        0.058337099850177765, 
        -0.01964554190635681, 
        0.19750645756721497, 
        -0.13922177255153656, 
        -0.13630729913711548, 
        -0.09012032300233841, 
        -0.3960888981819153, 
        -0.005535891279578209, 
        -0.010533268563449383, 
        -0.1340680867433548, 
        -0.044304776936769485, 
        -0.13578656315803528, 
        -0.05820600315928459, 
        0.28749239444732666, 
        -0.4620642066001892, 
        0.02286301739513874, 
        -0.045057229697704315, 
        0.12678097188472748, 
        0.15366052091121674, 
        -0.008091406896710396, 
        0.10874488949775696, 
        -0.076333187520504, 
        0.17212435603141785, 
        -0.4709234833717346, 
        -0.14803601801395416, 
        0.23342999815940857, 
        0.23313884437084198, 
        -0.31040677428245544, 
        -0.33165299892425537, 
        0.05535848066210747, 
        -0.6774431467056274, 
        -0.35807913541793823, 
        -0.07950229942798615, 
        0.07693492621183395, 
        0.1324605494737625, 
        0.08717840164899826, 
        -0.08404954522848129, 
        -0.25860118865966797, 
        -0.07092617452144623, 
        -0.008835944347083569, 
        -0.09220476448535919, 
        0.052498284727334976, 
        0.08519639074802399, 
        -0.17387136816978455, 
        -0.21531367301940918, 
        0.13363565504550934, 
        -0.1424534022808075, 
        -0.21862223744392395, 
        -0.26124274730682373, 
        0.07907864451408386, 
        -0.34189093112945557, 
        0.0392768494784832, 
        -0.05059130862355232, 
        -0.004963628016412258, 
        0.04107833281159401, 
        -0.251001238822937, 
        -0.30125370621681213, 
        0.04148910567164421, 
        -0.35570621490478516, 
        -0.36042320728302, 
        0.005549173802137375, 
        0.09110919386148453, 
        0.007409609854221344, 
        -0.04498527571558952, 
        0.11974841356277466, 
        -0.037238698452711105, 
        -0.40080732107162476, 
        0.004077287390828133, 
        -0.12103469669818878, 
        -0.018613720312714577, 
        -0.017622942104935646, 
        -0.15225207805633545, 
        -0.17291797697544098, 
        -0.004039506893604994, 
        -0.3106599748134613, 
        -0.028171636164188385, 
        -0.19542525708675385, 
        -0.020785054191946983, 
        0.1605554074048996, 
        -0.04649608954787254, 
        0.059957895427942276, 
        0.028599070385098457, 
        -0.27828124165534973, 
        -0.1401914656162262, 
        -0.04551190882921219, 
        -0.08706004917621613, 
        -0.05436865985393524, 
        -0.27738016843795776, 
        0.13723306357860565, 
        -0.10644924640655518, 
        0.16494715213775635, 
        -0.15985603630542755, 
        -0.12513963878154755, 
        0.049029745161533356, 
        0.017140518873929977, 
        -0.12929747998714447, 
        -0.12642095983028412, 
        0.07949445396661758, 
        -0.14868728816509247, 
        -0.1738555133342743, 
        0.07068270444869995, 
        -0.44435667991638184, 
        -0.04293651506304741, 
        0.025582175701856613, 
        0.11498002707958221, 
        0.06166937202215195, 
        -0.09434331953525543, 
        -0.16213473677635193, 
        -0.21642112731933594, 
        0.020355505868792534, 
        -0.0012030714424327016, 
        0.0693901777267456, 
        -0.5157241821289062, 
        -0.05074028670787811, 
        -0.26421988010406494, 
        -0.32198670506477356, 
        -0.1551820933818817, 
        -0.30402979254722595, 
        -0.3020252585411072, 
        -0.35989025235176086, 
        0.14859236776828766, 
        -0.3664843738079071, 
        0.07345463335514069, 
        0.08117184787988663, 
        -0.042525291442871094, 
        0.20357076823711395, 
        -0.4432928264141083, 
        0.15832947194576263, 
        0.006316770799458027, 
        0.15429671108722687, 
        0.14498689770698547, 
        -0.6459115743637085, 
        -0.039424650371074677, 
        0.120914027094841, 
        0.08537228405475616, 
        0.06464474648237228, 
        -0.0395749993622303, 
        -0.19165825843811035, 
        -0.0030027118045836687, 
        0.09256597608327866, 
        -0.108160100877285, 
        -0.15084420144557953, 
        -0.28516465425491333, 
        -0.07943464070558548, 
        0.08234477043151855, 
        -0.1898641288280487, 
        0.30596786737442017, 
        -0.14714136719703674, 
        -0.1282668113708496, 
        -0.0724741518497467, 
        -0.06909586489200592, 
        0.12366411834955215, 
        -0.09983409196138382, 
        0.17823922634124756, 
        0.14044170081615448, 
        0.10376390814781189, 
        -0.13204878568649292, 
        0.06995167583227158, 
        -0.14369386434555054, 
        -0.12306162714958191, 
        -0.19929474592208862, 
        0.24893127381801605, 
        0.2473992258310318, 
        -0.13225723803043365, 
        0.08386773616075516, 
        0.2588699460029602, 
        -0.10568897426128387, 
        0.2471407800912857, 
        -0.00369130983017385, 
        -0.06984158605337143, 
        -0.293873131275177, 
        -0.11250537633895874, 
        0.04518303647637367, 
        0.007601196877658367, 
        -0.4830540120601654, 
        -0.08872340619564056, 
        -0.06324316561222076, 
        0.005406512878835201, 
        -0.0052627152763307095, 
        -0.029126014560461044, 
        -0.2655547559261322, 
        -0.0847414880990982, 
        0.07854074984788895, 
        -0.21396207809448242, 
        0.22554254531860352, 
        0.17245663702487946, 
        -0.27292048931121826, 
        -0.1944807916879654, 
        -0.037783872336149216, 
        0.08394324034452438, 
        0.17965683341026306, 
        -0.08516592532396317, 
        0.16409599781036377, 
        0.13638465106487274, 
        -0.1564340889453888, 
        -0.07068271189928055, 
        -0.06697548925876617, 
        -0.2899155020713806, 
        -0.07348493486642838, 
        -0.022194214165210724, 
        -0.12328103929758072, 
        0.1364859640598297, 
        -0.04039597511291504, 
        -0.08210624009370804, 
        0.013662314973771572, 
        0.06149928644299507, 
        -0.02252926491200924, 
        0.15394413471221924, 
        -0.36190322041511536, 
        -0.009388532489538193, 
        0.07296127825975418, 
        0.1781032234430313, 
        -0.06375782936811447, 
        -0.08050274103879929, 
        0.09462154656648636, 
        -0.17987295985221863, 
        -0.06522607058286667, 
        0.08470644801855087, 
        -0.44482436776161194, 
        0.08601368218660355, 
        -0.26014259457588196, 
        -0.0318550243973732, 
        0.03721574693918228, 
        -0.08767455816268921, 
        0.08128143846988678, 
        0.2344614863395691, 
        -0.08682567626237869, 
        -0.1445242166519165, 
        -0.13476631045341492, 
        -0.07232438772916794, 
        0.17013560235500336, 
        0.003653658786788583, 
        -0.11466598510742188, 
        0.03010239079594612, 
        -0.2585292160511017, 
        -0.11712606996297836, 
        -0.2274264097213745, 
        -0.22880978882312775, 
        0.04637774080038071, 
        0.022624174132943153, 
        0.05134106054902077, 
        -0.02774685248732567, 
        -0.09107814729213715, 
        0.003055966692045331, 
        0.1432023048400879, 
        -0.05094891041517258, 
        -0.13061368465423584, 
        -0.0033532597590237856, 
        0.08008237928152084, 
        -0.11832442879676819, 
        0.23902398347854614, 
        0.039528824388980865, 
        -0.05046512559056282, 
        0.03625931218266487, 
        0.04666531831026077, 
        0.10816889256238937, 
        -0.1986093670129776, 
        -0.27362412214279175, 
        -0.3699120879173279, 
        -0.1944516897201538, 
        -0.18953940272331238, 
        -0.21237817406654358, 
        0.14369967579841614, 
        0.051107633858919144, 
        -0.1914265900850296, 
        -0.060128744691610336, 
        -0.21690955758094788, 
        -0.041520699858665466, 
        0.07405665516853333, 
        0.026541966944932938, 
        0.016238443553447723, 
        -0.15756085515022278, 
        -0.25379443168640137, 
        0.1038685217499733, 
        -0.1663808971643448, 
        0.1136823371052742, 
        -0.1030002310872078, 
        -0.1890605092048645, 
        -0.010026956908404827, 
        -0.25569862127304077, 
        -0.22117546200752258, 
        -0.07307387888431549, 
        0.06504440307617188, 
        0.014808880165219307, 
        -0.2386236935853958, 
        0.09523867070674896, 
        -0.06310703605413437, 
        -0.06048399582505226, 
        0.17836008965969086, 
        0.1948898732662201, 
        0.012871170416474342, 
        -0.41778799891471863, 
        0.05629384517669678, 
        -0.12323439121246338, 
        0.06450355798006058, 
        -0.12316595762968063, 
        0.06941520422697067, 
        -0.14072547852993011, 
        -0.06268049031496048, 
        -0.085023894906044, 
        -0.11178950220346451, 
        -0.08776632696390152, 
        0.07351379841566086, 
        -0.013453944586217403, 
        0.02436075545847416, 
        -0.05774641036987305, 
        -0.05121738836169243, 
        0.034539174288511276, 
        -0.25105729699134827, 
        0.11408427357673645, 
        0.05728970840573311, 
        0.017153285443782806, 
        -0.10915125161409378, 
        -0.07555879652500153, 
        0.1485908478498459, 
        0.06817270070314407, 
        0.16169558465480804, 
        -0.1389971822500229, 
        0.12706683576107025, 
        0.020089156925678253, 
        -0.3330215811729431, 
        0.1598840206861496, 
        -0.014402447268366814, 
        0.05845402181148529, 
        0.05848199501633644, 
        -0.19029779732227325, 
        0.18097978830337524, 
        0.037908926606178284, 
        -0.05411028116941452, 
        -0.10989980399608612, 
        -0.18453000485897064, 
        -0.17208710312843323, 
        0.1400182694196701, 
        0.08948703855276108, 
        -0.5282174944877625, 
        0.08792629837989807, 
        0.10851907730102539, 
        0.09490933269262314, 
        -0.1759813278913498, 
        0.0801469162106514, 
        0.07434319704771042, 
        -0.03929201140999794, 
        0.08023574948310852, 
        -0.5100648403167725, 
        -0.2290552407503128, 
        0.10090740770101547, 
        0.23850107192993164, 
        -0.19357970356941223, 
        -0.11401974409818649, 
        -0.32992368936538696, 
        -0.23879610002040863, 
        -0.07359867542982101, 
        0.06444253772497177, 
        0.1384272277355194, 
        0.15666912496089935, 
        0.12347710132598877, 
        0.13549306988716125, 
        -0.18509699404239655, 
        -0.10800015926361084, 
        -0.049820657819509506, 
        -0.10054347664117813, 
        -0.09751122444868088, 
        -0.24452140927314758, 
        0.20194624364376068, 
        0.20651791989803314, 
        -0.13585297763347626, 
        -0.11621773988008499, 
        0.04821217805147171, 
        -0.13615186512470245, 
        -0.09730176627635956, 
        -0.15610240399837494, 
        -0.05397970601916313, 
        0.1599593162536621, 
        -0.044234659522771835, 
        -0.048440154641866684, 
        -0.16371214389801025, 
        -0.009447240270674229, 
        0.03096938319504261, 
        -0.5215391516685486, 
        0.06506222486495972, 
        0.12848904728889465, 
        0.12750528752803802, 
        -0.030011221766471863, 
        -0.2683948278427124, 
        -0.13501755893230438, 
        0.06568089127540588, 
        -0.3231440782546997, 
        -0.13394303619861603, 
        -0.06643851846456528, 
        -0.2254938781261444, 
        -0.0708395317196846, 
        -0.19271738827228546, 
        -0.125693216919899, 
        0.10683636367321014, 
        0.033010926097631454, 
        -0.3060683012008667, 
        -0.052252065390348434, 
        -0.10715129226446152, 
        0.0394904762506485, 
        -0.08103475719690323, 
        -0.0384119488298893, 
        -0.05193868279457092, 
        -0.25505632162094116, 
        0.08595701307058334, 
        -0.2601372003555298, 
        -0.12230586260557175, 
        -0.051622118800878525, 
        -0.09789702296257019, 
        -0.08873555809259415, 
        0.029868008568882942, 
        0.042344946414232254, 
        -0.14322468638420105, 
        0.053995076566934586, 
        0.37501096725463867, 
        -0.007084908429533243, 
        -0.0946432501077652, 
        -0.11808796972036362, 
        -0.24780136346817017, 
        -0.06166514754295349, 
        0.14443814754486084, 
        0.01787446066737175, 
        -0.24635322391986847, 
        0.1396723836660385, 
        -0.006665368098765612, 
        -0.19867846369743347, 
        -0.19379712641239166, 
        -0.38691189885139465, 
        0.12349595874547958, 
        -0.14461949467658997, 
        0.052762873470783234, 
        -0.08345210552215576, 
        -0.03617309033870697, 
        0.12031111121177673, 
        0.0727459043264389, 
        -0.15283294022083282, 
        -0.1167144700884819, 
        -0.039783041924238205, 
        -0.08127998560667038, 
        -0.09009363502264023, 
        -0.182119682431221, 
        0.014864085242152214, 
        -0.19402918219566345, 
        -0.12538950145244598, 
        0.2776462733745575, 
        -0.11573182791471481, 
        -0.1179848238825798, 
        -0.047513026744127274, 
        0.06257103383541107, 
        -0.03145984932780266, 
        -0.07740446925163269, 
        -0.08956367522478104, 
        -0.45952001214027405, 
        0.17402762174606323, 
        0.18270054459571838, 
        0.15302512049674988, 
        0.09863590449094772, 
        0.13992546498775482, 
        0.03536676988005638, 
        -0.06478939950466156, 
        0.13972388207912445, 
        -0.08205016702413559, 
        -0.572178065776825, 
        0.12768763303756714, 
        0.23070600628852844, 
        -0.11870282143354416, 
        -0.26793259382247925, 
        0.23247766494750977, 
        -0.08772312104701996, 
        0.1964365392923355, 
        -0.17716455459594727, 
        0.016253236681222916, 
        -0.006226617377251387, 
        0.1943211555480957, 
        -0.5185815095901489, 
        -0.12233271449804306, 
        0.045398831367492676, 
        -0.4174356758594513, 
        0.0781579241156578, 
        0.11244017630815506, 
        -0.20602241158485413, 
        -0.26756465435028076, 
        0.027981650084257126, 
        0.0650489553809166, 
        -0.6853147149085999, 
        -0.013928946107625961, 
        0.16826334595680237, 
        0.13988980650901794, 
        0.22223599255084991, 
        -0.08998361229896545, 
        -0.12457793951034546, 
        -0.0019781081937253475, 
        0.04252669960260391, 
        0.1338619738817215, 
        0.11474262923002243, 
        -0.1351601928472519, 
        -0.1813073605298996, 
        0.26086166501045227, 
        -0.14544479548931122, 
        -0.16683858633041382, 
        -0.19660495221614838, 
        -0.0025293498765677214, 
        -0.05685574561357498, 
        0.017606092616915703, 
        -0.3351591229438782, 
        -0.0377524234354496, 
        -0.011531418189406395, 
        0.21594232320785522, 
        -0.15936148166656494, 
        0.04930505156517029, 
        -0.13200165331363678, 
        -0.31166136264801025, 
        0.026558643206954002, 
        -0.03142944723367691, 
        -0.03192305564880371, 
        0.10434218496084213, 
        -0.09031040966510773, 
        -0.1625661700963974, 
        -0.08460665494203568, 
        0.12080170959234238, 
        -0.09224411845207214, 
        -0.22449858486652374, 
        0.11396270990371704, 
        0.11641628295183182, 
        -0.10185977071523666, 
        -0.23585692048072815, 
        -0.3691794276237488, 
        -0.07369045913219452, 
        -0.025974638760089874, 
        0.03782322630286217, 
        0.14116781949996948, 
        -0.12943539023399353, 
        0.0048213982954621315, 
        -0.17669197916984558, 
        0.0021320367231965065, 
        0.2679036557674408, 
        0.06562398374080658, 
        -0.24337638914585114, 
        -0.05457674339413643, 
        -0.38673141598701477, 
        -0.11195966601371765, 
        0.10673156380653381, 
        0.035846516489982605, 
        -0.18235519528388977, 
        -0.09397157281637192, 
        -0.1665920913219452, 
        -0.06149774417281151, 
        -0.277147114276886, 
        -0.035410076379776, 
        -0.16406984627246857, 
        -0.3190962076187134, 
        -0.09106843918561935, 
        0.08193260431289673, 
        -0.048727184534072876, 
        0.0648314356803894, 
        -0.09686033427715302, 
        0.04339234530925751, 
        -0.044892728328704834, 
        0.054214656352996826, 
        -0.14084391295909882, 
        -0.0006637159385718405, 
        -0.1313658207654953, 
        0.11093804240226746, 
        -0.21725888550281525, 
        0.2480706125497818, 
        -0.4166511297225952, 
        -0.1372908651828766, 
        -0.07552815228700638, 
        -0.18242324888706207, 
        -0.03977659344673157, 
        0.19359512627124786, 
        0.10737095028162003, 
        -0.2156819999217987, 
        0.14853732287883759, 
        -0.027726031839847565, 
        -0.13295583426952362, 
        -0.18546512722969055, 
        0.07851767539978027, 
        -0.2145105004310608, 
        -0.12365417927503586, 
        -0.04484669491648674, 
        0.2851290702819824, 
        -0.20053333044052124, 
        0.011059160344302654, 
        0.09042201191186905, 
        -0.08696991205215454, 
        -0.39731264114379883, 
        -0.1175890788435936, 
        -0.10314974188804626, 
        -0.1689535230398178, 
        0.16328327357769012, 
        -0.06736727803945541, 
        0.05660740286111832, 
        -0.1809946745634079, 
        0.038567863404750824, 
        -0.2850419878959656, 
        -0.13892444968223572, 
        0.07193712145090103, 
        -0.01514583732932806, 
        -0.3733508288860321, 
        -0.12297927588224411, 
        -0.01482862513512373, 
        -0.16090738773345947, 
        -0.04825534671545029, 
        0.01789773814380169, 
        -0.21623748540878296, 
        0.07180312275886536, 
        -0.29843491315841675, 
        0.2580900192260742, 
        0.13018445670604706, 
        -0.037179820239543915, 
        -0.23491650819778442, 
        -0.3343640863895416, 
        0.10005404055118561, 
        -0.018049821257591248, 
        -0.1871730238199234, 
        0.023737801238894463, 
        0.16007857024669647, 
        -0.40907323360443115, 
        0.06454647332429886, 
        0.12245623767375946, 
        -0.025433490052819252, 
        0.07972326129674911, 
        -0.059175197035074234, 
        -0.1051027849316597, 
        0.19048188626766205, 
        -0.027140889316797256, 
        -0.3148781657218933, 
        -0.023005003109574318, 
        -0.010665034875273705, 
        -0.14677271246910095, 
        0.09099516272544861, 
        -0.19959767162799835, 
        -0.22825932502746582, 
        0.05026739463210106, 
        -0.17924676835536957, 
        0.1135760173201561, 
        -0.28161221742630005, 
        -0.0767403170466423, 
        0.23743940889835358, 
        -0.13329900801181793, 
        -0.09909287095069885, 
        0.14463374018669128, 
        -0.02322874404489994, 
        0.031214911490678787, 
        -0.17832119762897491, 
        -0.17690302431583405, 
        0.007562408689409494, 
        -0.2112833857536316, 
        -0.050192419439554214, 
        -0.067009337246418, 
        0.09360060095787048, 
        0.1100558415055275, 
        -0.08852199465036392, 
        -0.07504519075155258, 
        -0.03564416617155075, 
        0.039165303111076355, 
        0.10505175590515137, 
        -0.1547236144542694, 
        -0.018339384347200394, 
        0.07414262741804123, 
        0.00692082941532135, 
        -0.35735464096069336, 
        0.0738874077796936, 
        0.08063546568155289, 
        0.04700930416584015, 
        -0.18286330997943878, 
        -0.10489711910486221, 
        -0.032228611409664154, 
        -0.2602808177471161, 
        -0.16755467653274536, 
        0.06297969818115234, 
        -0.10155310481786728, 
        -0.059754639863967896, 
        -0.021898038685321808, 
        -0.25239449739456177, 
        -0.20931768417358398, 
        -0.09038487821817398, 
        -0.32927653193473816, 
        -0.13048453629016876, 
        -0.24635937809944153, 
        0.1851576268672943, 
        -0.1988999992609024, 
        0.1553405374288559, 
        0.040694549679756165, 
        0.11605138331651688, 
        0.03456101939082146, 
        -0.21415625512599945, 
        0.11340011656284332, 
        0.020620672032237053, 
        -0.2292870134115219, 
        -0.1628045290708542, 
        -0.05097638815641403, 
        -0.05863110348582268, 
        0.14684514701366425, 
        -0.14714613556861877, 
        0.07375012338161469, 
        0.29403626918792725, 
        -0.3412988781929016, 
        0.15066155791282654, 
        0.21160416305065155, 
