{
  "input_sequences": [], 
  "inputs": [
    {
      "name": "node_0", 
      "variables": [
        {
          "name": "variable_0", 
          "offset": -6.468264661088239, 
          "scale": 2.547059912805884
        }, 
        {
          "name": "variable_1", 
          "offset": -0.24005876419197356, 
          "scale": 5.385043489953696
        }, 
        {
          "name": "variable_2", 
          "offset": -4.207736207507909, 
          "scale": 0.920105860339139
        }, 
        {
          "name": "variable_3", 
          "offset": -0.32681771933563236, 
          "scale": 4.494005474239541
        }, 
        {
          "name": "variable_4", 
          "offset": -1.2120931495946625, 
          "scale": 0.9863117864013426
        }, 
        {
          "name": "variable_5", 
          "offset": -0.9734642239132437, 
          "scale": 1.4186719492927842
        }, 
        {
          "name": "variable_6", 
          "offset": -91.10464925216876, 
          "scale": 0.01344074740451794
        }, 
        {
          "name": "variable_7", 
          "offset": -4.188526495174317, 
          "scale": 1.1260381515829956
        }, 
        {
          "name": "variable_8", 
          "offset": -0.005708591206818198, 
          "scale": 0.5211490349378606
        }, 
        {
          "name": "variable_9", 
          "offset": -705.0327298606838, 
          "scale": 0.0027287027471239148
        }, 
        {
          "name": "variable_10", 
          "offset": -125.07154075630665, 
          "scale": 0.012183731282822994
        }, 
        {
          "name": "variable_11", 
          "offset": -67.22062986971457, 
          "scale": 0.022145010032294337
        }, 
        {
          "name": "variable_12", 
          "offset": -0.0014012789551827618, 
          "scale": 0.4585691322913353
        }, 
        {
          "name": "variable_13", 
          "offset": 0.02711626044615221, 
          "scale": 0.3845991402159513
        }, 
        {
          "name": "variable_14", 
          "offset": 0.04175392445287922, 
          "scale": 0.5489238320085699
        }, 
        {
          "name": "variable_15", 
          "offset": 0.06259163597998886, 
          "scale": 0.5508402508600846
        }, 
        {
          "name": "variable_16", 
          "offset": -0.6380186395428251, 
          "scale": 2.836844384192357
        }, 
        {
          "name": "variable_17", 
          "offset": -0.5473267184656011, 
          "scale": 2.7323049859255493
        }
      ]
    }, 
    {
      "name": "node_1", 
      "variables": [
        {
          "name": "variable_0", 
          "offset": -123.64362948557086, 
          "scale": 0.17810599547473738
        }, 
        {
          "name": "variable_1", 
          "offset": -0.02113637444800848, 
          "scale": 88.98549288822781
        }, 
        {
          "name": "variable_2", 
          "offset": -2.614758524740462, 
          "scale": 0.7136393476719951
        }
      ]
    }
  ], 
  "layers": [
    {
      "activation": "rectified", 
      "architecture": "dense", 
      "bias": [
        -0.19633984565734863, 
        -0.12447573989629745, 
        -0.2758151590824127, 
        -0.2053334265947342, 
        -0.018107067793607712, 
        -0.1401759833097458, 
        0.04338813200592995, 
        -0.23937910795211792, 
        0.008415397256612778, 
        -0.1669442057609558, 
        -0.24282915890216827, 
        -0.16202861070632935, 
        -0.10384513437747955, 
        -0.1658594012260437, 
        -0.13212314248085022, 
        -0.17398598790168762, 
        -0.19868148863315582, 
        -0.1995518058538437, 
        -0.10833024233579636, 
        -0.1489991545677185, 
        -0.222849041223526, 
        -0.11664717644453049, 
        0.11168795078992844, 
        -0.41079089045524597, 
        0.06534847617149353, 
        0.006121779326349497, 
        -0.161366268992424, 
        -0.03370166942477226, 
        -0.22708138823509216, 
        0.04259172081947327, 
        -0.22604306042194366, 
        -0.13690871000289917, 
        -0.21280032396316528, 
        -0.20577488839626312, 
        -0.2710282802581787, 
        -0.08517559617757797, 
        -0.07124006003141403, 
        -0.04216504096984863, 
        -0.09369619190692902, 
        -0.010687877424061298, 
        -0.3477271497249603, 
        0.17901816964149475, 
        -0.25828027725219727, 
        -0.396813303232193, 
        0.012668700888752937, 
        0.0372234471142292, 
        0.003962271846830845, 
        -0.19694867730140686, 
        -0.1045784056186676, 
        -0.1875467300415039, 
        -0.2832954525947571, 
        -0.14221850037574768, 
        0.23293019831180573, 
        -0.08964920789003372, 
        -0.0035336080472916365, 
        -0.05607989802956581, 
        -0.06994977593421936, 
        -0.040268488228321075, 
        0.015550719574093819, 
        -0.027427924796938896, 
        -0.12281335145235062, 
        -0.29230567812919617, 
        -0.07876262068748474, 
        -0.16084103286266327, 
        -0.3224562704563141, 
        -0.32340800762176514, 
        0.20597632229328156, 
        -0.269041508436203, 
        -0.21303130686283112, 
        -0.07015463709831238, 
        -0.17369775474071503, 
        -0.06781282275915146, 
        -0.24003048241138458, 
        -0.005660886410623789, 
        0.08274727314710617, 
        0.087819904088974, 
        -0.3062868118286133, 
        -0.07258240878582001, 
        -0.0980604887008667, 
        -0.2782038748264313
      ], 
      "weights": [
        -0.1869589239358902, 
        -0.27812686562538147, 
        0.3600553274154663, 
        -0.38844034075737, 
        0.2527869939804077, 
        -0.35037556290626526, 
        -0.29827213287353516, 
        -0.3904626965522766, 
        0.14244401454925537, 
        -0.05341237410902977, 
        -0.055256426334381104, 
        0.44498690962791443, 
        -0.18806074559688568, 
        0.19082346558570862, 
        -0.14562775194644928, 
        0.49975746870040894, 
        0.2768426835536957, 
        0.22636310756206512, 
        0.3666117489337921, 
        -0.770785391330719, 
        -0.06605605781078339, 
        0.2931506633758545, 
        0.09927156567573547, 
        0.35851675271987915, 
        0.07713723927736282, 
        -0.09761466830968857, 
        -0.261615127325058, 
        -0.04747629165649414, 
        0.2551887631416321, 
        -0.10036762803792953, 
        0.23889485001564026, 
        0.06394874304533005, 
        -0.13479554653167725, 
        0.01797264628112316, 
        0.30041396617889404, 
        0.15836910903453827, 
        -0.4139835238456726, 
        0.3114154636859894, 
        0.2652952969074249, 
        0.061118196696043015, 
        -0.06468735635280609, 
        -0.017364267259836197, 
        0.03998182713985443, 
        -0.32920947670936584, 
        -0.07494503259658813, 
        0.30514582991600037, 
        0.07553746551275253, 
        -0.6265625953674316, 
        0.08235049992799759, 
        0.2580093741416931, 
        0.14330127835273743, 
        0.0560745932161808, 
        0.14243948459625244, 
        -0.04405352845788002, 
        0.007331548258662224, 
        -0.1380293369293213, 
        0.20297013223171234, 
        -0.2278003841638565, 
        -0.38765373826026917, 
        0.16807858645915985, 
        0.3596803545951843, 
        -0.10639576613903046, 
        -0.2312926948070526, 
        0.07143428921699524, 
        -0.20609188079833984, 
        0.028638871386647224, 
        -0.5667334198951721, 
        -0.3444606065750122, 
        -0.1967262178659439, 
        0.07845328748226166, 
        0.22495441138744354, 
        0.402382493019104, 
        -0.07196236401796341, 
        0.06664741784334183, 
        -0.33526739478111267, 
        -0.2593958377838135, 
        -0.04173842817544937, 
        -0.1762877106666565, 
        -0.390625536441803, 
        0.24149499833583832, 
        -0.1430852860212326, 
        -0.08855058252811432, 
        0.19244901835918427, 
        -0.13355529308319092, 
        0.08196345716714859, 
        0.048317451030015945, 
        -0.12317259609699249, 
        -0.27332067489624023, 
        0.18357837200164795, 
        -0.06880749762058258, 
        0.3265211582183838, 
        -0.3118739128112793, 
        0.10103342682123184, 
        -0.471748948097229, 
        -0.03835814818739891, 
        0.16515029966831207, 
        -0.032995905727148056, 
        -0.04396328330039978, 
        0.05773491784930229, 
        -0.1418464332818985, 
        -0.14715386927127838, 
        0.0700569897890091, 
        -0.12307210266590118, 
        -0.04488016292452812, 
        0.05848401412367821, 
        0.12307561933994293, 
        -0.15216057002544403, 
        -0.15102297067642212, 
        -0.4373515844345093, 
        0.17005854845046997, 
        -0.5054174065589905, 
        0.0751928985118866, 
        0.05173945426940918, 
        0.11739323288202286, 
        0.11517520993947983, 
        -0.6559851765632629, 
        -0.5514973402023315, 
        0.04398452118039131, 
        0.2916315793991089, 
        0.2799648940563202, 
        0.1527116745710373, 
        0.25566449761390686, 
        0.198711559176445, 
        0.2720232903957367, 
        -0.07011312991380692, 
        -0.127751424908638, 
        -0.4832491874694824, 
        0.5883146524429321, 
        0.4655224680900574, 
        0.4265057444572449, 
        0.03470642492175102, 
        0.1434963196516037, 
        -0.06737752258777618, 
        -0.13556823134422302, 
        -0.1965002566576004, 
        0.06433213502168655, 
        -0.12328986078500748, 
        -0.4933983385562897, 
        0.21109116077423096, 
        0.3191959261894226, 
        -0.006256329361349344, 
        0.12584874033927917, 
        -0.1652219146490097, 
        -0.0753011628985405, 
        -0.33373722434043884, 
        0.4547615349292755, 
        -0.12397386133670807, 
        0.7362993955612183, 
        0.005039459094405174, 
        0.15241292119026184, 
        -0.2976383566856384, 
        -0.4139704406261444, 
        -0.04923142492771149, 
        0.3833957612514496, 
        -0.011814938858151436, 
        0.5390909314155579, 
        -0.011062738485634327, 
        -0.017647933214902878, 
        0.11530520021915436, 
        0.3012852370738983, 
        -0.14169670641422272, 
        -0.013718392699956894, 
        0.17749656736850739, 
        0.40729936957359314, 
        0.17693592607975006, 
        -0.16967858374118805, 
        0.08058899641036987, 
        0.18290479481220245, 
        -0.288467139005661, 
        -0.01614903286099434, 
        -0.22864580154418945, 
        0.019945457577705383, 
        0.29727405309677124, 
        0.08224645256996155, 
        0.09926851838827133, 
        -0.12145214527845383, 
        -0.07365500181913376, 
        -0.13859283924102783, 
        0.19753755629062653, 
        0.0003156211460009217, 
        0.18491750955581665, 
        -0.14267577230930328, 
        0.14831073582172394, 
        -0.2999739646911621, 
        -0.027467571198940277, 
        0.1877245455980301, 
        -0.1609736531972885, 
        -0.08607341349124908, 
        -0.03981287404894829, 
        0.03215622901916504, 
        0.44777703285217285, 
        0.23739974200725555, 
        -0.0004856429004576057, 
        0.04202134534716606, 
        -0.19076108932495117, 
        -0.3189694583415985, 
        0.0647759810090065, 
        0.07683694362640381, 
        -0.18938815593719482, 
        0.08157528191804886, 
        0.24492666125297546, 
        -0.30842912197113037, 
        0.4181485176086426, 
        -0.0632796585559845, 
        -0.21021032333374023, 
        -0.4832765758037567, 
        0.16713890433311462, 
        -0.0974273830652237, 
        0.4844868779182434, 
        0.237929105758667, 
        -0.0889076516032219, 
        0.08409301936626434, 
        -0.24686330556869507, 
        -0.1606418639421463, 
        0.06727264821529388, 
        0.3239671289920807, 
        -0.1405492126941681, 
        0.13414624333381653, 
        0.37504175305366516, 
        0.7864698171615601, 
        0.38458797335624695, 
        -0.1957215964794159, 
        0.019216880202293396, 
        0.18937711417675018, 
        0.07546823471784592, 
        0.07109278440475464, 
        0.19720762968063354, 
        0.07361811399459839, 
        0.05020593851804733, 
        0.0925159603357315, 
        -0.1272367686033249, 
        0.04900246858596802, 
        -0.08341997861862183, 
        0.24614016711711884, 
        -0.30112260580062866, 
        -0.26022693514823914, 
        -0.02462787553668022, 
        0.00785477552562952, 
        0.16513819992542267, 
        0.09707090258598328, 
        0.021393312141299248, 
        -0.24095332622528076, 
        0.22701330482959747, 
        -0.33379197120666504, 
        -0.2786291539669037, 
        0.23115940392017365, 
        -0.13250058889389038, 
        -0.15569300949573517, 
        0.35747212171554565, 
        0.4456412196159363, 
        -0.20327305793762207, 
        0.25891003012657166, 
        -0.16913534700870514, 
        0.3208937644958496, 
        0.42546719312667847, 
        0.6410946846008301, 
        -0.016057932749390602, 
        -0.030441714450716972, 
        -0.018934622406959534, 
        -0.3348678648471832, 
        -0.23542125523090363, 
        -0.01129158865660429, 
        0.25004205107688904, 
        -0.3205093741416931, 
        -0.010185309685766697, 
        0.34380680322647095, 
        -0.10975722223520279, 
        -0.3460056185722351, 
        0.14159344136714935, 
        0.14215484261512756, 
        -0.11223434656858444, 
        -0.0010675059165805578, 
        -0.13315533101558685, 
        0.19716258347034454, 
        -0.35775646567344666, 
        0.11723025143146515, 
        -0.10974885523319244, 
        -0.4485194683074951, 
        -0.28187987208366394, 
        -0.012962699867784977, 
        0.6168980002403259, 
        0.038688018918037415, 
        -0.12384495139122009, 
        -0.18477509915828705, 
        0.02094350755214691, 
        0.06258153170347214, 
        0.21846425533294678, 
        0.2871774435043335, 
        -0.19271357357501984, 
        0.14266261458396912, 
        0.29187119007110596, 
        0.1894962042570114, 
        0.02332061529159546, 
        0.10192140936851501, 
        -0.26889464259147644, 
        0.34374096989631653, 
        0.4566654860973358, 
        -0.280160516500473, 
        0.4135705232620239, 
        -0.4163321554660797, 
        -0.22732765972614288, 
        -0.504498302936554, 
        -0.0248434916138649, 
        0.05593343451619148, 
        -0.06824856996536255, 
        -0.20729756355285645, 
        0.06538427621126175, 
        0.1273978352546692, 
        -0.28992724418640137, 
        -0.34404605627059937, 
        -0.21848614513874054, 
        -0.06999941915273666, 
        0.5510344505310059, 
        0.3374084234237671, 
        -0.6118338704109192, 
        0.07046464830636978, 
        -0.2809177339076996, 
        0.2128974199295044, 
        -0.128420889377594, 
        -0.22705112397670746, 
        0.1707030087709427, 
        -0.07898678630590439, 
        -0.20725129544734955, 
        0.20113874971866608, 
        0.011201792396605015, 
        -0.09110213816165924, 
        0.11227919906377792, 
        -0.0764613002538681, 
        0.2524016201496124, 
        0.22461536526679993, 
        -0.059120457619428635, 
        0.0035144109278917313, 
        0.08774356544017792, 
        -0.12332514673471451, 
        0.3975991904735565, 
        0.5278640985488892, 
        -0.25984451174736023, 
        0.08955807983875275, 
        0.30742147564888, 
        0.1660003960132599, 
        -0.14506404101848602, 
        0.2835811376571655, 
        0.18339361250400543, 
        -0.5530005693435669, 
        0.09618746489286423, 
        0.06431590765714645, 
        -0.26403871178627014, 
        0.3787674307823181, 
        0.30156978964805603, 
        0.07135363668203354, 
        -0.20547997951507568, 
        0.11233355104923248, 
        -0.15583927929401398, 
        -0.03102824278175831, 
        -0.30841755867004395, 
        0.08079864829778671, 
        -0.43817946314811707, 
        -0.17257355153560638, 
        0.3786071240901947, 
        -0.23451586067676544, 
        0.09934749454259872, 
        -0.32419493794441223, 
        0.5110762119293213, 
        0.3984778821468353, 
        0.1276634931564331, 
        0.3291458785533905, 
        0.19550767540931702, 
        -0.32175907492637634, 
        -0.09254965931177139, 
        -0.17592372000217438, 
        0.3269405961036682, 
        -0.17799147963523865, 
        -0.05236944928765297, 
        -0.05046391859650612, 
        0.3216944932937622, 
        0.21739277243614197, 
        -0.11158454418182373, 
        -0.011216379702091217, 
        -0.10574612021446228, 
        0.3479364216327667, 
        -0.19111202657222748, 
        -0.4237940311431885, 
        0.04273778200149536, 
        0.3117424249649048, 
        0.04651803523302078, 
        0.42061689496040344, 
        -0.14424900710582733, 
        0.07984490692615509, 
        0.08971812576055527, 
        -0.03023465722799301, 
        0.36833444237709045, 
        0.24418842792510986, 
        0.1749231517314911, 
        0.27171868085861206, 
        0.1371842920780182, 
        -0.24108454585075378, 
        0.1332164704799652, 
        0.4190250337123871, 
        -0.6997137665748596, 
        0.20046567916870117, 
        0.130696639418602, 
        0.20607306063175201, 
        0.09880634397268295, 
        0.10203488171100616, 
        0.27723559737205505, 
        0.2195606231689453, 
        -0.1330769956111908, 
        0.5318660140037537, 
        -0.05550296604633331, 
        -0.021557731553912163, 
        -0.10747560113668442, 
        -0.008221054449677467, 
        -0.06570978462696075, 
        0.027620144188404083, 
        0.0802028551697731, 
        -0.498248815536499, 
        0.2672702372074127, 
        -0.21941295266151428, 
        0.13114605844020844, 
        -0.012263880111277103, 
        -0.042613837867975235, 
        0.27204152941703796, 
        -0.10315859317779541, 
        -0.09672580659389496, 
        -0.40391454100608826, 
        0.16273412108421326, 
        -0.10990535467863083, 
        -0.08359485119581223, 
        -0.020948996767401695, 
        -0.18135590851306915, 
        -0.1246771365404129, 
        0.28221264481544495, 
        -0.253675639629364, 
        0.39601990580558777, 
        -0.04032741114497185, 
        0.1876133382320404, 
        0.3153170049190521, 
        -0.1845017373561859, 
        0.3887527287006378, 
        -0.21406598389148712, 
        -0.5060473084449768, 
        0.24793599545955658, 
        0.0641334280371666, 
        0.43167245388031006, 
        0.051035668700933456, 
        -0.0602438859641552, 
        -0.04147675633430481, 
        0.02616712637245655, 
        -0.1253558248281479, 
        -0.44864222407341003, 
        -0.3535934388637543, 
        0.2841833829879761, 
        -0.33636072278022766, 
        -0.38801321387290955, 
        0.3799169957637787, 
        -0.18299615383148193, 
        -0.3531434237957001, 
        0.35856005549430847, 
        0.17299966514110565, 
        -0.1571258008480072, 
        0.5300620198249817, 
        0.10515180230140686, 
        -0.031046658754348755, 
        -0.06854257732629776, 
        -0.023290259763598442, 
        -0.0626726895570755, 
        0.08135940134525299, 
        -0.011426716111600399, 
        0.058661725372076035, 
        0.3137187659740448, 
        -0.04276568070054054, 
        0.512661874294281, 
        0.10572289675474167, 
        -0.4475858807563782, 
        0.03911755606532097, 
        0.11966825276613235, 
        0.4690092206001282, 
        -0.17343662679195404, 
        0.05687406659126282, 
        -0.08583671599626541, 
        0.2180951088666916, 
        -0.37640678882598877, 
        0.14437814056873322, 
        -0.34710410237312317, 
        0.05350356921553612, 
        -0.23210026323795319, 
        -0.15480057895183563, 
        0.3562110364437103, 
        -0.16970281302928925, 
        0.49504539370536804, 
        -0.314395010471344, 
        0.048450447618961334, 
        -0.575641393661499, 
        -0.04363713040947914, 
        -0.28656184673309326, 
        -0.23645679652690887, 
        0.7310901880264282, 
        0.15469710528850555, 
        -0.23849664628505707, 
        0.29169249534606934, 
        -0.1970791518688202, 
        -0.33448758721351624, 
        -0.06346070766448975, 
        -0.1000770777463913, 
        -0.09644259512424469, 
        -0.5318685173988342, 
        -0.17450030148029327, 
        -0.15829765796661377, 
        -0.27724602818489075, 
        0.28548917174339294, 
        -0.03409106656908989, 
        -0.007401150185614824, 
        -0.2885807454586029, 
        0.3921278417110443, 
        0.12791667878627777, 
        -0.10553432255983353, 
        0.5272864103317261, 
        0.26042789220809937, 
        0.09610366821289062, 
        0.10767829418182373, 
        0.0028124540112912655, 
        0.18132245540618896, 
        0.11951381713151932, 
        0.5031774640083313, 
        -0.03374716639518738, 
        0.7120282649993896, 
        0.2729929983615875, 
        0.19723089039325714, 
        -0.30375194549560547, 
        -0.08730978518724442, 
        0.1465979963541031, 
        -0.39751243591308594, 
        0.17319785058498383, 
        -0.5230045318603516, 
        -0.08736046403646469, 
        0.08306809514760971, 
        -0.3008560240268707, 
        -0.06900631636381149, 
        0.0768352746963501, 
        -0.12565229833126068, 
        0.19150327146053314, 
        0.2829429507255554, 
        0.33155637979507446, 
        -0.39696004986763, 
        -0.4804208278656006, 
        -0.15925051271915436, 
        0.2803272008895874, 
        0.28536874055862427, 
        -0.2454162836074829, 
        -0.01607864908874035, 
        -0.3347584009170532, 
        0.13020971417427063, 
        0.2644006013870239, 
        0.05738202482461929, 
        -0.010458759032189846, 
        0.16440030932426453, 
        0.3433370590209961, 
        -0.10511954873800278, 
        -0.09622117131948471, 
        0.15988080203533173, 
        0.19598111510276794, 
        -0.22592851519584656, 
        0.11008014529943466, 
        -0.13468199968338013, 
        -0.22264057397842407, 
        -0.20480723679065704, 
        -0.14983950555324554, 
        -0.16075505316257477, 
        0.34850528836250305, 
        -0.5938594937324524, 
        0.20323799550533295, 
        0.33420485258102417, 
        0.18628524243831635, 
        0.00975040253251791, 
        -0.25232914090156555, 
        -0.04993709921836853, 
        0.4427337646484375, 
        -0.5959095358848572, 
        -0.1638408899307251, 
        -0.12846046686172485, 
        0.06481620669364929, 
        0.05670179799199104, 
        -0.2884421646595001, 
        0.1301487237215042, 
        -0.27317771315574646, 
        -0.16294223070144653, 
        -0.1500641405582428, 
        0.23341888189315796, 
        0.2509373128414154, 
        0.02194177731871605, 
        -0.07307697832584381, 
        0.1309983730316162, 
        -0.08567287027835846, 
        0.15498460829257965, 
        0.3369249701499939, 
        -0.3023231625556946, 
        0.02997586876153946, 
        0.28319957852363586, 
        -0.15810859203338623, 
        0.1780194640159607, 
        0.3819836676120758, 
        0.03830767422914505, 
        -0.10444358736276627, 
        -0.4350818693637848, 
        -0.41029369831085205, 
        0.3257503807544708, 
        -0.4322415292263031, 
        -0.25830838084220886, 
        0.022953281179070473, 
        -0.04090048000216484, 
        0.05634415149688721, 
        0.09736970067024231, 
        0.32456910610198975, 
        0.07844921201467514, 
        0.30882513523101807, 
        -0.3626972734928131, 
        -0.16743075847625732, 
        -0.18868358433246613, 
        -0.12568505108356476, 
        -0.1279430389404297, 
        -0.14214162528514862, 
        -0.023315513506531715, 
        0.17613519728183746, 
        0.05369700491428375, 
        -0.07256140559911728, 
        -0.2388746440410614, 
        0.04100058600306511, 
        -0.21781717240810394, 
        -0.16927474737167358, 
        -0.2753170132637024, 
        -0.2703227400779724, 
        0.7229443192481995, 
        -0.024429675191640854, 
        -0.05155270919203758, 
        -0.03275848180055618, 
        0.2020549178123474, 
        0.04478603973984718, 
        -0.03770149126648903, 
        0.044525355100631714, 
        0.2405293732881546, 
        -0.30054083466529846, 
        0.012843113392591476, 
        -0.20352986454963684, 
        -0.27058207988739014, 
        0.10022392868995667, 
        0.03348498418927193, 
        0.21353907883167267, 
        -0.20187486708164215, 
        -0.20168280601501465, 
        0.2192075401544571, 
        0.4724338948726654, 
        0.5198862552642822, 
        -0.0568876639008522, 
        -0.06639312207698822, 
        -0.42103713750839233, 
        0.001765244989655912, 
        0.05139594152569771, 
        0.0887020081281662, 
        0.43520045280456543, 
        0.0749804750084877, 
        0.09042493253946304, 
        0.0405750498175621, 
        -0.12393130362033844, 
        -0.0905061885714531, 
        0.11513520777225494, 
        0.3961324393749237, 
        -0.3044244050979614, 
        -0.246483713388443, 
        -0.11683769524097443, 
        -0.017736295238137245, 
        0.1435859203338623, 
        -0.2860705554485321, 
        -0.44478464126586914, 
        0.23613780736923218, 
        -0.3300098180770874, 
        0.19254712760448456, 
        0.2250811606645584, 
        0.4440665543079376, 
        0.2217700034379959, 
        0.09219647943973541, 
        -0.22979603707790375, 
        -0.253263920545578, 
        -0.21207106113433838, 
        0.04560503736138344, 
        0.20706166326999664, 
        0.43928754329681396, 
        0.2503640353679657, 
        1.1000100374221802, 
        0.256155401468277, 
        -0.12174337357282639, 
        -0.07362346351146698, 
        0.033029332756996155, 
        -0.2201186865568161, 
        -0.1648656576871872, 
        0.020861171185970306, 
        0.06361652165651321, 
        -0.05239308252930641, 
        -0.02699165791273117, 
        -0.1084410771727562, 
        -0.018079882487654686, 
        0.29159581661224365, 
        -0.019546085968613625, 
        -0.5191869139671326, 
        0.06649405509233475, 
        -0.14838911592960358, 
        0.3531215190887451, 
        0.26745545864105225, 
        0.0384262353181839, 
        0.12874118983745575, 
        -0.3196680545806885, 
        0.09133706986904144, 
        -0.21250613033771515, 
        0.3103128671646118, 
        -0.5529776215553284, 
        -0.001547840889543295, 
        -0.14736121892929077, 
        0.19138391315937042, 
        0.3357192575931549, 
        0.08016466349363327, 
        -0.0771787092089653, 
        0.08531513065099716, 
        0.2071569412946701, 
        0.2587561309337616, 
        -0.11879786103963852, 
        -0.0467885360121727, 
        -0.25548917055130005, 
        0.04150042682886124, 
        0.5116263628005981, 
        0.2732885181903839, 
        -0.1373256891965866, 
        -0.31827980279922485, 
        0.2366231083869934, 
        -0.37971749901771545, 
        0.11962584406137466, 
        -0.03092067502439022, 
        -0.037689100950956345, 
        0.11140330880880356, 
        -0.33961495757102966, 
        -0.25287967920303345, 
        0.411237895488739, 
        0.08501555025577545, 
        -0.2529672682285309, 
        0.30241888761520386, 
        -0.4659375250339508, 
        -0.19639484584331512, 
        0.2504785358905792, 
        -0.039295878261327744, 
        -0.19093464314937592, 
        0.5707396864891052, 
        0.3020753860473633, 
        -0.03677462413907051, 
        0.3419235944747925, 
        -0.08608953654766083, 
        0.11522053927183151, 
        -0.10997933894395828, 
        -0.025183171033859253, 
        0.30522578954696655, 
        -0.2419210970401764, 
        -0.12495435029268265, 
        -0.2525849938392639, 
        -0.26838305592536926, 
        -0.08686664700508118, 
        0.148647740483284, 
        -0.2727225124835968, 
        0.007276920601725578, 
        -0.08752792328596115, 
        -0.39049503207206726, 
        0.057107627391815186, 
        -0.26293227076530457, 
        -0.0711580440402031, 
        -0.03759771212935448, 
        0.11373426020145416, 
        0.21246199309825897, 
        0.163731187582016, 
        0.18216632306575775, 
        -0.6554376482963562, 
        0.10355986654758453, 
        0.10854185372591019, 
        -0.48534703254699707, 
        -0.24659214913845062, 
        0.184525266289711, 
        -0.30491846799850464, 
        -0.026908541098237038, 
        -0.009215889498591423, 
        0.01647689938545227, 
        0.317963570356369, 
        -0.24405454099178314, 
        -0.04253555089235306, 
        -0.17573611438274384, 
        0.04584811255335808, 
        -0.21649713814258575, 
        0.0034752697683870792, 
        0.10986069589853287, 
        0.3649025857448578, 
        0.08562302589416504, 
        0.1982651650905609, 
        0.1973164677619934, 
        -0.3916075825691223, 
        0.019299639388918877, 
        -0.05323249474167824, 
        0.4207666516304016, 
        -0.09979190677404404, 
        0.1710095852613449, 
        0.34623828530311584, 
        -0.012083375826478004, 
        -0.25053226947784424, 
        0.08184017986059189, 
        -0.21121539175510406, 
        0.053401507437229156, 
        -0.3795236051082611, 
        0.01906854473054409, 
        0.3314126431941986, 
        -0.4829789400100708, 
        0.3106604516506195, 
        0.2334827333688736, 
        0.2896295189857483, 
        -0.08623015880584717, 
        -0.3523649275302887, 
        0.3418203592300415, 
        -0.3032941222190857, 
        0.16914553940296173, 
        0.312898188829422, 
        -0.2727751135826111, 
        -0.05785287544131279, 
        0.2823798358440399, 
        0.06531533598899841, 
        -0.29432862997055054, 
        -0.026515811681747437, 
        -0.4816027581691742, 
        0.5219386219978333, 
        0.13355214893817902, 
        -0.05398319661617279, 
        0.021328305825591087, 
        0.07952773571014404, 
        -0.16757209599018097, 
        0.40124011039733887, 
        -0.46964335441589355, 
        0.08980254083871841, 
        0.23844057321548462, 
        0.005856071598827839, 
        0.08181242644786835, 
        0.462603896856308, 
        0.03335151821374893, 
        0.05638517811894417, 
        0.09409594535827637, 
        -0.15172968804836273, 
        0.268298864364624, 
        -0.6151540875434875, 
        -0.08121182769536972, 
        -0.14510579407215118, 
        -0.28327465057373047, 
        -0.07964325696229935, 
        -0.08675868064165115, 
        0.07253952324390411, 
        -0.2131665199995041, 
        0.2711033225059509, 
        -0.07029522210359573, 
        -0.021594533696770668, 
        0.41576236486434937, 
        0.054576605558395386, 
        0.025842083618044853, 
        -0.07180905342102051, 
        0.01125849038362503, 
        0.005005607847124338, 
        -0.6519396901130676, 
        0.2233220785856247, 
        -0.044892631471157074, 
        0.22170953452587128, 
        -0.036636512726545334, 
        0.20108892023563385, 
        0.06107992306351662, 
        -0.3885939419269562, 
        -0.014006022363901138, 
        -0.1490396410226822, 
        0.3959895074367523, 
        -0.5836102366447449, 
        -0.1683954894542694, 
        -0.1715034395456314, 
        -0.2714640200138092, 
        0.04808575659990311, 
        -0.16313235461711884, 
        -0.160557821393013, 
        0.06602469831705093, 
        -0.4908025562763214, 
        0.11577143520116806, 
        0.1923280954360962, 
        -0.1085803434252739, 
        -0.06444067507982254, 
        0.40044108033180237, 
        -0.21971863508224487, 
        0.3492267429828644, 
        -0.08868823200464249, 
        -0.671344518661499, 
        0.26865240931510925, 
        -0.16719572246074677, 
        -0.06695450842380524, 
        0.1311495006084442, 
        0.15736344456672668, 
        -0.11437513679265976, 
        0.003536842530593276, 
        -0.25454139709472656, 
        0.3600119650363922, 
        -0.30509811639785767, 
        -0.24059239029884338, 
        0.022542070597410202, 
        0.3036855161190033, 
        0.39080679416656494, 
        0.4853684604167938, 
        -0.2150326818227768, 
        0.3094145357608795, 
        -0.007903874851763248, 
        -0.0013988137943670154, 
        0.31430867314338684, 
        -0.13219229876995087, 
        -0.1471593677997589, 
        0.005087381228804588, 
        -0.26890674233436584, 
        -0.25692665576934814, 
        -0.365369975566864, 
        -0.12203756719827652, 
        -0.03429628163576126, 
        -0.27638009190559387, 
        -0.3654305636882782, 
        0.1750100702047348, 
        0.04626145958900452, 
        -0.3274639844894409, 
        0.0535518117249012, 
        0.375404953956604, 
        -0.2520958483219147, 
        -0.26436328887939453, 
        -0.17361199855804443, 
        -0.3027590811252594, 
        0.05671006441116333, 
        0.28967729210853577, 
        0.010412788018584251, 
        0.35573551058769226, 
        -0.3246670365333557, 
        0.5851476192474365, 
        -0.41326501965522766, 
        0.2215280532836914, 
        0.24441926181316376, 
        -0.13192716240882874, 
        0.062359824776649475, 
        0.1458391547203064, 
        0.2438736855983734, 
        0.19674384593963623, 
        -0.04569484293460846, 
        0.3946007490158081, 
        -0.1526777297258377, 
        -0.06707340478897095, 
        -0.04875524714589119, 
        0.2525317072868347, 
        -0.1725330650806427, 
        -0.15764619410037994, 
        -0.0785517767071724, 
        -0.38306498527526855, 
        -0.1182081326842308, 
        0.09561652690172195, 
        -0.09694457054138184, 
        0.3591185212135315, 
        -0.022534718737006187, 
        0.19437964260578156, 
        0.33949053287506104, 
        -0.06268882751464844, 
        -0.21319881081581116, 
        -0.20023216307163239, 
        -0.47404471039772034, 
        -0.27056998014450073, 
        0.03195849806070328, 
        0.2316148430109024, 
        0.36700496077537537, 
        -0.06536155939102173, 
        -0.05777166783809662, 
        0.40970972180366516, 
        -0.3946697413921356, 
        -0.2686713635921478, 
        0.3353809416294098, 
        0.24443022906780243, 
        0.011371013708412647, 
        -0.27114811539649963, 
        -0.15935657918453217, 
        -0.1515410989522934, 
        0.1891319453716278, 
        0.5567958950996399, 
        0.08338668942451477, 
        -0.20892877876758575, 
        -0.006183705758303404, 
        -0.021458232775330544, 
        -0.27358680963516235, 
        -0.005660852883011103, 
        -0.14541852474212646, 
        -0.0668427124619484, 
        0.1433679610490799, 
        0.5609109997749329, 
        0.5117478966712952, 
        0.006230976432561874, 
        -0.5222214460372925, 
        0.016664128750562668, 
        -0.21329762041568756, 
        -0.31660816073417664, 
        0.4337156116962433, 
        0.5965502858161926, 
        0.04954357072710991, 
        -0.28656288981437683, 
        -0.04854610934853554, 
        -0.09567292779684067, 
        -0.11944083869457245, 
        0.381981760263443, 
        0.15538789331912994, 
        0.29516175389289856, 
        -0.09247875213623047, 
        0.17451578378677368, 
        0.3362599313259125, 
        0.06710468977689743, 
        0.19570471346378326, 
        0.012500484474003315, 
        0.2611556947231293, 
        -0.4710232615470886, 
        0.20045851171016693, 
        -0.16779138147830963, 
        0.02063005045056343, 
        -0.47463780641555786, 
        0.11424795538187027, 
        -0.39533308148384094, 
        -0.14179547131061554, 
        -0.18548476696014404, 
        -0.1699168086051941, 
        0.5066330432891846, 
        0.3887721002101898, 
        0.7388396859169006, 
        -0.03134253993630409, 
        0.14999176561832428, 
        -0.21835114061832428, 
        -0.009164354763925076, 
        -0.026176733896136284, 
        0.001993739977478981, 
        0.331788033246994, 
        -0.528778612613678, 
        -0.12751446664333344, 
        -0.23288583755493164, 
        0.004999610595405102, 
        0.055336762219667435, 
        0.007269589230418205, 
        -0.02060834877192974, 
        -0.18732137978076935, 
        -0.1722509115934372, 
        -0.3586740493774414, 
        -0.11465179175138474, 
        0.1457938700914383, 
        -0.1383509635925293, 
        -0.5134965181350708, 
        0.22933894395828247, 
        -0.11657577753067017, 
        0.17497214674949646, 
        0.7262202501296997, 
        0.5714110732078552, 
        0.01654679886996746, 
        -0.014088967815041542, 
        0.01864883117377758, 
        -0.2219753861427307, 
        0.26735255122184753, 
        -0.1729983389377594, 
        0.11761520057916641, 
        0.3837023377418518, 
        -0.04853091761469841, 
        0.766891598701477, 
        0.35778987407684326, 
        -0.19309096038341522, 
        -0.05148636922240257, 
        0.38538917899131775, 
        -0.5704441666603088, 
        -0.21227893233299255, 
        0.24396096169948578, 
        0.038992490619421005, 
        -0.19624388217926025, 
        0.02780880033969879, 
        0.11995632946491241, 
        0.1439456194639206, 
        0.09728052467107773, 
        -0.3671821355819702, 
        0.30162468552589417, 
        -0.6063631176948547, 
        -0.2507670819759369, 
        -0.19497524201869965, 
        -0.06433068960905075, 
        0.15480417013168335, 
        -0.22244490683078766, 
        -0.27911922335624695, 
        0.09982331097126007, 
        0.06143346056342125, 
        0.26257672905921936, 
        0.10517594963312149, 
        0.5637181401252747, 
        0.31314224004745483, 
        0.07023932784795761, 
        -0.037626925855875015, 
        0.2266411930322647, 
        0.32924243807792664, 
        0.053958650678396225, 
        0.6113319993019104, 
        0.009221823886036873, 
        0.3133641183376312, 
        -0.017972182482481003, 
        -0.043536972254514694, 
        0.28803035616874695, 
        -0.43681851029396057, 
        0.05325263366103172, 
        0.0020860789809376, 
        -0.43662500381469727, 
        -0.3965197205543518, 
        0.002066671382635832, 
        0.03202986344695091, 
        -0.10310987383127213, 
        -0.16658669710159302, 
        -0.13911046087741852, 
        0.0003594575682654977, 
        -0.14704234898090363, 
        0.425191193819046, 
        0.3739354610443115, 
        0.43333324790000916, 
        -0.19634544849395752, 
        -0.05429314821958542, 
        0.1182442232966423, 
        0.044644784182310104, 
        -0.2037709802389145, 
        -0.10921593010425568, 
        0.11093459278345108, 
        -0.5632273554801941, 
        0.3109961152076721, 
        0.10199923813343048, 
        -0.0721990093588829, 
        -0.04588581621646881, 
        0.03695715218782425, 
        -0.005268264561891556, 
        0.14910821616649628, 
        -0.19483979046344757, 
        -0.3275489807128906, 
        -0.32439708709716797, 
        -0.33468183875083923, 
        -0.01144211832433939, 
        0.31727176904678345, 
        -0.005252235569059849, 
        -0.12519852817058563, 
        0.06617213785648346, 
        -0.5774514079093933, 
        -0.00938367284834385, 
        0.2295234203338623, 
        -0.02835730090737343, 
        -0.21152925491333008, 
        -0.019524332135915756, 
        0.08678555488586426, 
        -0.21566928923130035, 
        -0.2617054879665375, 
        0.22457626461982727, 
        0.24666085839271545, 
        0.06523997336626053, 
        0.1027076467871666, 
        -0.2776314318180084, 
        -0.29513153433799744, 
        0.22802512347698212, 
        -0.3043496310710907, 
        -0.39917615056037903, 
        0.3868727385997772, 
        -0.47465023398399353, 
        0.18774594366550446, 
        -0.24789218604564667, 
        -0.2071305811405182, 
        0.06358841806650162, 
        0.04029753431677818, 
        -0.05663037672638893, 
        0.246693417429924, 
        -0.3466872274875641, 
        0.1676095724105835, 
        -0.10491324216127396, 
        0.08792287111282349, 
        0.03820737078785896, 
        0.21648001670837402, 
        0.030432408675551414, 
        -0.030165156349539757, 
        -0.2158336639404297, 
        -0.28305989503860474, 
        0.1241128221154213, 
        0.3835785984992981, 
        0.28516754508018494, 
        -0.057155825197696686, 
        -0.041138868778944016, 
        0.007558829616755247, 
        0.0938795804977417, 
        0.12949234247207642, 
        0.44917380809783936, 
        -0.34632641077041626, 
        0.6117268800735474, 
        0.32788553833961487, 
        -0.12730178236961365, 
        -0.14846497774124146, 
        0.1991346776485443, 
        -0.018721450120210648, 
        -0.06422509253025055, 
        0.24308624863624573, 
        0.41392749547958374, 
        0.12890304625034332, 
        -0.21339574456214905, 
        0.10659761726856232, 
        0.12865391373634338, 
        0.2982896864414215, 
        0.23443996906280518, 
        -0.16103577613830566, 
        0.2880041301250458, 
        0.21607302129268646, 
        -0.04889383167028427, 
        0.07654467225074768, 
        0.051117002964019775, 
        0.4967342019081116, 
        0.38153424859046936, 
        0.02138010412454605, 
        0.07378403842449188, 
        -0.22299730777740479, 
        0.3278065323829651, 
        -0.3345503509044647, 
        -0.30276644229888916, 
        -0.034263964742422104, 
        0.19768095016479492, 
        -0.05188347026705742, 
        -0.23726195096969604, 
        0.2269188016653061, 
        0.21155290305614471, 
        0.07254661619663239, 
        0.07350273430347443, 
        -0.1954130083322525, 
        -0.07501990348100662, 
        -0.0828004777431488, 
        0.10969431698322296, 
        -0.21428419649600983, 
        0.10621865838766098, 
        -0.4369944632053375, 
        0.14031089842319489, 
        -0.16011078655719757, 
        -0.4649427831172943, 
        -0.16690146923065186, 
        -0.33586880564689636, 
        0.0876946970820427, 
        -0.27533480525016785, 
        0.45027637481689453, 
        -0.4504537284374237, 
        -0.009694465436041355, 
        -0.5062601566314697, 
        -0.19719354808330536, 
        -0.3124052584171295, 
        0.03365137800574303, 
        -0.28662869334220886, 
        0.143338143825531, 
        -0.2703187167644501, 
        0.11100805550813675, 
        0.419756680727005, 
        -0.28300654888153076, 
        0.12578412890434265, 
        -0.01903977245092392, 
        0.0339941531419754, 
        0.24814444780349731, 
        -0.185675248503685, 
        0.3761722147464752, 
        -0.643038272857666, 
        -0.49116238951683044, 
        -0.04870086908340454, 
        -0.05450023338198662, 
        -0.2172839194536209, 
        -0.3890227973461151, 
        0.09918618947267532, 
        -0.2984771728515625, 
        0.013459405861794949, 
        -0.2388976663351059, 
        0.0493726022541523, 
        -0.11245608329772949, 
        -0.20573580265045166, 
        -0.1523999273777008, 
        0.16368341445922852, 
        -0.2336982637643814, 
        -0.1357448399066925, 
        0.07092571258544922, 
        0.46736523509025574, 
        -0.3350136876106262, 
        0.44545871019363403, 
        0.12993165850639343, 
        -0.22437193989753723, 
        0.04867183044552803, 
        -0.04328562691807747, 
        0.30224451422691345, 
        -0.08623524010181427, 
        0.0921991765499115, 
        0.7866984009742737, 
        -0.1964302659034729, 
        -0.19315725564956665, 
        -0.0648995190858841, 
        -0.2779896557331085, 
        -0.22104918956756592, 
        0.11807354539632797, 
        -0.056429967284202576, 
        -0.40079185366630554, 
        0.08900845795869827, 
        -0.27832573652267456, 
        -0.20556311309337616, 
        0.2132038176059723, 
        -0.1833048313856125, 
        0.4713476002216339, 
        0.533149778842926, 
        0.13075539469718933, 
        0.2519627511501312, 
        0.2382977306842804, 
        -0.3745937645435333, 
        -0.0830213874578476, 
        0.07859092950820923, 
        -0.20578373968601227, 
        -0.06423836201429367, 
        0.27406400442123413, 
        0.042725563049316406, 
        -0.25219881534576416, 
        0.04484061524271965, 
        -0.006229508202522993, 
        0.30878254771232605, 
        -0.25114738941192627, 
        0.15991203486919403, 
        0.23044055700302124, 
        -0.4139500856399536, 
        0.2943130433559418, 
        -0.24700282514095306, 
        0.09790094941854477, 
        -0.22120265662670135, 
        0.2082899659872055, 
        0.10886120796203613, 
        -0.03255268558859825, 
        0.1813250184059143, 
        -0.24369943141937256, 
        -0.11609722673892975, 
        0.4552314579486847, 
        -0.2617863416671753, 
        -0.32841330766677856, 
        0.34546828269958496, 
        -0.06925663352012634, 
        -0.2493632733821869, 
        -0.09617839753627777, 
        0.4150531589984894, 
        0.3194369077682495, 
        0.2692222595214844, 
        0.39468517899513245, 
        -0.03979075700044632, 
        -0.2224586009979248, 
        -0.36721545457839966, 
        -0.09722760319709778, 
        -0.06859546899795532, 
        0.17181582748889923, 
        -0.1216510683298111, 
        0.6314588785171509, 
        0.17841099202632904, 
        0.5333579778671265, 
        -0.025159314274787903, 
        0.1841936558485031, 
        -0.2158001959323883, 
        0.3400455117225647, 
        0.5315160751342773, 
        -0.20338092744350433, 
        0.2205285131931305, 
        0.2359914928674698, 
        0.17923679947853088, 
        -0.41611984372138977, 
        -0.095000721514225, 
        0.17428533732891083, 
        -0.07943789660930634, 
        -0.23027092218399048, 
        0.1162133440375328, 
        -0.4453293979167938, 
        -0.22429729998111725, 
        0.06042468920350075, 
        -0.27830037474632263, 
        0.0225167628377676, 
        0.0011671400861814618, 
        -0.05416567623615265, 
        -0.03515925630927086, 
        0.016655009239912033, 
        -0.4130810499191284, 
        0.12933117151260376, 
        0.4202495217323303, 
        0.25244247913360596, 
        0.15968312323093414, 
        0.06377570331096649, 
        -0.12008469551801682, 
        0.05319308862090111, 
        -0.21462464332580566, 
        0.5838993191719055, 
        -0.27862998843193054, 
        0.6379053592681885, 
        -0.1357252150774002, 
        -0.09390170127153397, 
        -0.4443891644477844, 
        -0.09496914595365524, 
        -0.07358655333518982, 
        0.29879647493362427, 
        0.2393253743648529, 
        0.5214733481407166, 
        0.029570341110229492, 
        0.044577158987522125, 
        -0.17072369158267975, 
        -0.2290017008781433, 
        0.045160531997680664, 
        0.10712017863988876, 
        -0.008441942743957043, 
        -0.4443836510181427, 
        0.12050486356019974, 
        0.343350350856781, 
        0.10809306800365448, 
        0.22694087028503418, 
        -0.28988832235336304, 
        -0.464781790971756, 
        0.115075021982193, 
        0.18131279945373535, 
        0.3730512857437134, 
        0.15105171501636505, 
        0.4020955562591553, 
        0.561279296875, 
        0.22779972851276398, 
        0.09969139099121094, 
        -0.009435178712010384, 
        -0.23190779983997345, 
        -0.19471745193004608, 
        -0.17880479991436005, 
        -0.19171704351902008, 
        0.026546640321612358, 
        -0.297176718711853, 
        0.033764272928237915, 
        0.22443917393684387, 
        -0.018564390018582344, 
        0.21937721967697144, 
        0.4040706157684326, 
        -0.267417848110199, 
        0.10061632096767426, 
        0.3461023271083832, 
        0.3663631081581116, 
        -0.02580343373119831, 
        -0.27146220207214355, 
        -0.023447422310709953, 
        0.1017138883471489
      ]
    }, 
    {
      "activation": "rectified", 
      "architecture": "dense", 
      "bias": [
        0.054290495812892914, 
        -0.06399055570363998, 
        0.026521751657128334, 
        0.1173270121216774, 
        -0.06446123123168945, 
        -0.07003668695688248, 
        -0.14308738708496094, 
        0.002622887957841158, 
        0.04121803492307663, 
        0.0833824947476387, 
        0.14155682921409607, 
        0.03668581321835518, 
        0.01441656518727541, 
        0.06159461662173271, 
        -0.1441088765859604, 
        0.014002262614667416, 
        0.0075821299105882645, 
        0.038326747715473175, 
        0.030897527933120728, 
        -0.056075502187013626, 
        0.044909823685884476, 
        0.05646370351314545, 
        0.0775466337800026, 
        0.027163544669747353, 
        -0.021617205813527107, 
        -0.12566687166690826, 
        0.015572010539472103, 
        0.038981325924396515, 
        -0.015506965108215809, 
        0.045524224638938904, 
        -0.0529891774058342, 
        -0.011432219296693802, 
        0.036431506276130676, 
        0.011998439207673073, 
        -0.016618186607956886, 
        -0.03617432713508606, 
        -0.05550863593816757, 
        -0.12204250693321228, 
        -0.04236716404557228, 
        -0.03154466673731804, 
        0.07205583155155182, 
        0.05487925931811333, 
        0.05042506009340286, 
        0.04989488422870636, 
        0.024503445252776146, 
        0.07609157264232635, 
        0.06857004016637802, 
        0.042828768491744995, 
        -0.04871324449777603, 
        0.036668870598077774, 
        -0.024421460926532745, 
        0.12499064207077026, 
        -0.30152660608291626, 
        -0.08228955417871475, 
        -0.030687240883708, 
        0.015739182010293007, 
        0.036681655794382095, 
        0.15130050480365753, 
        0.0212887991219759, 
        -0.0684189647436142
      ], 
      "weights": [
        -0.22053341567516327, 
        0.04163398966193199, 
        -0.1715996265411377, 
        -0.21579356491565704, 
        -0.07642070949077606, 
        -0.12951219081878662, 
        0.35860922932624817, 
        -0.17845390737056732, 
        0.012302237562835217, 
        -0.0748019888997078, 
        -0.03219746798276901, 
        0.16588068008422852, 
        0.14144998788833618, 
        -0.2470863163471222, 
        -0.0545482337474823, 
        0.035780880600214005, 
        -0.020601296797394753, 
        -0.01922997087240219, 
        0.008511903695762157, 
        -0.15523281693458557, 
        -0.15398119390010834, 
        -0.09515059739351273, 
        0.014517594128847122, 
        0.1477649062871933, 
        0.2130052000284195, 
        -0.150641068816185, 
        -0.21306706964969635, 
        -0.14295169711112976, 
        -0.05758625268936157, 
        0.013101917691528797, 
        -0.31804171204566956, 
        0.00019841967150568962, 
        0.01641017198562622, 
        -0.25116491317749023, 
        -0.20111140608787537, 
        -0.10845299065113068, 
        0.11431391537189484, 
        0.06067166104912758, 
        0.20942361652851105, 
        -0.33722707629203796, 
        0.17720924317836761, 
        -0.0032060907687991858, 
        -0.19233961403369904, 
        -0.22637009620666504, 
        0.1127568930387497, 
        0.20081451535224915, 
        -0.1330529898405075, 
        -0.08519483357667923, 
        0.2464105486869812, 
        -0.37397530674934387, 
        -0.2118714153766632, 
        -0.18003332614898682, 
        0.09617838263511658, 
        -0.5371471643447876, 
        -0.1396026909351349, 
        0.1523396372795105, 
        0.2132798582315445, 
        0.26297396421432495, 
        -0.035536326467990875, 
        0.18796969950199127, 
        0.07215946167707443, 
        -0.16313990950584412, 
        -0.25374341011047363, 
        -0.22299699485301971, 
        -0.2474198192358017, 
        0.049765609204769135, 
        0.0692848190665245, 
        -0.017618020996451378, 
        -0.17494681477546692, 
        -0.16490522027015686, 
        -0.4246596693992615, 
        0.04613142088055611, 
        0.09026238322257996, 
        -0.015423191711306572, 
        0.14730320870876312, 
        -0.06863914430141449, 
        -0.3415113389492035, 
        0.021852096542716026, 
        -0.34222590923309326, 
        -0.20040860772132874, 
        0.02825266122817993, 
        0.08347037434577942, 
        0.09893891960382462, 
        -0.12634067237377167, 
        0.08983387798070908, 
        0.009160940535366535, 
        -0.2293236255645752, 
        0.01708558201789856, 
        -0.2579908072948456, 
        0.05170733481645584, 
        -0.017164992168545723, 
        0.2162177711725235, 
        -0.15081901848316193, 
        -0.24047264456748962, 
        -0.12664924561977386, 
        -0.19125761091709137, 
        0.06681264936923981, 
        -0.21831278502941132, 
        0.04186398163437843, 
        0.06371895968914032, 
        -0.3512316346168518, 
        0.11390732228755951, 
        0.007793087046593428, 
        -0.037621431052684784, 
        -0.22661705315113068, 
        0.27641761302948, 
        -0.08170080929994583, 
        0.05855828896164894, 
        -0.14654886722564697, 
        0.14344461262226105, 
        0.3247128427028656, 
        -0.24764123558998108, 
        -0.20827308297157288, 
        0.20614157617092133, 
        -0.1057707890868187, 
        0.14339865744113922, 
        -0.07166554778814316, 
        -0.3094221353530884, 
        -0.12831759452819824, 
        -0.32401302456855774, 
        0.1520037055015564, 
        0.17192411422729492, 
        -0.10596617311239243, 
        -0.014593406580388546, 
        -0.023004231974482536, 
        -0.029325922951102257, 
        0.10043205320835114, 
        -0.2834737300872803, 
        -0.0476672537624836, 
        0.002755970461294055, 
        -0.10296586155891418, 
        -0.13794013857841492, 
        -0.10799000412225723, 
        0.118991918861866, 
        -0.17244169116020203, 
        -0.03389935567975044, 
        -0.029468556866049767, 
        0.07881224155426025, 
        -0.03390116989612579, 
        -0.13099168241024017, 
        0.16687552630901337, 
        0.09967772662639618, 
        -0.12309539318084717, 
        -0.307307630777359, 
        -0.12080810219049454, 
        0.042865414172410965, 
        0.027700915932655334, 
        0.07274550944566727, 
        -0.009418369270861149, 
        0.18440471589565277, 
        -0.2030642032623291, 
        -0.23113125562667847, 
        -0.055594172328710556, 
        -0.04493553563952446, 
        -0.11785170435905457, 
        0.12245330959558487, 
        0.15033628046512604, 
        -0.05072726309299469, 
        -0.11909246444702148, 
        0.09253602474927902, 
        -0.04954762011766434, 
        -0.13269288837909698, 
        -0.061316438019275665, 
        -0.05978202447295189, 
        0.06998419016599655, 
        0.033364538103342056, 
        0.12982848286628723, 
        -0.09907956421375275, 
        0.0007722612353973091, 
        -0.16893242299556732, 
        -0.07246606796979904, 
        -0.06853166222572327, 
        0.11813483387231827, 
        -0.0026906852144747972, 
        -0.06421957165002823, 
        -0.24383951723575592, 
        -0.5440317988395691, 
        0.06366186589002609, 
        -0.23310637474060059, 
        0.11613455414772034, 
        0.03818610683083534, 
        0.05309111997485161, 
        0.14946198463439941, 
        -0.057239700108766556, 
        -0.05519703030586243, 
        0.0771695226430893, 
        0.15326403081417084, 
        0.09930542856454849, 
        -0.21730203926563263, 
        0.1280815154314041, 
        -0.13762085139751434, 
        0.13935109972953796, 
        -0.30051612854003906, 
        0.09874088317155838, 
        0.07936134934425354, 
        -0.10747048258781433, 
        0.16558848321437836, 
        -0.17124414443969727, 
        0.241816908121109, 
        -0.01557339821010828, 
        0.04994550347328186, 
        0.11358236521482468, 
        -0.0221948754042387, 
        -0.0876627191901207, 
        -0.19501993060112, 
        -0.1180676743388176, 
        -0.011991155333817005, 
        -0.18828780949115753, 
        0.1717943251132965, 
        -0.15765464305877686, 
        0.09654015302658081, 
        -0.2427224963903427, 
        -0.13438279926776886, 
        -0.13883593678474426, 
        0.10462287813425064, 
        -0.33319801092147827, 
        -0.08574426174163818, 
        -0.13793060183525085, 
        -0.01348967757076025, 
        -0.01173390168696642, 
        -0.2898808717727661, 
        -0.09886527061462402, 
        -0.17886869609355927, 
        -0.014508787542581558, 
        0.1930319368839264, 
        0.14910803735256195, 
        -0.023459570482373238, 
        0.12045910209417343, 
        -0.3113822042942047, 
        -0.043330781161785126, 
        0.12836386263370514, 
        0.17452004551887512, 
        -0.0903291329741478, 
        0.18503017723560333, 
        -0.07351171970367432, 
        -0.18563337624073029, 
        -0.19884029030799866, 
        -0.06483778357505798, 
        -0.34478849172592163, 
        0.016429854556918144, 
        -0.04044467210769653, 
        0.19904759526252747, 
        0.1997155249118805, 
        0.013296135701239109, 
        0.11491506546735764, 
        -0.09190338104963303, 
        0.09589267522096634, 
        -0.07960523664951324, 
        -0.02558651566505432, 
        -0.2909749746322632, 
        -0.34457093477249146, 
        -0.24239522218704224, 
        0.1742991954088211, 
        -0.09175603091716766, 
        0.15662892162799835, 
        -0.1826288253068924, 
        0.08608626574277878, 
        -0.1421268731355667, 
        -0.32972368597984314, 
        0.1712155044078827, 
        0.1668732464313507, 
        -0.03686308115720749, 
        0.18558362126350403, 
        -0.1205153837800026, 
        0.10183719545602798, 
        0.1407027691602707, 
        0.138255313038826, 
        -0.329681932926178, 
        -0.06054897978901863, 
        0.016358083114027977, 
        0.05127495899796486, 
        0.2026565670967102, 
        -0.46148380637168884, 
        0.0020126288291066885, 
        -0.0332891084253788, 
        -0.1740466207265854, 
        0.03939078748226166, 
        -0.2458810955286026, 
        0.06086822971701622, 
        0.11065379530191422, 
        -0.06291645020246506, 
        -0.20608697831630707, 
        -0.03292863070964813, 
        -0.17186109721660614, 
        -0.009757112711668015, 
        -0.4009989798069, 
        0.18050284683704376, 
        -0.10978920757770538, 
        -0.14617280662059784, 
        -0.22521893680095673, 
        -0.3720799684524536, 
        -0.0545496866106987, 
        -0.2585245370864868, 
        0.02965620532631874, 
        -0.14312227070331573, 
        -0.12210771441459656, 
        -0.11358087509870529, 
        0.11799653619527817, 
        -0.05573517084121704, 
        -0.013206024654209614, 
        -0.5180458426475525, 
        -0.09989631921052933, 
        0.1569189429283142, 
        -0.05353814363479614, 
        -0.074024997651577, 
        -0.03812992945313454, 
        0.07115762680768967, 
        -0.021510405465960503, 
        -0.11083008348941803, 
        -0.013080364093184471, 
        -0.027430957183241844, 
        -0.018753496930003166, 
        -0.267627090215683, 
        0.13312380015850067, 
        0.002773878164589405, 
        0.07085837423801422, 
        -0.32707563042640686, 
        -0.17080357670783997, 
        -0.060054801404476166, 
        0.02281091921031475, 
        -0.020117266103625298, 
        0.16877460479736328, 
        -0.1809239536523819, 
        0.1812361478805542, 
        0.0005022200639359653, 
        0.05085352808237076, 
        -0.10066479444503784, 
        -0.15169134736061096, 
        -0.17608802020549774, 
        -0.2154717594385147, 
        0.06868086755275726, 
        -0.03542941436171532, 
        -0.11110898107290268, 
        0.015507381409406662, 
        0.006845499388873577, 
        0.19625811278820038, 
        -0.1953669786453247, 
        0.1490911990404129, 
        0.01437113806605339, 
        -0.03127777948975563, 
        0.040817778557538986, 
        -0.008919334970414639, 
        -0.040638357400894165, 
        -0.05338861420750618, 
        -0.040012504905462265, 
        -0.2333691269159317, 
        -0.19828706979751587, 
        -0.009616381488740444, 
        -0.14844423532485962, 
        -0.01004599779844284, 
        0.15238744020462036, 
        -0.14865165948867798, 
        0.16700084507465363, 
        -0.19363924860954285, 
        0.008392993360757828, 
        -0.1298457831144333, 
        -0.2095469832420349, 
        -0.013123755343258381, 
        -0.04002918675541878, 
        -0.192902609705925, 
        0.14152184128761292, 
        0.021116673946380615, 
        -0.041902776807546616, 
        -0.03489282727241516, 
        -0.2505597174167633, 
        -0.2702581584453583, 
        -0.11398068070411682, 
        0.13585738837718964, 
        -0.3196072280406952, 
        0.13828808069229126, 
        0.050847649574279785, 
        0.015023713931441307, 
        -0.08522029966115952, 
        -0.06710435450077057, 
        -0.10414480417966843, 
        -0.21378587186336517, 
        -0.36291196942329407, 
        -0.43902459740638733, 
        0.11975046992301941, 
        -0.0025685871951282024, 
        0.05735793337225914, 
        -0.13667500019073486, 
        0.09135198593139648, 
        -0.00407897075638175, 
        -0.060933176428079605, 
        -0.0640844851732254, 
        0.02468816004693508, 
        -0.11839328706264496, 
        0.0824362263083458, 
        0.029430517926812172, 
        -0.09450894594192505, 
        -0.04695682227611542, 
        0.0820441022515297, 
        -0.020608069375157356, 
        -0.19067594408988953, 
        -0.1616213619709015, 
        -0.16522563993930817, 
        -0.051901645958423615, 
        0.012834996916353703, 
        0.09265025705099106, 
        0.021790621802210808, 
        0.11856576800346375, 
        -0.18239516019821167, 
        0.08202756196260452, 
        0.08655870705842972, 
        0.009300167672336102, 
        -0.1035633459687233, 
        -0.1904798001050949, 
        -0.3542172610759735, 
        0.18919385969638824, 
        0.1421077847480774, 
        -0.17863602936267853, 
        0.008491266518831253, 
        -0.13337121903896332, 
        -0.32671988010406494, 
        0.22021286189556122, 
        -0.30344703793525696, 
        -0.014019692316651344, 
        -0.027428843080997467, 
        -0.05646020174026489, 
        -0.0035417035687714815, 
        -0.05261976271867752, 
        -0.03474447876214981, 
        0.1009068563580513, 
        -0.08347440510988235, 
        0.07114968448877335, 
        -0.2171933799982071, 
        -0.029154188930988312, 
        0.19914571940898895, 
        -0.1444564163684845, 
        0.08113335818052292, 
        -0.23803015053272247, 
        0.030481714755296707, 
        -0.04233169928193092, 
        0.10344450175762177, 
        -0.13024836778640747, 
        0.002765401266515255, 
        0.044363830238580704, 
        0.05289978161454201, 
        0.03173298016190529, 
        0.010099628940224648, 
        -0.1781120002269745, 
        -0.04467632994055748, 
        -0.051430847495794296, 
        -0.24928811192512512, 
        -0.05411442369222641, 
        -0.06033230200409889, 
        0.038311462849378586, 
        -0.2186259925365448, 
        0.0733882486820221, 
        -0.01454139780253172, 
        0.07881176471710205, 
        -0.11955719441175461, 
        0.1295972764492035, 
        0.07871044427156448, 
        -0.024479908868670464, 
        0.029726125299930573, 
        -0.3768918812274933, 
        0.059909407049417496, 
        0.008542608469724655, 
        -0.1865977644920349, 
        0.020477594807744026, 
        0.13328005373477936, 
        0.0126907704398036, 
        0.004721655510365963, 
        0.1187623143196106, 
        0.06615041941404343, 
        -0.012825727462768555, 
        0.08964965492486954, 
        0.08143544942140579, 
        -0.21568767726421356, 
        0.1140858381986618, 
        0.03337504342198372, 
        -0.039354436099529266, 
        0.14054197072982788, 
        -0.1490948498249054, 
        -0.008335854858160019, 
        -0.0668223649263382, 
        -0.11132409423589706, 
        -0.237345889210701, 
        0.1718241423368454, 
        -0.21825146675109863, 
        0.1324266642332077, 
        -0.20616655051708221, 
        -0.1918148398399353, 
        -0.11070863902568817, 
        0.12918943166732788, 
        0.1474403589963913, 
        -0.13104601204395294, 
        -0.09278196841478348, 
        -0.08578215539455414, 
        0.2511194348335266, 
        0.11330147832632065, 
        0.0129080293700099, 
        -0.11890551447868347, 
        -0.43483877182006836, 
        0.08101005107164383, 
        -0.3259659707546234, 
        -0.09310030192136765, 
        -0.02129616029560566, 
        0.1640290915966034, 
        -0.07027952373027802, 
        0.27838969230651855, 
        -0.23944443464279175, 
        -0.04687127470970154, 
        -0.012582349590957165, 
        0.0272720567882061, 
        -0.2939300835132599, 
        -0.16116760671138763, 
        0.026678139343857765, 
        0.021339120343327522, 
        0.047947660088539124, 
        -0.15837572515010834, 
        -0.1964534968137741, 
        0.19844135642051697, 
        -0.004567496478557587, 
        -0.1274135708808899, 
        -0.15339824557304382, 
        0.08485795557498932, 
        -0.14645831286907196, 
        -0.05091065913438797, 
        0.059730786830186844, 
        -0.07106052339076996, 
        0.03898819908499718, 
        -0.07264050096273422, 
        0.029888056218624115, 
        -0.08747079968452454, 
        0.0154921505600214, 
        0.1480170339345932, 
        0.2774040699005127, 
        -0.2698560953140259, 
        0.1419457346200943, 
        -0.09963859617710114, 
        -0.09439579397439957, 
        -0.010296407155692577, 
        0.13031859695911407, 
        0.1383291780948639, 
        0.03813592717051506, 
        -0.1237008199095726, 
        -0.3366663455963135, 
        -0.10984756052494049, 
        0.15582309663295746, 
        0.07110188156366348, 
        0.01302088238298893, 
        0.0812796801328659, 
        -0.14846345782279968, 
        0.09803847223520279, 
        -0.4100230932235718, 
        0.17481423914432526, 
        0.018873155117034912, 
        -0.044096942991018295, 
        0.08760813623666763, 
        -0.11078432202339172, 
        -0.2508086562156677, 
        -0.2129904180765152, 
        -0.13957542181015015, 
        -0.10900375992059708, 
        -0.009309726767241955, 
        0.13156776130199432, 
        -0.1217522844672203, 
        0.05923571437597275, 
        0.04706424102187157, 
        -0.10736966133117676, 
        0.18502213060855865, 
        -0.1732175499200821, 
        0.059926118701696396, 
        -0.15992172062397003, 
        -0.16000686585903168, 
        -0.3245457112789154, 
        -0.008875980973243713, 
        0.027945533394813538, 
        0.025603732094168663, 
        -0.30263832211494446, 
        0.02811676450073719, 
        -0.07549314945936203, 
        -0.14053837954998016, 
        0.07452396303415298, 
        -0.029610222205519676, 
        0.07384282350540161, 
        0.042275987565517426, 
        0.1367316097021103, 
        0.08891776204109192, 
        -0.14137086272239685, 
        -0.10556159168481827, 
        0.02860737219452858, 
        -0.2398386150598526, 
        0.01252251397818327, 
        -0.1680384874343872, 
        -0.18778741359710693, 
        -0.1429452896118164, 
        -0.03705856576561928, 
        0.1030462235212326, 
        0.03996201232075691, 
        0.22616861760616302, 
        -0.039178185164928436, 
        0.06894237548112869, 
        -0.32326698303222656, 
        -0.06413765996694565, 
        -0.36167362332344055, 
        -0.15842685103416443, 
        0.13945750892162323, 
        -0.13634029030799866, 
        0.007750601042062044, 
        0.04917808249592781, 
        0.029229339212179184, 
        -0.23392173647880554, 
        -0.15118511021137238, 
        0.12000653892755508, 
        -0.19752812385559082, 
        0.22052863240242004, 
        0.0028456118889153004, 
        -0.1451597660779953, 
        -0.11474285274744034, 
        -0.05912427231669426, 
        -0.22708341479301453, 
        -0.15052630007266998, 
        0.06505837291479111, 
        -0.35619229078292847, 
        0.021176641806960106, 
        -0.19102707505226135, 
        0.03215814009308815, 
        -0.21174222230911255, 
        -0.09876005351543427, 
        0.031632088124752045, 
        -0.08199640363454819, 
        0.1174590215086937, 
        -0.1804009974002838, 
        0.058534134179353714, 
        0.017336037009954453, 
        -0.15321233868598938, 
        0.2583932876586914, 
        -0.1575143188238144, 
        -0.011285402812063694, 
        0.09494183957576752, 
        0.007437279913574457, 
        0.040072206407785416, 
        0.1502150297164917, 
        -0.3831355571746826, 
        0.037959419190883636, 
        0.25427430868148804, 
        0.07465054839849472, 
        0.03626040741801262, 
        -0.02473505586385727, 
        -0.09799954295158386, 
        0.07405656576156616, 
        -0.09362547099590302, 
        -0.37727421522140503, 
        -0.18061213195323944, 
        -0.5169886350631714, 
        0.13659796118736267, 
        -0.052130989730358124, 
        -0.034424975514411926, 
        -0.1716434806585312, 
        0.09151721000671387, 
        -0.15033257007598877, 
        -0.13925716280937195, 
        -0.24548949301242828, 
        -0.017906656488776207, 
        0.005605984013527632, 
        0.1689022034406662, 
        -0.08881809562444687, 
        0.07934886962175369, 
        -0.26655006408691406, 
        -0.037538472563028336, 
        -0.13929139077663422, 
        0.09949754923582077, 
        -0.017094725742936134, 
        0.1076100617647171, 
        0.13158871233463287, 
        0.0020078259985893965, 
        -0.09555180370807648, 
        0.03545081615447998, 
        0.04785751923918724, 
        -0.12833333015441895, 
        0.20905141532421112, 
        -0.21632345020771027, 
        -0.12429461628198624, 
        -0.014755481854081154, 
        -0.20761772990226746, 
        -0.08827249705791473, 
        -0.08961521834135056, 
        -0.1815851777791977, 
        0.10563885420560837, 
        -0.048270732164382935, 
        -0.03535394370555878, 
        -0.2805842459201813, 
        -0.3146735727787018, 
        0.07096457481384277, 
        -0.2592674195766449, 
        -0.04642269387841225, 
        0.13437946140766144, 
        0.12511476874351501, 
        -0.4307459592819214, 
        -0.040127821266651154, 
        -0.06817220896482468, 
        0.03192555904388428, 
        0.07841159403324127, 
        -0.3682158291339874, 
        -0.15550698339939117, 
        -0.10134557634592056, 
        -0.06142101436853409, 
        -0.13981081545352936, 
        -0.058148887008428574, 
        -0.06803075969219208, 
        -0.04342745617032051, 
        0.05335551127791405, 
        -0.26823335886001587, 
        0.0979451984167099, 
        -0.05438395217061043, 
        0.18993693590164185, 
        -0.03936684876680374, 
        0.03591595217585564, 
        -0.1015157625079155, 
        0.045875538140535355, 
        -0.0933104157447815, 
        -0.04268348217010498, 
        0.206014946103096, 
        -0.2774735391139984, 
        0.14498791098594666, 
        0.058991093188524246, 
        -0.1852823942899704, 
        -0.16647158563137054, 
        0.23040243983268738, 
        -0.6174362897872925, 
        -0.05118132755160332, 
        0.18518538773059845, 
        0.22400039434432983, 
        0.014387830160558224, 
        0.1891700029373169, 
        -0.10271557420492172, 
        0.1172497570514679, 
        -0.026195628568530083, 
        0.11554571986198425, 
        -0.07350733876228333, 
        -0.06174421310424805, 
        0.05250262841582298, 
        -0.023794811218976974, 
        0.06179705262184143, 
        0.010491338558495045, 
        -0.6031435132026672, 
        -0.03975221514701843, 
        0.036534301936626434, 
        0.009997766464948654, 
        -0.06673913449048996, 
        -0.03870774433016777, 
        0.022192170843482018, 
        0.011044341139495373, 
        0.060812175273895264, 
        -0.2515753209590912, 
        0.0027905451133847237, 
        -0.49559086561203003, 
        0.0033681364730000496, 
        0.007055273745208979, 
        -0.4498363733291626, 
        0.015490151941776276, 
        -0.06799623370170593, 
        -0.07346196472644806, 
        0.09211774915456772, 
        -0.12235260754823685, 
        -0.04097071662545204, 
        -0.247595876455307, 
        0.02091365121304989, 
        -0.26991429924964905, 
        -0.38481321930885315, 
        -0.09728479385375977, 
        -0.05762209743261337, 
        0.1230313777923584, 
        -0.6807742714881897, 
        -0.00847423542290926, 
        -0.10532757639884949, 
        -0.2682265043258667, 
        -0.17886021733283997, 
        0.0866319090127945, 
        -0.12994787096977234, 
        -0.0897320955991745, 
        0.0019034233409911394, 
        -0.3454406261444092, 
        -0.07126177102327347, 
        0.036650776863098145, 
        -0.14756351709365845, 
        -0.3419824540615082, 
        -0.0882798433303833, 
        0.33242079615592957, 
        -0.5006888508796692, 
        0.022209201008081436, 
        -0.06233388930559158, 
        0.004122043028473854, 
        -0.3986887037754059, 
        -0.2942366898059845, 
        -0.04877196624875069, 
        0.03855649009346962, 
        0.09758085012435913, 
        0.1881580352783203, 
        -0.027339335530996323, 
        0.035502731800079346, 
        0.061800312250852585, 
        0.11737017333507538, 
        -0.13996534049510956, 
        -0.004308726172894239, 
        -0.2743197977542877, 
        -0.08157052099704742, 
        -0.027336210012435913, 
        -0.10432364046573639, 
        -0.2511886954307556, 
        0.08151676505804062, 
        0.22170385718345642, 
        -0.1270439177751541, 
        -0.5107094049453735, 
        -0.30405381321907043, 
        0.14791081845760345, 
        0.10064677149057388, 
        0.06854508817195892, 
        -0.18924656510353088, 
        -0.248814195394516, 
        -0.40300118923187256, 
        -0.09454312175512314, 
        -0.27855125069618225, 
        0.07795197516679764, 
        0.03548186272382736, 
        -0.139020174741745, 
        0.059339720755815506, 
        0.17539700865745544, 
        0.05837074667215347, 
        -0.02377554215490818, 
        -0.06986334174871445, 
        -0.3904259204864502, 
        -0.062140002846717834, 
        0.2457873672246933, 
        0.13003608584403992, 
        -0.23543286323547363, 
        0.02562742680311203, 
        -0.05464470013976097, 
        -0.09868893772363663, 
        0.051643580198287964, 
        0.1596830189228058, 
        -0.0039033328648656607, 
        -0.22234269976615906, 
        -0.23096351325511932, 
        -0.25648918747901917, 
        -0.3596338629722595, 
        -0.11220529675483704, 
        -0.18022525310516357, 
        0.14981134235858917, 
        0.0008149637142196298, 
        -0.11885421723127365, 
        0.08679935336112976, 
        -0.05526029318571091, 
        0.12429884821176529, 
        -0.43152597546577454, 
        -0.12319070100784302, 
        -0.019467320293188095, 
        -0.029331019148230553, 
        -0.055211178958415985, 
        -0.014441272243857384, 
        0.1341739296913147, 
        0.029530394822359085, 
        -0.19445863366127014, 
        -0.3146294355392456, 
        -0.04992634430527687, 
        -0.014478730969130993, 
        -0.022790322080254555, 
        -0.2205413579940796, 
        -0.06468064337968826, 
        0.1886124610900879, 
        -0.3180672526359558, 
        0.2853604257106781, 
        -0.2669545114040375, 
        0.08140160143375397, 
        -0.16344565153121948, 
        -0.11748654395341873, 
        0.10967760533094406, 
        -0.435039222240448, 
        -0.020383168011903763, 
        0.0963214710354805, 
        -0.038108572363853455, 
        -0.06435036659240723, 
        -0.06637416779994965, 
        -0.2527959644794464, 
        -0.0893620103597641, 
        -0.11052458733320236, 
        -0.04973703622817993, 
        0.16265565156936646, 
        -0.18198499083518982, 
        -0.05044294893741608, 
        0.10682238638401031, 
        -0.3964543640613556, 
        -0.09783685207366943, 
        -0.057698629796504974, 
        0.21193569898605347, 
        -0.22936612367630005, 
        -0.040653977543115616, 
        -0.19176000356674194, 
        0.17426997423171997, 
        -0.18461164832115173, 
        0.034831322729587555, 
        -0.08707738667726517, 
        0.2669765055179596, 
        -0.11986798793077469, 
        0.019204294309020042, 
        0.08258771896362305, 
        0.1649244725704193, 
        -0.02031318098306656, 
        0.1282046139240265, 
        -0.25791141390800476, 
        -0.0005380352376960218, 
        -0.08755776286125183, 
        -0.03608275577425957, 
        -0.24222995340824127, 
        0.16072048246860504, 
        -0.10571374744176865, 
        -0.058492548763751984, 
        -0.20156390964984894, 
        -0.16291497647762299, 
        0.22290411591529846, 
        -0.19300547242164612, 
        -0.06494343280792236, 
        0.1004275530576706, 
        -0.05034731701016426, 
        0.20636674761772156, 
        -0.10052531957626343, 
        0.06089450791478157, 
        0.02666325494647026, 
        -0.021168813109397888, 
        -0.24363462626934052, 
        0.13585235178470612, 
        0.04013737291097641, 
        0.04358711838722229, 
        -0.13795021176338196, 
        -0.2769942879676819, 
        -0.015664245933294296, 
        -0.20028172433376312, 
        -0.10840108245611191, 
        0.08206228911876678, 
        -0.005213655531406403, 
        0.06948786973953247, 
        0.14026519656181335, 
        0.013645987957715988, 
        0.007426009513437748, 
        -0.22782136499881744, 
        -0.017102716490626335, 
        -0.12956726551055908, 
        0.05231691896915436, 
        0.13007894158363342, 
        -0.01717163808643818, 
        -0.0798996165394783, 
        0.08279117196798325, 
        -0.20611801743507385, 
        -0.025214683264493942, 
        0.03239728510379791, 
        -0.11161945015192032, 
        -0.2694653570652008, 
        0.057656221091747284, 
        -0.35376647114753723, 
        0.032876335084438324, 
        0.11627127975225449, 
        -0.013554707169532776, 
        -0.042966362088918686, 
        0.2450471818447113, 
        0.04299309849739075, 
        -0.07089417427778244, 
        0.034728892147541046, 
        0.08036709576845169, 
        -0.14300814270973206, 
        -0.10539406538009644, 
        -0.009654884226620197, 
        -0.019493840634822845, 
        -0.4506922662258148, 
        0.006800254341214895, 
        -0.5088327527046204, 
        -0.00520281633362174, 
        -0.04578452929854393, 
        -0.1285981982946396, 
        -0.14197194576263428, 
        0.031969182193279266, 
        -0.2843256890773773, 
        -0.16112549602985382, 
        -0.1459766924381256, 
        -0.007196346297860146, 
        0.0665188729763031, 
        -0.05551542714238167, 
        0.16701164841651917, 
        -0.0396592952311039, 
        -0.20854756236076355, 
        -0.02493327669799328, 
        0.09574050456285477, 
        -0.10787925124168396, 
        -0.027006782591342926, 
        -0.1653241366147995, 
        0.11565136164426804, 
        -0.2600226104259491, 
        0.1102246418595314, 
        0.10012205690145493, 
        -0.04464570805430412, 
        0.023636560887098312, 
        0.01653704233467579, 
        -0.16099487245082855, 
        -0.2611130177974701, 
        0.02556726709008217, 
        -0.043641626834869385, 
        -0.2171153426170349, 
        -0.03743027150630951, 
        -0.49079030752182007, 
        0.07894267141819, 
        -0.13178274035453796, 
        -0.005501652602106333, 
        0.3012835681438446, 
        -0.1805286705493927, 
        -0.18588240444660187, 
        -0.10932129621505737, 
        0.009873252362012863, 
        0.12986323237419128, 
        0.04421982914209366, 
        -0.3974035680294037, 
        -0.10811726748943329, 
        -0.22270183265209198, 
        -0.19803954660892487, 
        -0.16084842383861542, 
        -0.2974337935447693, 
        -0.275409996509552, 
        -0.11787326633930206, 
        0.06757218390703201, 
        -0.35149648785591125, 
        0.19418887794017792, 
        0.08707579225301743, 
        0.02767239883542061, 
        0.22751007974147797, 
        -0.3623514771461487, 
        0.052214182913303375, 
        0.07236716896295547, 
        0.25398048758506775, 
        0.115627221763134, 
        -0.08927123993635178, 
        -0.006705521140247583, 
        -0.03951583057641983, 
        -0.0023409267887473106, 
        -0.057177092880010605, 
        -0.0007877388852648437, 
        -0.21429197490215302, 
        -0.052429504692554474, 
        0.2072877585887909, 
        0.038239654153585434, 
        -0.19222640991210938, 
        -0.38813769817352295, 
        -0.1473509520292282, 
        0.1227390393614769, 
        -0.33777716755867004, 
        0.26894116401672363, 
        -0.2187778800725937, 
        -0.11894874274730682, 
        -0.26727259159088135, 
        -0.05049819126725197, 
        0.14276288449764252, 
        0.018304115161299706, 
        0.0632479190826416, 
        0.09586074948310852, 
        0.04223794490098953, 
        -0.11798061430454254, 
        0.05054578185081482, 
        -0.1176229789853096, 
        -0.04022981598973274, 
        -0.13743603229522705, 
        0.18949468433856964, 
        0.20928432047367096, 
        -0.2519278824329376, 
        -0.11231483519077301, 
        0.2690189778804779, 
        -0.10857182741165161, 
        -0.0401078425347805, 
        -0.09534439444541931, 
        0.007790306583046913, 
        -0.3612673282623291, 
        -0.16547361016273499, 
        -0.09223396331071854, 
        -0.23612478375434875, 
        -0.03190978616476059, 
        -0.2698381245136261, 
        -0.056622229516506195, 
        -0.022490784525871277, 
        -0.05951438471674919, 
        -0.057480648159980774, 
        -0.09163636714220047, 
        -0.10120963305234909, 
        0.14016099274158478, 
        -0.055331453680992126, 
        0.23619596660137177, 
        -0.0020166542381048203, 
        -0.3050602972507477, 
        -0.015749923884868622, 
        -0.06681694835424423, 
        -0.17400573194026947, 
        0.21316133439540863, 
        -0.33948400616645813, 
        0.17927736043930054, 
        -0.029949916526675224, 
        -0.24608376622200012, 
        -0.008575879968702793, 
        -0.06418825685977936, 
        -0.11071961373090744, 
        -0.06321332603693008, 
        -0.008711736649274826, 
        -0.009619337506592274, 
        -0.100734643638134, 
        0.024697320535779, 
        -0.1160757765173912, 
        -0.04510549455881119, 
        -0.2745223939418793, 
        -0.10312529653310776, 
        0.15010055899620056, 
        -0.15563124418258667, 
        0.0038198011461645365, 
        -0.05431564524769783, 
        0.19009867310523987, 
        0.06872642040252686, 
        -0.19195279479026794, 
        -0.026166655123233795, 
        0.19725607335567474, 
        -0.1997191458940506, 
        0.08567065745592117, 
        -0.31945332884788513, 
        0.06325303763151169, 
        -0.1379115879535675, 
        -0.2137128859758377, 
        -0.11510435491800308, 
        0.04522441700100899, 
        0.005729323253035545, 
        0.14315974712371826, 
        0.1836167275905609, 
        -0.11213932186365128, 
        0.18533773720264435, 
        -0.30147528648376465, 
        0.0057864985428750515, 
        -0.06731857359409332, 
        0.10478867590427399, 
        -0.007840096019208431, 
        0.05397944524884224, 
        0.11537925153970718, 
        0.2009069323539734, 
        -0.20531469583511353, 
        -0.12127685546875, 
        -0.048574309796094894, 
        0.12607555091381073, 
        -0.25486230850219727, 
        0.03479364886879921, 
        0.09438496083021164, 
        -0.0028728952165693045, 
        -0.14018172025680542, 
        -0.15162785351276398, 
        0.1294793039560318, 
        -0.08292794227600098, 
        0.05328775942325592, 
        0.08761372417211533, 
        0.12055779993534088, 
        -0.026730701327323914, 
        0.023048587143421173, 
        -0.15102821588516235, 
        -0.09476259350776672, 
        0.05177631229162216, 
        -0.09687146544456482, 
        0.05386542156338692, 
        0.004690647125244141, 
        -0.23331551253795624, 
        -0.0020150598138570786, 
        0.23049670457839966, 
        0.06278487294912338, 
        -0.06061892956495285, 
        -0.013327416032552719, 
        -0.13366129994392395, 
        -0.13480618596076965, 
        0.31866636872291565, 
        -0.1258467584848404, 
        -0.1580541878938675, 
        -0.23265761137008667, 
        -0.19743868708610535, 
        -0.017767921090126038, 
        0.003963880706578493, 
        0.13178923726081848, 
        0.002723719459027052, 
        0.09385685622692108, 
        -0.08472225069999695, 
        0.02552195079624653, 
        -0.10961434245109558, 
        0.02695917896926403, 
        -0.11141134053468704, 
        -0.13443268835544586, 
        -0.2191716879606247, 
        -0.0449342280626297, 
        -0.05482947453856468, 
        -0.10885197669267654, 
        0.139130637049675, 
        0.13464507460594177, 
        0.016540613025426865, 
        -0.07154735922813416, 
        0.10730583220720291, 
        -0.22467009723186493, 
        -0.15851174294948578, 
        -0.026057837530970573, 
        -0.050204601138830185, 
        0.17159518599510193, 
        -0.1688748449087143, 
        -0.22359667718410492, 
        -0.07576262205839157, 
        -0.010396333411335945, 
        -0.03196117654442787, 
        -0.13459636270999908, 
        0.054206881672143936, 
        0.04844782128930092, 
        0.0057799904607236385, 
        0.13781864941120148, 
        -0.13710898160934448, 
        0.21391484141349792, 
        0.19625087082386017, 
        0.08219704031944275, 
        -0.24896882474422455, 
        -0.09484028816223145, 
        -0.05198078602552414, 
        0.10630037635564804, 
        0.10055559128522873, 
        -0.343463659286499, 
        -0.004648021422326565, 
        -0.10255816578865051, 
        -0.31182432174682617, 
        0.05340055748820305, 
        -0.10549730062484741, 
        0.10078098624944687, 
        0.05676552280783653, 
        -0.24165168404579163, 
        0.16463273763656616, 
        0.074726901948452, 
        -0.19741515815258026, 
        0.010789659805595875, 
        -0.3973325490951538, 
        -0.23921388387680054, 
        0.0760040208697319, 
        -0.27606481313705444, 
        -0.10237468779087067, 
        0.008107663132250309, 
        0.10817960649728775, 
        0.07222746312618256, 
        -0.05630621686577797, 
        0.15287794172763824, 
        0.014807059429585934, 
        0.10088039189577103, 
        0.01148774940520525, 
        -0.2457652986049652, 
        -0.12691910564899445, 
        0.17938017845153809, 
        0.11223484575748444, 
        -0.1734459400177002, 
        -0.1317497342824936, 
        -0.28526750206947327, 
        -0.4397253692150116, 
        -0.19063560664653778, 
        0.06733261793851852, 
        -0.12483585625886917, 
        0.1320905089378357, 
        0.19929072260856628, 
        0.048545170575380325, 
        -0.016670770943164825, 
        -0.1449240893125534, 
        -0.1384650319814682, 
        -0.04472518712282181, 
        -0.04454419016838074, 
        -0.14864158630371094, 
        0.0343039333820343, 
        0.31984466314315796, 
        -0.05897891893982887, 
        -0.05844103917479515, 
        -0.2874157726764679, 
        -0.2910250723361969, 
        -0.21074005961418152, 
        -0.25347593426704407, 
        0.0732836201786995, 
        0.2100517600774765, 
        -0.24072588980197906, 
        -0.0008706891094334424, 
        -0.13654227554798126, 
        -0.017245415598154068, 
        0.21388481557369232, 
        -0.47479820251464844, 
        0.015656573697924614, 
        0.05643629655241966, 
        0.06995843350887299, 
        0.14010562002658844, 
        -0.3576853275299072, 
        -0.1943867951631546, 
        0.04079674929380417, 
        -0.06166987866163254, 
        0.04657278209924698, 
        -0.09975375235080719, 
        -0.07967007160186768, 
        0.07668320089578629, 
        -0.10950706899166107, 
        -0.22094061970710754, 
        0.04072243347764015, 
        -0.11430706083774567, 
        -0.37557706236839294, 
        -0.1434592455625534, 
        -0.07441899925470352, 
        -0.10124430060386658, 
        -0.12254942953586578, 
        0.05155279114842415, 
        -0.03754495084285736, 
        -0.21484923362731934, 
        0.1098552867770195, 
        -0.0401688851416111, 
        -0.1777164489030838, 
        -0.13133937120437622, 
        0.1368662714958191, 
        -0.0845116525888443, 
        -0.25406181812286377, 
        -0.030895493924617767, 
        0.05967569351196289, 
        -0.04026491194963455, 
        0.4165216088294983, 
        0.05107705295085907, 
        -0.19947297871112823, 
        -0.12776511907577515, 
        -0.26701295375823975, 
        -0.4060979187488556, 
        -0.03601726144552231, 
        0.14432671666145325, 
        -0.30167296528816223, 
        0.042664624750614166, 
        0.033928580582141876, 
        -0.14794406294822693, 
        -0.1505749225616455, 
        -0.19562523066997528, 
        0.10478778928518295, 
        0.006642347667366266, 
        -0.09431234747171402, 
        0.041472483426332474, 
        -0.05078108236193657, 
        0.03399644047021866, 
        0.1044059470295906, 
        0.021722912788391113, 
        -0.22584272921085358, 
        -0.03065522201359272, 
        -0.310055673122406, 
        -0.3489595055580139, 
        0.04569757729768753, 
        0.06553583592176437, 
        -0.1915203481912613, 
        -0.2812221050262451, 
        0.25167742371559143, 
        -0.06972461193799973, 
        -0.2386661171913147, 
        -0.1371408998966217, 
        -0.020709343254566193, 
        0.04951566085219383, 
        -0.18339228630065918, 
        0.00313866906799376, 
        -0.40187424421310425, 
        0.17029359936714172, 
        0.1366569548845291, 
        0.17275899648666382, 
        0.05403105542063713, 
        0.1711357980966568, 
        -0.0006366585730575025, 
        0.10646411776542664, 
        0.11629233509302139, 
        -0.3019763231277466, 
        -0.5776287317276001, 
        -0.09551442414522171, 
        -0.1349703073501587, 
        -0.028400318697094917, 
        -0.10585082322359085, 
        0.19354857504367828, 
        -0.27979937195777893, 
        0.023367706686258316, 
        -0.2843509614467621, 
        0.11933348327875137, 
        -0.2244693785905838, 
        0.007132688071578741, 
        -0.47478386759757996, 
        -0.13530851900577545, 
        -0.06530892103910446, 
        -0.1989339292049408, 
        0.14137686789035797, 
        0.0571872852742672, 
        -0.41749319434165955, 
        0.009736991487443447, 
        -0.019460782408714294, 
        -0.01077406108379364, 
        -0.37496137619018555, 
        -0.1231059804558754, 
        0.17377781867980957, 
        0.1258414089679718, 
        0.11785934120416641, 
        -0.46995601058006287, 
        0.18671554327011108, 
        -0.3468979299068451, 
        0.021337684243917465, 
        0.024310607463121414, 
        -0.033544208854436874, 
        0.03913822025060654, 
        -0.0382341593503952, 
        0.2978431284427643, 
        -0.09869027137756348, 
        0.14230644702911377, 
        -0.1154380813241005, 
        -0.028936386108398438, 
        -0.01567487232387066, 
        -0.089987613260746, 
        -0.4530787765979767, 
        -0.0215073823928833, 
        0.13971902430057526, 
        -0.009252447634935379, 
        -0.18420378863811493, 
        0.04207524657249451, 
        -0.2937797009944916, 
        -0.4296013414859772, 
        -0.3998866379261017, 
        -0.07534323632717133, 
        -0.7537084221839905, 
        0.05475311353802681, 
        -0.2685736119747162, 
        -0.3084671199321747, 
        0.17870217561721802, 
        0.11202338337898254, 
        -0.2806887626647949, 
        -0.14496050775051117, 
        0.09361874312162399, 
        0.29866477847099304, 
        -0.37257978320121765, 
        -0.24135954678058624, 
        -0.13859079778194427, 
        -0.1357678771018982, 
        -0.08367102593183517, 
        -0.15832185745239258, 
        0.1402563601732254, 
        -0.03583420813083649, 
        0.03836933895945549, 
        -0.13642437756061554, 
        0.1276104748249054, 
        0.10248281061649323, 
        0.163880854845047, 
        -0.2547387480735779, 
        0.09746615588665009, 
        -0.6583340167999268, 
        0.08556743711233139, 
        0.0021434868685901165, 
        0.020788291469216347, 
        -0.19382044672966003, 
        -0.06246519461274147, 
        -0.18726997077465057, 
        0.0017271628603339195, 
        -0.05284467339515686, 
        -0.1446136087179184, 
        -0.30059802532196045, 
        -0.29471254348754883, 
        -0.019741840660572052, 
        0.1146046444773674, 
        -0.17290380597114563, 
        0.10670264065265656, 
        0.02292587235569954, 
        -0.08172379434108734, 
        0.10240814089775085, 
        0.012799721211194992, 
        -0.21978060901165009, 
        0.008738001808524132, 
        -0.02863261103630066, 
        0.11557154357433319, 
        -0.20227332413196564, 
        0.20058460533618927, 
        -0.0025035229045897722, 
        -0.15266095101833344, 
        -0.1333899348974228, 
        -0.22546163201332092, 
        -0.03514673188328743, 
        0.054660405963659286, 
        0.02586795575916767, 
        -0.21463137865066528, 
        0.10766097903251648, 
        -0.013729043304920197, 
        -0.17833290994167328, 
        -0.22909322381019592, 
        0.08442086726427078, 
        -0.14530715346336365, 
        -0.19256119430065155, 
        -0.02998606115579605, 
        0.19737371802330017, 
        -0.24803341925144196, 
        0.09776349365711212, 
        0.2858186364173889, 
        -0.14242683351039886, 
        -0.24757787585258484, 
        -0.15374843776226044, 
        -0.11927484720945358, 
        -0.12642470002174377, 
        0.0765005499124527, 
        -0.05547492951154709, 
        0.08967283368110657, 
        -0.09059476107358932, 
        -0.06286118924617767, 
        -0.3584953248500824, 
        -0.17055204510688782, 
        0.04086309298872948, 
        -0.17437079548835754, 
        -0.23311996459960938, 
        -0.08101096004247665, 
        0.04803406447172165, 
        -0.08821430057287216, 
        -0.05773527920246124, 
        0.07633907347917557, 
        -0.3077872395515442, 
        0.06594296544790268, 
        -0.3197382688522339, 
        0.19250057637691498, 
        0.21598924696445465, 
        0.06711780279874802, 
        -0.08062038570642471, 
        -0.23123788833618164, 
        0.11237763613462448, 
        0.0345102921128273, 
        -0.2353576272726059, 
        0.016266776248812675, 
        -0.0044331937097013, 
        -0.26070091128349304, 
        0.16350992023944855, 
        0.19909334182739258, 
        0.12251102924346924, 
        0.08182239532470703, 
        -0.09154441207647324, 
        -0.12658801674842834, 
        0.12271114438772202, 
        -0.002092192182317376, 
        -0.12406012415885925, 
        -0.047821592539548874, 
        -0.16467292606830597, 
        -0.17379535734653473, 
        0.14354802668094635, 
        -0.11769670248031616, 
        -0.20495381951332092, 
        -0.020073745399713516, 
        -0.19569329917430878, 
        0.10003495961427689, 
        -0.23721633851528168, 
        -0.07199248671531677, 
        0.14013072848320007, 
        -0.026914259418845177, 
        -0.07529889792203903, 
        0.1279313564300537, 
        -0.08224103599786758, 
        0.090818390250206, 
        -0.050348442047834396, 
        -0.12006192654371262, 
        -0.022294847294688225, 
        -0.309355229139328, 
        0.00830808561295271, 
        -0.3483330309391022, 
        0.07127959281206131, 
        0.09553181380033493, 
        -0.10258526355028152, 
        -0.026503346860408783, 
        -0.0023111472837626934, 
        -0.010840813629329205, 
        -0.12747284770011902, 
        -0.05167355388402939, 
        -0.02507588267326355, 
        -0.015423724427819252, 
        -0.06205124780535698, 
        -0.3314759433269501, 
        0.1580430567264557, 
        0.11636622995138168, 
        -0.08705310523509979, 
        -0.07612992078065872, 
        -0.32612890005111694, 
        0.006405998021364212, 
        -0.24621213972568512, 
        -0.08215342462062836, 
        0.09292685240507126, 
        -0.060785796493291855, 
        -0.22272425889968872, 
        -0.05787697061896324, 
        -0.22755758464336395, 
        -0.09251768887042999, 
        -0.177915558218956, 
        -0.411017507314682, 
        -0.024586740881204605, 
        -0.1518678218126297, 
        0.07982194423675537, 
        -0.1931847780942917, 
        0.18664732575416565, 
        0.08257482200860977, 
        0.2492058426141739, 
        0.0008365176036022604, 
        -0.07390675693750381, 
        -0.02183147706091404, 
        0.04727305471897125, 
        -0.09666254371404648, 
        0.007927603088319302, 
        0.050936680287122726, 
        -0.004510685335844755, 
        0.15219826996326447, 
        -0.21095281839370728, 
        -0.0815889984369278, 
        0.20377464592456818, 
        -0.2509690225124359, 
        0.08854455500841141, 
        0.2328839898109436, 
