{
  "input_sequences": [], 
  "inputs": [
    {
      "name": "node_0", 
      "variables": [
        {
          "name": "variable_0", 
          "offset": -6.468264661088239, 
          "scale": 2.547059912805884
        }, 
        {
          "name": "variable_1", 
          "offset": -0.24005876419197356, 
          "scale": 5.385043489953696
        }, 
        {
          "name": "variable_2", 
          "offset": -4.207736207507909, 
          "scale": 0.920105860339139
        }, 
        {
          "name": "variable_3", 
          "offset": -0.32681771933563236, 
          "scale": 4.494005474239541
        }, 
        {
          "name": "variable_4", 
          "offset": -1.2120931495946625, 
          "scale": 0.9863117864013426
        }, 
        {
          "name": "variable_5", 
          "offset": -0.9734642239132437, 
          "scale": 1.4186719492927842
        }, 
        {
          "name": "variable_6", 
          "offset": -91.10464925216876, 
          "scale": 0.01344074740451794
        }, 
        {
          "name": "variable_7", 
          "offset": -4.188526495174317, 
          "scale": 1.1260381515829956
        }, 
        {
          "name": "variable_8", 
          "offset": -0.005708591206818198, 
          "scale": 0.5211490349378606
        }, 
        {
          "name": "variable_9", 
          "offset": -705.0327298606838, 
          "scale": 0.0027287027471239148
        }, 
        {
          "name": "variable_10", 
          "offset": -125.07154075630665, 
          "scale": 0.012183731282822994
        }, 
        {
          "name": "variable_11", 
          "offset": -67.22062986971457, 
          "scale": 0.022145010032294337
        }, 
        {
          "name": "variable_12", 
          "offset": -0.0014012789551827618, 
          "scale": 0.4585691322913353
        }, 
        {
          "name": "variable_13", 
          "offset": 0.02711626044615221, 
          "scale": 0.3845991402159513
        }, 
        {
          "name": "variable_14", 
          "offset": 0.04175392445287922, 
          "scale": 0.5489238320085699
        }, 
        {
          "name": "variable_15", 
          "offset": 0.06259163597998886, 
          "scale": 0.5508402508600846
        }, 
        {
          "name": "variable_16", 
          "offset": -0.6380186395428251, 
          "scale": 2.836844384192357
        }, 
        {
          "name": "variable_17", 
          "offset": -0.5473267184656011, 
          "scale": 2.7323049859255493
        }
      ]
    }, 
    {
      "name": "node_1", 
      "variables": [
        {
          "name": "variable_0", 
          "offset": -123.64362948557086, 
          "scale": 0.17810599547473738
        }, 
        {
          "name": "variable_1", 
          "offset": -0.02113637444800848, 
          "scale": 88.98549288822781
        }, 
        {
          "name": "variable_2", 
          "offset": -2.614758524740462, 
          "scale": 0.7136393476719951
        }
      ]
    }
  ], 
  "layers": [
    {
      "activation": "rectified", 
      "architecture": "dense", 
      "bias": [
        -0.16833709180355072, 
        -0.18412217497825623, 
        -0.2603985071182251, 
        -0.23923231661319733, 
        -0.3130788803100586, 
        -0.017079800367355347, 
        0.049702998250722885, 
        -0.009331254288554192, 
        0.055750563740730286, 
        -0.09057243913412094, 
        -0.2327156811952591, 
        -0.004323739558458328, 
        0.04971059039235115, 
        -0.15530429780483246, 
        -0.03310367092490196, 
        0.03513627126812935, 
        -0.19429051876068115, 
        -0.1660459190607071, 
        -0.23579764366149902, 
        -0.19874617457389832, 
        -0.09369847178459167, 
        -0.22492174804210663, 
        -0.12487965077161789, 
        -0.29969900846481323, 
        -0.05168795585632324, 
        -0.0010493447771295905, 
        -0.12107177078723907, 
        0.12466766685247421, 
        -0.10002657771110535, 
        0.0018484459724277258, 
        -0.2713495194911957, 
        -0.08472712337970734, 
        -0.29196012020111084, 
        -0.23114217817783356, 
        -0.16770586371421814, 
        -0.07467801123857498, 
        -0.2114603966474533, 
        -0.00961278099566698, 
        0.1015157550573349, 
        0.03501961752772331, 
        -0.15174610912799835, 
        0.10102778673171997, 
        -0.08490873873233795, 
        -0.16297221183776855, 
        -0.01959194988012314, 
        0.09296690672636032, 
        0.005735192447900772, 
        -0.2155577689409256, 
        -0.04853319004178047, 
        -0.12173119932413101, 
        -0.22321824729442596, 
        -0.16283413767814636, 
        0.1720784306526184, 
        -0.14615398645401, 
        -0.0710848718881607, 
        0.1472090780735016, 
        -0.09043877571821213, 
        -0.04917790740728378, 
        -0.09899633377790451, 
        0.111638642847538, 
        -0.26275956630706787, 
        -0.2778410017490387, 
        0.027821660041809082, 
        -0.29811134934425354, 
        -0.11564897745847702, 
        -0.2106197327375412, 
        0.10369617491960526, 
        -0.31055712699890137, 
        -0.16124199330806732, 
        -0.1195874884724617, 
        -0.009841717779636383, 
        0.2083464115858078, 
        -0.2472040355205536, 
        -0.1658451110124588, 
        0.08592905104160309, 
        -0.00361526757478714, 
        -0.30713745951652527, 
        0.06340059638023376, 
        0.14616602659225464, 
        -0.13373132050037384
      ], 
      "weights": [
        -0.06369942426681519, 
        -0.5847370624542236, 
        0.32141703367233276, 
        -0.328617662191391, 
        0.2961916923522949, 
        -0.36842724680900574, 
        -0.37851259112358093, 
        -0.19273225963115692, 
        0.14387981593608856, 
        -0.13498765230178833, 
        -0.044942859560251236, 
        0.421772301197052, 
        -0.20780187845230103, 
        0.12092124670743942, 
        -0.3942870795726776, 
        0.2375885397195816, 
        0.16081573069095612, 
        0.4090288281440735, 
        0.3445318937301636, 
        -0.5231136083602905, 
        0.07854783535003662, 
        0.2665631175041199, 
        0.12191988527774811, 
        0.325895220041275, 
        0.1954500526189804, 
        -0.1302676945924759, 
        0.10856913775205612, 
        -0.04155559837818146, 
        0.10720904171466827, 
        -0.23044924437999725, 
        0.20121687650680542, 
        0.13507136702537537, 
        -0.21634525060653687, 
        -0.05214344337582588, 
        0.11700546741485596, 
        0.30790776014328003, 
        -0.5024614334106445, 
        0.29206836223602295, 
        0.17518995702266693, 
        0.03693012893199921, 
        -0.07000261545181274, 
        0.06168804690241814, 
        0.043881241232156754, 
        -0.39573273062705994, 
        -0.2935413420200348, 
        0.17208287119865417, 
        0.23481793701648712, 
        -0.6516237854957581, 
        0.15212014317512512, 
        0.4308675527572632, 
        0.03159862756729126, 
        -0.0187832023948431, 
        0.021461956202983856, 
        -0.09522173553705215, 
        0.12340623140335083, 
        -0.23261767625808716, 
        0.1858070343732834, 
        -0.20357584953308105, 
        -0.338239461183548, 
        0.020115820690989494, 
        0.31561240553855896, 
        -0.2759523093700409, 
        -0.07567685097455978, 
        0.11870662868022919, 
        -0.3652377724647522, 
        0.2648192048072815, 
        -0.33577802777290344, 
        -0.38312989473342896, 
        -0.08918561041355133, 
        -0.07933875173330307, 
        0.16475456953048706, 
        0.3245120942592621, 
        0.12996697425842285, 
        0.04495801404118538, 
        -0.26109781861305237, 
        -0.2120426744222641, 
        -0.13727620244026184, 
        -0.1285802125930786, 
        -0.1963917464017868, 
        0.28572770953178406, 
        -0.27211999893188477, 
        0.04017530009150505, 
        -0.08128450065851212, 
        -0.06400254368782043, 
        0.49362435936927795, 
        0.08097083866596222, 
        -0.06517446041107178, 
        -0.1326684057712555, 
        0.09096179902553558, 
        -0.1920507848262787, 
        0.19244208931922913, 
        -0.5112062692642212, 
        0.124964140355587, 
        -0.28123122453689575, 
        -0.20439505577087402, 
        0.023925257846713066, 
        -0.006424300838261843, 
        -0.022613581269979477, 
        -0.25881528854370117, 
        -0.25003355741500854, 
        -0.11095904558897018, 
        -0.33235102891921997, 
        -0.17621134221553802, 
        0.038276512175798416, 
        0.22927601635456085, 
        0.2306637465953827, 
        -0.23066304624080658, 
        -0.21852050721645355, 
        -0.14690369367599487, 
        0.0496659092605114, 
        -0.56997150182724, 
        0.15832696855068207, 
        0.14919286966323853, 
        0.17591258883476257, 
        0.2724664509296417, 
        -0.35124674439430237, 
        -0.4085771441459656, 
        0.22006195783615112, 
        -0.0324488990008831, 
        0.6773784160614014, 
        0.13227121531963348, 
        0.3019754886627197, 
        0.12295840680599213, 
        0.09456774592399597, 
        -0.03591344878077507, 
        -0.10381123423576355, 
        -0.3845159113407135, 
        0.7170522212982178, 
        0.29046207666397095, 
        0.2304980754852295, 
        0.04619250074028969, 
        0.24694161117076874, 
        -0.24880343675613403, 
        0.20298996567726135, 
        -0.22335182130336761, 
        0.03017750009894371, 
        -0.056918978691101074, 
        -0.581598699092865, 
        0.18131588399410248, 
        0.35158970952033997, 
        -0.025962436571717262, 
        -0.0361144058406353, 
        -0.12628154456615448, 
        0.0769459456205368, 
        -0.1745155155658722, 
        0.24291709065437317, 
        -0.08018942177295685, 
        0.828423261642456, 
        0.03539007529616356, 
        0.009827252477407455, 
        -0.25164732336997986, 
        -0.2772597670555115, 
        -0.022435607388615608, 
        0.41455745697021484, 
        -0.056897178292274475, 
        0.4790578782558441, 
        -0.14271725714206696, 
        -0.15670165419578552, 
        0.22240474820137024, 
        0.1799982339143753, 
        0.027874311432242393, 
        -0.08293752372264862, 
        0.15293274819850922, 
        0.5008240342140198, 
        0.13144227862358093, 
        -0.06969047337770462, 
        0.1750282347202301, 
        0.1683022379875183, 
        -0.3775213956832886, 
        0.007478376850485802, 
        -0.12895165383815765, 
        0.031563784927129745, 
        0.35213541984558105, 
        0.11430294811725616, 
        0.17214931547641754, 
        -0.18860048055648804, 
        -0.018447212874889374, 
        -0.05688796564936638, 
        0.29663580656051636, 
        0.2356933206319809, 
        0.12512606382369995, 
        -0.3847288191318512, 
        0.17854487895965576, 
        -0.27132922410964966, 
        0.0009279603837057948, 
        0.08630751073360443, 
        -0.2356257438659668, 
        -0.03331884741783142, 
        -0.13215447962284088, 
        -0.03672812134027481, 
        0.11297037452459335, 
        0.15459156036376953, 
        0.08382175117731094, 
        -0.021686406806111336, 
        -0.0021031578071415424, 
        -0.27914708852767944, 
        0.19541411101818085, 
        -0.12086158990859985, 
        -0.5021142959594727, 
        0.1349521428346634, 
        -0.08956419676542282, 
        -0.4524306356906891, 
        0.4474002718925476, 
        0.030169177800416946, 
        -0.016381287947297096, 
        -0.20381496846675873, 
        0.0662991926074028, 
        -0.4157143235206604, 
        0.4301532506942749, 
        0.29536035656929016, 
        -0.04533177986741066, 
        0.2168770283460617, 
        -0.18356092274188995, 
        -0.045372653752565384, 
        -0.029229043051600456, 
        0.05146808549761772, 
        -0.20289647579193115, 
        0.08903885632753372, 
        0.33013272285461426, 
        0.6775327920913696, 
        0.32838770747184753, 
        -0.23407942056655884, 
        -0.3024638295173645, 
        0.03172314539551735, 
        -0.06885722279548645, 
        -0.01739875040948391, 
        -0.005954303313046694, 
        0.22379669547080994, 
        0.05992666259407997, 
        0.17597711086273193, 
        0.012477634474635124, 
        0.14121997356414795, 
        -0.16914333403110504, 
        0.09901675581932068, 
        -0.05695800483226776, 
        -0.5114588141441345, 
        0.1480521857738495, 
        -0.014620104804635048, 
        0.1408262699842453, 
        0.14075948297977448, 
        0.27357158064842224, 
        0.09935638308525085, 
        0.1812080591917038, 
        -0.16758324205875397, 
        -0.48159006237983704, 
        0.2453240007162094, 
        -0.19833457469940186, 
        -0.152866929769516, 
        0.2657143473625183, 
        0.23699989914894104, 
        -0.1384701132774353, 
        0.15480947494506836, 
        -0.15905271470546722, 
        0.3769751787185669, 
        0.4438965320587158, 
        0.637542724609375, 
        0.05141167715191841, 
        0.059411197900772095, 
        0.08329268544912338, 
        -0.31794580817222595, 
        -0.03431481122970581, 
        -0.00955903623253107, 
        0.2520816922187805, 
        -0.6838940978050232, 
        0.06865429878234863, 
        0.13239197432994843, 
        0.019511235877871513, 
        -0.0919947400689125, 
        -0.012327862903475761, 
        -0.05908406153321266, 
        -0.48611176013946533, 
        0.2110777050256729, 
        0.20816998183727264, 
        -0.020097147673368454, 
        -0.18407465517520905, 
        -0.34090152382850647, 
        -0.014547388069331646, 
        -0.5308434963226318, 
        -0.2753920555114746, 
        0.03682180494070053, 
        -0.02701183594763279, 
        -0.05099593475461006, 
        -0.07662759721279144, 
        -0.16667048633098602, 
        0.25080639123916626, 
        0.06758058816194534, 
        -0.12895409762859344, 
        0.19823315739631653, 
        -0.0029216441325843334, 
        -0.23924073576927185, 
        0.24511511623859406, 
        0.20059272646903992, 
        -0.07584338635206223, 
        0.06409686803817749, 
        -0.035906169563531876, 
        0.47204020619392395, 
        0.4747063219547272, 
        -0.13672079145908356, 
        0.2842465937137604, 
        -0.25166115164756775, 
        -0.3014947474002838, 
        -0.4836224615573883, 
        -0.04193989560008049, 
        0.19134069979190826, 
        0.15356405079364777, 
        -0.010372016578912735, 
        0.10708431154489517, 
        0.24454265832901, 
        -0.28841689229011536, 
        -0.25132864713668823, 
        -0.2439422905445099, 
        -0.027304787188768387, 
        0.2535700500011444, 
        0.20750506222248077, 
        -0.18844132125377655, 
        0.13402846455574036, 
        0.001126786693930626, 
        0.09745893627405167, 
        -0.16855964064598083, 
        -0.14906908571720123, 
        0.2743545472621918, 
        -0.09485483914613724, 
        0.04006621986627579, 
        0.40962231159210205, 
        0.04968351870775223, 
        -0.2574780583381653, 
        0.2499905526638031, 
        -0.03986688330769539, 
        0.5044201612472534, 
        0.2356937825679779, 
        -0.12333209812641144, 
        0.018940739333629608, 
        0.10578802973031998, 
        -0.014646589756011963, 
        0.27651354670524597, 
        0.3970189392566681, 
        -0.2786578834056854, 
        0.09764936566352844, 
        0.17318280041217804, 
        0.2264537513256073, 
        -0.2882098853588104, 
        0.06225582957267761, 
        0.19913221895694733, 
        -0.5231473445892334, 
        -0.13738258183002472, 
        -0.05464028939604759, 
        -0.1963557004928589, 
        0.2838807702064514, 
        0.03363434225320816, 
        -0.17490121722221375, 
        -0.06513464450836182, 
        0.06269298493862152, 
        0.16709274053573608, 
        0.2589438855648041, 
        -0.33970850706100464, 
        -0.13232843577861786, 
        -0.23910444974899292, 
        -0.31426700949668884, 
        0.18914492428302765, 
        -0.18253672122955322, 
        0.10360521078109741, 
        0.03373934328556061, 
        0.32676854729652405, 
        0.17671577632427216, 
        0.10018283128738403, 
        0.22551484405994415, 
        0.01576296240091324, 
        -0.28537794947624207, 
        0.1092332974076271, 
        -0.23259663581848145, 
        0.09772571921348572, 
        0.07928358763456345, 
        -0.496756911277771, 
        0.14062243700027466, 
        0.25942936539649963, 
        0.22732608020305634, 
        -0.28450509905815125, 
        0.3210972547531128, 
        -0.0505189411342144, 
        0.4997248351573944, 
        -0.14223062992095947, 
        -0.297823965549469, 
        0.04629633575677872, 
        0.3013290762901306, 
        0.12660542130470276, 
        0.5543968677520752, 
        -0.11780501157045364, 
        0.11855453997850418, 
        0.1014716625213623, 
        0.003196182893589139, 
        0.3886237144470215, 
        0.25523653626441956, 
        0.23759464919567108, 
        0.27296170592308044, 
        0.028707915917038918, 
        -0.17976170778274536, 
        0.09429632872343063, 
        0.4888428747653961, 
        -0.4473532736301422, 
        0.2179064154624939, 
        0.18813340365886688, 
        0.4711754024028778, 
        -0.04231256991624832, 
        0.1249283030629158, 
        0.055537980049848557, 
        0.22486397624015808, 
        -0.027019405737519264, 
        0.22770079970359802, 
        -0.37304484844207764, 
        0.023753857240080833, 
        -0.0387614369392395, 
        0.026055069640278816, 
        -0.25222527980804443, 
        -0.0006001499714329839, 
        0.027156081050634384, 
        -0.49845996499061584, 
        0.3763680160045624, 
        -0.3022434711456299, 
        0.10543549060821533, 
        -0.06323131173849106, 
        0.072380430996418, 
        0.21828296780586243, 
        0.002402519341558218, 
        -0.04737555608153343, 
        -0.5212486982345581, 
        0.17914637923240662, 
        -8.243969932664186e-05, 
        -0.0751374289393425, 
        0.14438346028327942, 
        -0.08983536809682846, 
        -0.11419635266065598, 
        0.28317680954933167, 
        -0.4622995853424072, 
        -0.06723516434431076, 
        0.0812838152050972, 
        0.10716487467288971, 
        0.2027416229248047, 
        -0.3025348484516144, 
        0.3183785080909729, 
        -0.295815646648407, 
        -0.6865765452384949, 
        0.16286034882068634, 
        -0.014540878124535084, 
        0.16683392226696014, 
        -0.2189086228609085, 
        0.1597888171672821, 
        -0.22610649466514587, 
        0.16701339185237885, 
        -0.22047299146652222, 
        -0.3140631914138794, 
        -0.36653366684913635, 
        0.21125750243663788, 
        -0.20699650049209595, 
        -0.46123409271240234, 
        0.21817274391651154, 
        -0.16619345545768738, 
        -0.5371399521827698, 
        0.3442399799823761, 
        0.1218484491109848, 
        -0.07564033567905426, 
        0.45642244815826416, 
        0.022721953690052032, 
        -0.05233369767665863, 
        0.09551241248846054, 
        -0.18950867652893066, 
        -0.05998370423913002, 
        -0.029284248128533363, 
        0.032450318336486816, 
        -0.04626116529107094, 
        0.08097750693559647, 
        -0.08256925642490387, 
        0.2827962636947632, 
        0.08159535378217697, 
        -0.3732425570487976, 
        -0.24435970187187195, 
        0.0947917029261589, 
        0.34310662746429443, 
        -0.13208772242069244, 
        -0.0024580948520451784, 
        -0.2777804434299469, 
        0.2557632625102997, 
        -0.29113709926605225, 
        0.1312255859375, 
        -0.3970422148704529, 
        0.11748243868350983, 
        -0.24912887811660767, 
        -0.08743762224912643, 
        0.4913889765739441, 
        0.0016779366414994001, 
        0.48124635219573975, 
        -0.11212122440338135, 
        0.22924378514289856, 
        -0.604556679725647, 
        0.03622850030660629, 
        -0.48302161693573, 
        -0.1631300002336502, 
        0.5812346935272217, 
        -0.06919373571872711, 
        -0.25466498732566833, 
        0.450491726398468, 
        -0.10732688009738922, 
        -0.1821029931306839, 
        0.05341113358736038, 
        -0.020187808200716972, 
        -0.1316577047109604, 
        -0.493428498506546, 
        -0.2877064645290375, 
        0.0017197045963257551, 
        -0.2816329300403595, 
        0.19842922687530518, 
        -0.07971415668725967, 
        -0.180319681763649, 
        -0.1543213576078415, 
        0.29646262526512146, 
        0.21606944501399994, 
        -0.04037605598568916, 
        0.4960065186023712, 
        0.16132783889770508, 
        0.1349659562110901, 
        0.052253615111112595, 
        -0.09156962484121323, 
        0.21724620461463928, 
        0.2923990488052368, 
        0.9758885502815247, 
        0.0617341548204422, 
        0.6382400393486023, 
        0.14434336125850677, 
        0.26192402839660645, 
        -0.44483810663223267, 
        -0.2800448536872864, 
        0.11093642562627792, 
        -0.22259987890720367, 
        -0.14110346138477325, 
        -0.47571760416030884, 
        -0.07644204795360565, 
        0.009167153388261795, 
        -0.08060545474290848, 
        0.14881294965744019, 
        0.01900237612426281, 
        -0.04889264330267906, 
        0.169328510761261, 
        0.531307578086853, 
        0.2883533239364624, 
        -0.22727905213832855, 
        -0.43846771121025085, 
        -0.1173979863524437, 
        0.4322187006473541, 
        0.46665307879447937, 
        -0.3695293664932251, 
        -0.02562723495066166, 
        -0.3390187621116638, 
        0.22992193698883057, 
        0.12916946411132812, 
        0.09938184171915054, 
        0.060520414263010025, 
        0.10589835047721863, 
        0.20407286286354065, 
        -0.05042063072323799, 
        -0.0900576189160347, 
        0.403888463973999, 
        -0.04301876947283745, 
        -0.04457426443696022, 
        0.22266583144664764, 
        -0.3447282910346985, 
        -0.0858224555850029, 
        -0.17565816640853882, 
        -0.19164295494556427, 
        -0.17254923284053802, 
        0.40697988867759705, 
        -0.2845662236213684, 
        0.062491223216056824, 
        0.29110535979270935, 
        0.32125115394592285, 
        -0.19811482727527618, 
        -0.35257649421691895, 
        -0.11150909960269928, 
        0.36040592193603516, 
        -0.7919855713844299, 
        -0.11688936501741409, 
        -0.12334594875574112, 
        0.01164718996733427, 
        0.07761184126138687, 
        -0.13139721751213074, 
        0.16271427273750305, 
        -0.2580299377441406, 
        -0.21651889383792877, 
        -0.2732127606868744, 
        0.2830660939216614, 
        0.2129952758550644, 
        0.005013607908040285, 
        -0.03635454550385475, 
        0.03122694604098797, 
        -0.10857830196619034, 
        -0.0017409747233614326, 
        0.3410360813140869, 
        -0.24565182626247406, 
        0.017860224470496178, 
        0.12915843725204468, 
        -0.3307584524154663, 
        0.24377648532390594, 
        0.45357149839401245, 
        0.047646064311265945, 
        0.06584122776985168, 
        -0.4059809446334839, 
        -0.3675841689109802, 
        0.26136377453804016, 
        -0.3761667311191559, 
        -0.15946657955646515, 
        -0.059999432414770126, 
        0.05857144296169281, 
        -0.01010207086801529, 
        -0.12569771707057953, 
        0.3774124085903168, 
        -0.0006530642276629806, 
        0.23445263504981995, 
        -0.40993693470954895, 
        -0.48642846941947937, 
        -0.28867679834365845, 
        -0.3839448392391205, 
        -0.152377188205719, 
        -0.11163230240345001, 
        0.10920784622430801, 
        0.3381500542163849, 
        0.08327674120664597, 
        -0.08399863541126251, 
        -0.29977941513061523, 
        0.21005284786224365, 
        -0.1378903090953827, 
        0.09101442247629166, 
        -0.08890162408351898, 
        -0.25882938504219055, 
        0.4662124812602997, 
        -0.35257455706596375, 
        0.10247565805912018, 
        -0.07019917666912079, 
        0.0719953253865242, 
        0.010326934047043324, 
        -0.07488229125738144, 
        -0.10243172943592072, 
        0.15514330565929413, 
        0.03876620903611183, 
        0.3941388726234436, 
        -0.39543282985687256, 
        -0.10793706029653549, 
        0.2105833888053894, 
        -0.03495039790868759, 
        0.32992497086524963, 
        -0.2553468644618988, 
        -0.27943992614746094, 
        0.6298574805259705, 
        0.5579136610031128, 
        0.5200513601303101, 
        0.11320462822914124, 
        0.009448432363569736, 
        -0.2703739106655121, 
        -0.1816035509109497, 
        -0.060581717640161514, 
        0.010718006640672684, 
        0.3255672752857208, 
        -0.13703478872776031, 
        0.06376764178276062, 
        -0.10035531222820282, 
        -0.16407114267349243, 
        -0.1350208818912506, 
        -0.08495955914258957, 
        0.06296790391206741, 
        -0.24250712990760803, 
        0.025901472195982933, 
        -0.17935214936733246, 
        -0.14940954744815826, 
        0.06235611066222191, 
        -0.0831911489367485, 
        -0.5090909600257874, 
        0.3356926143169403, 
        -0.38035017251968384, 
        0.2698853611946106, 
        0.22242218255996704, 
        0.33827731013298035, 
        0.060442280024290085, 
        0.2082723081111908, 
        -0.07866018265485764, 
        -0.10776302963495255, 
        -0.4034753143787384, 
        -0.02986149676144123, 
        0.1469520777463913, 
        0.42169737815856934, 
        0.11810421198606491, 
        0.4551638960838318, 
        0.32927316427230835, 
        -0.11729464679956436, 
        0.03823540732264519, 
        0.2193266749382019, 
        -0.5350676774978638, 
        -0.2919725179672241, 
        0.18373650312423706, 
        -0.12750093638896942, 
        0.15750543773174286, 
        0.08832204341888428, 
        -0.1587536334991455, 
        -0.2847693860530853, 
        0.24502119421958923, 
        -0.06730876117944717, 
        -0.42569610476493835, 
        0.07548936456441879, 
        -0.3596861660480499, 
        0.3540739417076111, 
        0.22170962393283844, 
        0.07309259474277496, 
        0.08085441589355469, 
        -0.30143916606903076, 
        0.2898571491241455, 
        -0.12949901819229126, 
        0.3671499788761139, 
        -0.479065865278244, 
        0.13165196776390076, 
        -0.4294709861278534, 
        0.3280566930770874, 
        0.02692621760070324, 
        0.06317322701215744, 
        -0.1343201994895935, 
        0.09218241274356842, 
        0.2969415485858917, 
        0.24778515100479126, 
        -0.2027161717414856, 
        -0.1117132231593132, 
        -0.3346928358078003, 
        -0.0646059662103653, 
        0.35485514998435974, 
        0.06233630329370499, 
        -0.24636997282505035, 
        -0.4153904616832733, 
        0.3079165518283844, 
        -0.3001263439655304, 
        0.24735085666179657, 
        0.02437651716172695, 
        -0.05830499902367592, 
        0.17371892929077148, 
        -0.36744213104248047, 
        -0.3073265552520752, 
        0.3345324993133545, 
        -0.037190549075603485, 
        -0.279384583234787, 
        0.31319791078567505, 
        -0.2868685722351074, 
        -0.17381437122821808, 
        0.2818903923034668, 
        -0.12742996215820312, 
        -0.13781914114952087, 
        0.4716300368309021, 
        0.4776921272277832, 
        0.06714548170566559, 
        0.3877026438713074, 
        0.003970491234213114, 
        0.10922475904226303, 
        -0.19197915494441986, 
        -0.15545350313186646, 
        0.3478230834007263, 
        -0.21960915625095367, 
        -0.11336356401443481, 
        -0.2514830529689789, 
        -0.06999337673187256, 
        -0.24317826330661774, 
        0.15020684897899628, 
        -0.21114975214004517, 
        -0.10927879065275192, 
        -0.07871636003255844, 
        -0.35723385214805603, 
        0.16158506274223328, 
        -0.2859351336956024, 
        -0.20106589794158936, 
        -0.010881652124226093, 
        -0.06732740998268127, 
        0.14824296534061432, 
        0.2619895040988922, 
        0.10027818381786346, 
        -0.5276146531105042, 
        -0.10863783210515976, 
        0.17768581211566925, 
        -0.47835573554039, 
        -0.26020434498786926, 
        -0.020333582535386086, 
        -0.15582799911499023, 
        0.08123322576284409, 
        -0.07876887917518616, 
        0.22865749895572662, 
        0.39590615034103394, 
        -0.3042168617248535, 
        0.14587558805942535, 
        0.1417263299226761, 
        -0.004916811361908913, 
        -0.11915536224842072, 
        -0.014827482402324677, 
        -0.09451284259557724, 
        0.4737156927585602, 
        0.0017099510878324509, 
        0.060367561876773834, 
        0.22713464498519897, 
        -0.4190158545970917, 
        0.15519388020038605, 
        0.10274853557348251, 
        0.3523246645927429, 
        -0.09401360154151917, 
        0.09233736246824265, 
        0.19545407593250275, 
        0.06284825503826141, 
        -0.2005821317434311, 
        -0.1373756378889084, 
        -0.30197957158088684, 
        0.08440784364938736, 
        -0.41754019260406494, 
        0.08668825030326843, 
        0.23111513257026672, 
        -0.4903361201286316, 
        0.36726266145706177, 
        0.2643364369869232, 
        0.30652952194213867, 
        -0.22597822546958923, 
        -0.27932208776474, 
        0.41413483023643494, 
        -0.22060765326023102, 
        0.16210000216960907, 
        0.32624709606170654, 
        -0.3309074342250824, 
        -0.08200345188379288, 
        0.20381231606006622, 
        0.07249697297811508, 
        -0.33521130681037903, 
        -0.034165218472480774, 
        -0.49540987610816956, 
        0.3324199318885803, 
        -0.12984485924243927, 
        -0.2278868705034256, 
        0.15605811774730682, 
        0.22095397114753723, 
        -0.28199687600135803, 
        0.23541109263896942, 
        -0.38532519340515137, 
        -0.014847580343484879, 
        0.3659108281135559, 
        0.06360074132680893, 
        0.07486054301261902, 
        0.28403931856155396, 
        0.08473896235227585, 
        0.07873988151550293, 
        0.11945904791355133, 
        -0.21960720419883728, 
        0.22127096354961395, 
        -0.5621139407157898, 
        -0.11291868984699249, 
        -0.24963557720184326, 
        -0.29824262857437134, 
        -0.07828591018915176, 
        -0.09655061364173889, 
        -0.015383160673081875, 
        -0.16354191303253174, 
        0.19115667045116425, 
        0.07600763440132141, 
        0.16080637276172638, 
        0.19762136042118073, 
        0.08233341574668884, 
        0.12260972708463669, 
        -0.16011476516723633, 
        0.033713046461343765, 
        -0.13458922505378723, 
        -0.4305683672428131, 
        0.24375006556510925, 
        -0.15474891662597656, 
        0.266368567943573, 
        0.01848648302257061, 
        0.2226468026638031, 
        0.02996015176177025, 
        -0.38157978653907776, 
        0.2602739632129669, 
        0.09449215233325958, 
        0.312104195356369, 
        -0.6021578907966614, 
        -0.11199107021093369, 
        -0.4819701910018921, 
        -0.1661044806241989, 
        -0.1695878952741623, 
        -0.06651850044727325, 
        -0.10865722596645355, 
        -0.04885945841670036, 
        0.11765466630458832, 
        0.31842461228370667, 
        0.6500164866447449, 
        -0.12702077627182007, 
        -0.22402621805667877, 
        0.40534284710884094, 
        -0.3776654899120331, 
        0.2390657365322113, 
        -0.09614970535039902, 
        -0.21316374838352203, 
        -0.03183627128601074, 
        -0.038774460554122925, 
        0.009143165312707424, 
        0.2344689667224884, 
        -0.021279875189065933, 
        -0.21596013009548187, 
        -0.026690132915973663, 
        -0.3235451579093933, 
        0.5870580077171326, 
        -0.38268646597862244, 
        -0.11288343369960785, 
        -0.3043149709701538, 
        0.3944455683231354, 
        0.1265568882226944, 
        0.08821128308773041, 
        0.13059543073177338, 
        0.35308489203453064, 
        0.24915717542171478, 
        -0.29094013571739197, 
        -0.013403009623289108, 
        -0.22348980605602264, 
        -0.24978531897068024, 
        -0.020290756598114967, 
        -0.28401005268096924, 
        -0.11172536015510559, 
        -0.3026592433452606, 
        -0.13699597120285034, 
        0.11545635014772415, 
        -0.41016507148742676, 
        -0.28090813755989075, 
        0.23354637622833252, 
        0.08638636767864227, 
        -0.4104687571525574, 
        0.021216316148638725, 
        0.43754664063453674, 
        -0.2917618155479431, 
        -0.3890400230884552, 
        -0.32950273156166077, 
        -0.07807449996471405, 
        -0.08193223178386688, 
        0.18036292493343353, 
        -0.10400557518005371, 
        0.18232564628124237, 
        -0.3122206926345825, 
        0.2740744650363922, 
        -0.247427299618721, 
        0.3160218596458435, 
        0.23367352783679962, 
        -0.26356878876686096, 
        -0.08109401166439056, 
        0.10351492464542389, 
        0.2857248783111572, 
        0.3289116621017456, 
        0.06744670122861862, 
        0.28476113080978394, 
        0.010218475013971329, 
        -0.2066521942615509, 
        -0.002256296807900071, 
        0.18674784898757935, 
        -0.043816059827804565, 
        -0.15581880509853363, 
        0.015498727560043335, 
        -0.14377766847610474, 
        -0.01266650389879942, 
        0.14414803683757782, 
        -0.14527800679206848, 
        0.3417741656303406, 
        -0.08722341805696487, 
        0.12275274097919464, 
        0.5244348049163818, 
        0.020287657156586647, 
        0.06950359046459198, 
        -0.18417608737945557, 
        -0.24111749231815338, 
        -0.35683783888816833, 
        -0.08506041765213013, 
        0.23671522736549377, 
        0.23661735653877258, 
        -0.26891404390335083, 
        -0.10003059357404709, 
        0.33862069249153137, 
        -0.358631432056427, 
        -0.23235854506492615, 
        0.23164957761764526, 
        0.27695223689079285, 
        -0.04273700714111328, 
        -0.18695300817489624, 
        -0.27453818917274475, 
        -0.03502673655748367, 
        0.375711053609848, 
        0.4288579225540161, 
        0.17531216144561768, 
        -0.1707451343536377, 
        0.016115078702569008, 
        0.03349032625555992, 
        -0.2028137743473053, 
        -0.09850180894136429, 
        -0.12390781193971634, 
        -0.14554958045482635, 
        0.08424264192581177, 
        0.7922170162200928, 
        0.31686684489250183, 
        -0.024090060964226723, 
        -0.5420316457748413, 
        0.2079351395368576, 
        -0.0934440866112709, 
        -0.17926201224327087, 
        0.39440375566482544, 
        0.7516058683395386, 
        0.01908053457736969, 
        -0.09593932330608368, 
        -0.014119217172265053, 
        -0.09391418099403381, 
        0.098406121134758, 
        0.3873365819454193, 
        0.10827866941690445, 
        0.45062360167503357, 
        0.07816455513238907, 
        0.15737409889698029, 
        0.16386596858501434, 
        0.08700262010097504, 
        0.24382975697517395, 
        -0.1737244874238968, 
        0.2864416241645813, 
        -0.3413214683532715, 
        -0.00820829439908266, 
        -0.41948530077934265, 
        0.04854128882288933, 
        -0.5141002535820007, 
        0.05295645445585251, 
        -0.0923512652516365, 
        0.003650514641776681, 
        -0.17001426219940186, 
        -0.1500970721244812, 
        0.46951815485954285, 
        0.2512962520122528, 
        0.470253050327301, 
        -0.02466360479593277, 
        0.13225175440311432, 
        -0.23984214663505554, 
        -0.062152307480573654, 
        0.08903376758098602, 
        -0.049922876060009, 
        0.24394124746322632, 
        -0.5436697602272034, 
        -0.13849785923957825, 
        -0.2749002277851105, 
        -0.11799564957618713, 
        0.1382226049900055, 
        0.1717085838317871, 
        -0.1378435492515564, 
        -0.370602548122406, 
        0.04351072758436203, 
        -0.1056610643863678, 
        -0.19210383296012878, 
        0.03124539740383625, 
        0.00595758156850934, 
        -0.5674679279327393, 
        0.25708436965942383, 
        -0.22787755727767944, 
        -0.0027067186310887337, 
        0.5242915749549866, 
        0.2308904230594635, 
        -0.020728755742311478, 
        0.1309238076210022, 
        -0.19791856408119202, 
        -0.18310700356960297, 
        0.3227074146270752, 
        -0.16321788728237152, 
        0.14945939183235168, 
        0.40853145718574524, 
        -0.2683696746826172, 
        0.5015402436256409, 
        0.3562864661216736, 
        -0.23307092487812042, 
        -0.24267148971557617, 
        0.38443779945373535, 
        -0.35830947756767273, 
        -0.22251735627651215, 
        0.27495625615119934, 
        0.37188172340393066, 
        -0.2009713351726532, 
        0.23152971267700195, 
        0.15726791322231293, 
        -0.022487061098217964, 
        0.22078582644462585, 
        -0.18943534791469574, 
        0.3210608959197998, 
        -0.619785726070404, 
        -0.0925772413611412, 
        -0.10672459006309509, 
        -0.07886070013046265, 
        0.19967982172966003, 
        -0.25253722071647644, 
        -0.34883004426956177, 
        0.3226858079433441, 
        0.11632753163576126, 
        0.19841547310352325, 
        -0.008884903974831104, 
        0.5075269937515259, 
        0.41439294815063477, 
        0.08933786302804947, 
        -0.1718144714832306, 
        0.03465672582387924, 
        0.18735119700431824, 
        0.08472218364477158, 
        0.46573537588119507, 
        -0.10917001962661743, 
        0.15171270072460175, 
        0.03185204789042473, 
        0.07819724828004837, 
        0.3434976041316986, 
        -0.5796629190444946, 
        -0.006820907350629568, 
        0.049975767731666565, 
        -0.4286626875400543, 
        -0.22363196313381195, 
        0.04244312644004822, 
        0.15568053722381592, 
        -0.27574923634529114, 
        -0.12765739858150482, 
        0.01372886449098587, 
        -0.07818753272294998, 
        0.008873988874256611, 
        0.39942657947540283, 
        0.25262919068336487, 
        0.3148311674594879, 
        -0.0020056681241840124, 
        -0.2752087116241455, 
        0.2855945825576782, 
        0.05510297045111656, 
        -0.20123571157455444, 
        -0.04507870599627495, 
        -0.08039853721857071, 
        -0.3083016276359558, 
        0.3917323052883148, 
        0.1204068586230278, 
        0.06831198185682297, 
        -0.113616444170475, 
        0.045169442892074585, 
        -0.18055617809295654, 
        0.1882767528295517, 
        -0.30367010831832886, 
        -0.17018307745456696, 
        -0.23519055545330048, 
        -0.17438346147537231, 
        0.08405870944261551, 
        0.21759319305419922, 
        0.03231407329440117, 
        -0.0890459269285202, 
        0.013160536997020245, 
        -0.654502272605896, 
        0.0730147510766983, 
        0.07761480659246445, 
        -0.05425894260406494, 
        -0.10530073195695877, 
        -0.06261712312698364, 
        0.01525729987770319, 
        -0.12150254845619202, 
        -0.1166580393910408, 
        0.4074595272541046, 
        0.3486325442790985, 
        -0.030267035588622093, 
        -0.03806930035352707, 
        -0.14639581739902496, 
        -0.23455089330673218, 
        0.2685614824295044, 
        -0.21584339439868927, 
        -0.2534891366958618, 
        0.32116082310676575, 
        -0.756468653678894, 
        0.15356403589248657, 
        -0.060392074286937714, 
        0.0014483766863122582, 
        0.09478408843278885, 
        -0.07670123875141144, 
        -0.09006820619106293, 
        0.2282707542181015, 
        -0.3509015440940857, 
        0.26027539372444153, 
        -0.23506848514080048, 
        0.036768265068531036, 
        0.18894009292125702, 
        0.19727636873722076, 
        -0.11567147821187973, 
        0.177638441324234, 
        -0.2492663711309433, 
        -0.09487380087375641, 
        -0.02819497510790825, 
        0.3642878830432892, 
        0.40046972036361694, 
        0.04295235499739647, 
        0.05126407742500305, 
        0.0047472454607486725, 
        0.1506115198135376, 
        0.14385147392749786, 
        0.4009631276130676, 
        -0.3505430519580841, 
        0.6248266100883484, 
        0.4315529763698578, 
        -0.08158476650714874, 
        -0.22098968923091888, 
        0.16729842126369476, 
        -0.03925997018814087, 
        -0.04507811367511749, 
        0.21052588522434235, 
        0.6548948287963867, 
        0.08088301867246628, 
        -0.033987678587436676, 
        0.2029995173215866, 
        0.1306699514389038, 
        0.14718078076839447, 
        0.07133473455905914, 
        -0.17958086729049683, 
        -0.11271638423204422, 
        0.28958380222320557, 
        0.034141987562179565, 
        0.13638508319854736, 
        0.11189660429954529, 
        0.5375394225120544, 
        0.26600658893585205, 
        0.011202815920114517, 
        0.014708164148032665, 
        -0.3459043502807617, 
        0.31452715396881104, 
        -0.42484578490257263, 
        -0.30048128962516785, 
        0.06636080890893936, 
        -0.013215639628469944, 
        -0.21124392747879028, 
        -0.13228978216648102, 
        0.1696302741765976, 
        -0.04143957793712616, 
        0.0723397508263588, 
        0.09703247249126434, 
        -0.3574727773666382, 
        -0.05660612881183624, 
        0.11620505899190903, 
        0.06099299341440201, 
        -0.06208645552396774, 
        0.1429166942834854, 
        -0.47826093435287476, 
        0.16528446972370148, 
        -0.32590413093566895, 
        -0.20810893177986145, 
        -0.1517278552055359, 
        -0.1705293506383896, 
        -0.020838646218180656, 
        -0.31982025504112244, 
        0.4098731577396393, 
        -0.41263145208358765, 
        -0.04623859003186226, 
        -0.4097793698310852, 
        -0.2550124526023865, 
        -0.13147850334644318, 
        -0.11111489683389664, 
        -0.20380574464797974, 
        0.12235898524522781, 
        -0.3577653169631958, 
        0.13136042654514313, 
        0.47907209396362305, 
        -0.09777689725160599, 
        0.008442413061857224, 
        -0.17438353598117828, 
        0.1376878321170807, 
        0.2795239984989166, 
        -0.0338161364197731, 
        0.4336053133010864, 
        -0.3718346059322357, 
        -0.5255407691001892, 
        -0.2507365345954895, 
        -0.0007984624244272709, 
        -0.13955749571323395, 
        -0.9232659935951233, 
        -0.020121192559599876, 
        -0.027471911162137985, 
        -0.007209512405097485, 
        0.12278255075216293, 
        -0.04142531007528305, 
        -0.09512702375650406, 
        -0.12217696756124496, 
        -0.12456296384334564, 
        0.07910936325788498, 
        -0.03670710325241089, 
        -0.08283815532922745, 
        -0.11879679560661316, 
        0.4124860465526581, 
        -0.3564527630805969, 
        0.2406095415353775, 
        0.31223973631858826, 
        -0.19526688754558563, 
        0.1481752097606659, 
        -0.23328229784965515, 
        0.3412184417247772, 
        -0.1632932722568512, 
        0.050508614629507065, 
        0.6239053010940552, 
        -0.17048566043376923, 
        -0.303415447473526, 
        0.1626480519771576, 
        -0.2021160125732422, 
        -0.296078085899353, 
        -0.11481230705976486, 
        -0.15298457443714142, 
        -0.703110933303833, 
        0.20029939711093903, 
        -0.2830463647842407, 
        0.040809132158756256, 
        0.17302846908569336, 
        -0.07784523814916611, 
        0.13134506344795227, 
        0.19365142285823822, 
        0.13566453754901886, 
        0.2312680333852768, 
        0.19453777372837067, 
        -0.315646231174469, 
        -0.15297140181064606, 
        0.2018563151359558, 
        -0.1930062174797058, 
        -0.11458450555801392, 
        0.026924924924969673, 
        0.035554610192775726, 
        -0.4010813236236572, 
        0.11794336140155792, 
        -0.04767923802137375, 
        0.17733004689216614, 
        -0.14687436819076538, 
        0.1494109183549881, 
        -0.08042968809604645, 
        -0.2771010100841522, 
        0.22330015897750854, 
        -0.3692719042301178, 
        -0.16382907330989838, 
        -0.26277363300323486, 
        0.00581259373575449, 
        0.14496108889579773, 
        0.012935890816152096, 
        0.03750092536211014, 
        -0.2939249873161316, 
        -0.26960450410842896, 
        0.46565091609954834, 
        -0.0984305664896965, 
        -0.36348891258239746, 
        0.10585858672857285, 
        -0.027072926983237267, 
        -0.4848116338253021, 
        -0.191454216837883, 
        0.28628551959991455, 
        0.2578175365924835, 
        0.27124205231666565, 
        -0.06397367268800735, 
        -0.07036179304122925, 
        -0.3281137943267822, 
        -0.28588905930519104, 
        0.1097102239727974, 
        0.24908454716205597, 
        0.17633125185966492, 
        -0.24820387363433838, 
        0.2790287137031555, 
        0.10313607007265091, 
        0.3543374836444855, 
        -0.09803672879934311, 
        0.17523951828479767, 
        -0.5437408685684204, 
        -0.08501109480857849, 
        -0.007925380952656269, 
        -0.31516650319099426, 
        0.17326414585113525, 
        0.22313891351222992, 
        0.28497445583343506, 
        -0.3625267744064331, 
        -0.27045270800590515, 
        0.19396989047527313, 
        -0.09157378226518631, 
        -0.1548524647951126, 
        0.16818755865097046, 
        -0.49403369426727295, 
        -0.14098533987998962, 
        -0.011986644007265568, 
        -0.1544369012117386, 
        -0.03649737685918808, 
        0.03569414094090462, 
        0.03720445930957794, 
        -0.08033595234155655, 
        -0.04951414093375206, 
        -0.5293977856636047, 
        0.23455208539962769, 
        0.4083773195743561, 
        0.21852929890155792, 
        0.022466572001576424, 
        0.05210758373141289, 
        -0.03382275253534317, 
        0.047775235027074814, 
        -0.23122909665107727, 
        0.3015749752521515, 
        -0.17386743426322937, 
        0.4878201484680176, 
        0.11109476536512375, 
        0.03525765240192413, 
        -0.5287832021713257, 
        -0.14811934530735016, 
        -0.20805692672729492, 
        0.23742885887622833, 
        0.15582357347011566, 
        0.2989351749420166, 
        0.07597639411687851, 
        -0.010033894330263138, 
        -0.38189420104026794, 
        -0.3892532289028168, 
        0.10301081836223602, 
        -0.03658460080623627, 
        -0.0013076376635581255, 
        -0.31703442335128784, 
        0.10554442554712296, 
        0.30902260541915894, 
        0.06444438546895981, 
        0.3460628092288971, 
        -0.33068719506263733, 
        -0.17462307214736938, 
        -0.00662633404135704, 
        0.09939202666282654, 
        0.2000548094511032, 
        0.27834394574165344, 
        0.3284229636192322, 
        0.6149213910102844, 
        0.2234545350074768, 
        0.1395345777273178, 
        0.1481446772813797, 
        -0.3423207402229309, 
        -0.3162743151187897, 
        -0.2916734218597412, 
        -0.2333519160747528, 
        0.03545308858156204, 
        -0.23132282495498657, 
        0.08980396389961243, 
        0.320404976606369, 
        -0.0030089938081800938, 
        0.3512263298034668, 
        0.33119842410087585, 
        -0.15230359137058258, 
        0.13163061439990997, 
        0.2506363093852997, 
        0.24826885759830475, 
        -0.18401440978050232, 
        -0.12000385671854019, 
        -0.044947728514671326, 
        0.08955946564674377
      ]
    }, 
    {
      "activation": "rectified", 
      "architecture": "dense", 
      "bias": [
        0.04198954626917839, 
        -0.03872019052505493, 
        0.03701488673686981, 
        0.11634813994169235, 
        0.0073130493983626366, 
        -0.000723715522326529, 
        -0.0014198366552591324, 
        -0.0013625555438920856, 
        0.09261123836040497, 
        0.09478249400854111, 
        0.07748517394065857, 
        0.06152384355664253, 
        -0.007333568297326565, 
        0.05070573464035988, 
        -0.004476923029869795, 
        0.04666684940457344, 
        0.003977788146585226, 
        0.08855447173118591, 
        0.03565395250916481, 
        -0.031561050564050674, 
        0.09021085500717163, 
        0.002757755806669593, 
        0.008667387068271637, 
        0.04656975343823433, 
        0.054103340953588486, 
        -0.10920047760009766, 
        -0.04112457111477852, 
        0.037111446261405945, 
        -0.006257612258195877, 
        -0.03350521996617317, 
        0.001947656157426536, 
        0.03344481438398361, 
        -0.04850360378623009, 
        0.038205038756132126, 
        0.04564707726240158, 
        -0.04357902705669403, 
        0.04721708968281746, 
        -0.0039005905855447054, 
        0.025610843673348427, 
        -0.004615135490894318, 
        0.11536641418933868, 
        -0.006479106843471527, 
        0.04031403362751007, 
        0.04967160150408745, 
        -0.06604165583848953, 
        0.11720774322748184, 
        0.03284302353858948, 
        0.004824986681342125, 
        -0.005231725983321667, 
        0.02132614329457283, 
        -0.016035698354244232, 
        -0.0035610164050012827, 
        -0.030534652993083, 
        -0.012736363336443901, 
        -0.0013079855125397444, 
        0.09656748920679092, 
        0.07243921607732773, 
        0.04906603693962097, 
        0.09676253795623779, 
        0.08609309792518616
      ], 
      "weights": [
        -0.014014105312526226, 
        0.06002413481473923, 
        0.2863572835922241, 
        -0.08310224115848541, 
        -0.1758468896150589, 
        0.010167097672820091, 
        0.22696220874786377, 
        -0.09978298097848892, 
        0.18559493124485016, 
        -0.1630840003490448, 
        -0.16262495517730713, 
        0.2118203043937683, 
        0.22429482638835907, 
        -0.014057968743145466, 
        0.24582213163375854, 
        0.18363136053085327, 
        0.10462115705013275, 
        0.047436363995075226, 
        -0.0719037652015686, 
        -0.11301443725824356, 
        0.08425800502300262, 
        -0.12485957890748978, 
        -0.045736733824014664, 
        -0.05718264728784561, 
        0.03365321457386017, 
        -0.14683470129966736, 
        0.0389181524515152, 
        -0.08934962004423141, 
        -0.1475275158882141, 
        0.0009959182934835553, 
        0.089278444647789, 
        0.1264442354440689, 
        -0.36453378200531006, 
        -0.11822664737701416, 
        -0.0009709493024274707, 
        -0.11785538494586945, 
        0.19134189188480377, 
        0.021123936399817467, 
        0.18970206379890442, 
        -0.17121249437332153, 
        0.00023141552810557187, 
        -0.0796193927526474, 
        -0.15799736976623535, 
        -0.08481745421886444, 
        0.10130877047777176, 
        0.1706218421459198, 
        -0.13000668585300446, 
        -0.0708877295255661, 
        0.2204805612564087, 
        0.0002106749452650547, 
        -0.3806733787059784, 
        -0.005253871437162161, 
        0.1307593435049057, 
        0.10481446236371994, 
        -0.13952825963497162, 
        0.2762664556503296, 
        0.2312699258327484, 
        0.20620836317539215, 
        -0.14860612154006958, 
        0.10588255524635315, 
        0.012634338811039925, 
        0.03527181223034859, 
        0.03283542022109032, 
        -0.2555270493030548, 
        -0.06760480254888535, 
        0.05697518587112427, 
        0.06173039600253105, 
        -0.11760759353637695, 
        0.023745710030198097, 
        -0.11836536228656769, 
        -0.17754709720611572, 
        0.1948164850473404, 
        -0.09991375356912613, 
        0.137321338057518, 
        0.0519087091088295, 
        0.1756967306137085, 
        -0.26977893710136414, 
        0.19144192337989807, 
        0.20546363294124603, 
        -0.019430840387940407, 
        0.03220526874065399, 
        0.1760840117931366, 
        -0.17119383811950684, 
        -0.2015829235315323, 
        0.10929634422063828, 
        -0.03748186677694321, 
        -0.04159703478217125, 
        0.047528356313705444, 
        -0.39332184195518494, 
        -0.02077372744679451, 
        -0.18724413216114044, 
        0.17919082939624786, 
        -0.27450990676879883, 
        -0.20954608917236328, 
        -0.3236212730407715, 
        -0.13413621485233307, 
        -0.029880167916417122, 
        -0.22146780788898468, 
        0.1197965145111084, 
        0.015432958491146564, 
        -0.1017027348279953, 
        0.1495593637228012, 
        0.20372430980205536, 
        -0.038450874388217926, 
        -0.05444828420877457, 
        0.1057044267654419, 
        -0.146174356341362, 
        -0.0411093533039093, 
        -0.06968220323324203, 
        0.12715217471122742, 
        0.19935226440429688, 
        -0.3233942687511444, 
        -0.1418205350637436, 
        0.07188752293586731, 
        -0.02417401410639286, 
        -0.09131255745887756, 
        -0.10675989091396332, 
        -0.13644160330295563, 
        -0.12317783385515213, 
        -0.2188621163368225, 
        0.1577264815568924, 
        0.11410487443208694, 
        -0.1386929452419281, 
        0.10002937912940979, 
        -0.003655008040368557, 
        -0.11067372560501099, 
        0.0003082534531131387, 
        -0.11564633995294571, 
        0.21849074959754944, 
        -0.241484597325325, 
        -0.0020125017035752535, 
        -0.14564038813114166, 
        -0.10038343071937561, 
        0.053926900029182434, 
        0.15121914446353912, 
        -0.07992096245288849, 
        -0.006530273240059614, 
        0.14324046671390533, 
        -0.0361110083758831, 
        -0.07283730804920197, 
        0.32349103689193726, 
        0.1960216462612152, 
        -0.023513400927186012, 
        -0.29950258135795593, 
        0.0026206939946860075, 
        0.10644970089197159, 
        -0.06519453227519989, 
        0.05277250334620476, 
        -0.054524682462215424, 
        0.10343151539564133, 
        -0.013837138190865517, 
        -0.3177642524242401, 
        -0.014540697447955608, 
        -0.029140140861272812, 
        -0.09171178936958313, 
        0.2515377104282379, 
        -0.011172269470989704, 
        -0.11379747837781906, 
        -0.08167742192745209, 
        0.1697782278060913, 
        0.061540085822343826, 
        -0.16905106604099274, 
        -0.09759093821048737, 
        -0.0495709590613842, 
        0.2398815155029297, 
        -0.2826405167579651, 
        -0.09311051666736603, 
        -0.031544823199510574, 
        0.06690584868192673, 
        0.04250294715166092, 
        0.05686389282345772, 
        -0.016282634809613228, 
        0.17071287333965302, 
        0.06779516488313675, 
        -0.26645708084106445, 
        -0.3875390589237213, 
        -0.24067917466163635, 
        -0.08709967881441116, 
        -0.035664550960063934, 
        0.12271787971258163, 
        0.10500286519527435, 
        0.04426008462905884, 
        0.24362368881702423, 
        -0.10418977588415146, 
        -0.2047024369239807, 
        0.08525252342224121, 
        0.10094375908374786, 
        0.2620856463909149, 
        0.08705850690603256, 
        -0.10167098790407181, 
        -0.38519975543022156, 
        0.168299600481987, 
        -0.08172415941953659, 
        -0.23034541308879852, 
        -0.04817903786897659, 
        -0.07971180230379105, 
        0.03403180092573166, 
        0.009557569399476051, 
        0.11050686985254288, 
        -0.17708654701709747, 
        -0.0926705077290535, 
        0.15438425540924072, 
        -0.008877488784492016, 
        0.10093023627996445, 
        -0.09391552209854126, 
        0.04489855468273163, 
        0.11366245895624161, 
        -0.02808464504778385, 
        0.17517054080963135, 
        -0.028730744495987892, 
        0.11391661316156387, 
        -0.29953259229660034, 
        -0.14563901722431183, 
        0.046297792345285416, 
        0.09156370908021927, 
        -0.2534366250038147, 
        -0.10262797772884369, 
        -0.5041404366493225, 
        0.13380537927150726, 
        0.013588774017989635, 
        -0.25376418232917786, 
        -0.11907121539115906, 
        -0.3438127040863037, 
        0.0469038262963295, 
        0.019945470616221428, 
        -0.23863890767097473, 
        0.0013271705247461796, 
        -0.16760794818401337, 
        -0.19289857149124146, 
        -0.07097330689430237, 
        0.1471957564353943, 
        0.1068601906299591, 
        -0.10035257786512375, 
        -0.18586483597755432, 
        -0.068744957447052, 
        -0.2849252223968506, 
        0.04381083324551582, 
        -0.05627688020467758, 
        -0.3251093327999115, 
        0.03444836288690567, 
        -0.02044433169066906, 
        -0.02749919332563877, 
        0.11398084461688995, 
        -0.0931834876537323, 
        0.015578662045300007, 
        0.05779570713639259, 
        0.08519033342599869, 
        -0.14809998869895935, 
        0.10299380868673325, 
        -0.1650753915309906, 
        -0.08528265357017517, 
        -0.04056600481271744, 
        0.13723593950271606, 
        0.03625220060348511, 
        0.11450336128473282, 
        -0.3888916075229645, 
        0.1795109212398529, 
        -0.11228486150503159, 
        -0.12180693447589874, 
        0.15904010832309723, 
        -0.0619288794696331, 
        0.22552119195461273, 
        0.09465593844652176, 
        -0.17015421390533447, 
        0.017519012093544006, 
        0.0510546937584877, 
        -0.12293261289596558, 
        -0.01657184027135372, 
        -0.07532442361116409, 
        0.00793313980102539, 
        0.01790042221546173, 
        0.19360923767089844, 
        0.04011066257953644, 
        0.1663297861814499, 
        -0.2696317434310913, 
        0.04427659884095192, 
        -0.12964093685150146, 
        -0.17290113866329193, 
        -0.03683843836188316, 
        -0.04284431040287018, 
        -0.034998178482055664, 
        -0.19886569678783417, 
        -0.07298672199249268, 
        -0.26567429304122925, 
        -0.13569319248199463, 
        -0.008330817334353924, 
        0.24906326830387115, 
        -0.22547832131385803, 
        -0.15067234635353088, 
        0.1077883392572403, 
        -0.06062718480825424, 
        0.08259951323270798, 
        -0.11760954558849335, 
        -0.035405922681093216, 
        0.1323596090078354, 
        -0.14936484396457672, 
        -0.014242641627788544, 
        -0.03537086397409439, 
        0.23722116649150848, 
        0.04424561932682991, 
        -0.19436632096767426, 
        -0.2695390284061432, 
        0.16555027663707733, 
        0.07274753600358963, 
        -0.20789065957069397, 
        -0.14640915393829346, 
        0.2099715918302536, 
        -0.14535532891750336, 
        0.052951373159885406, 
        0.010645759291946888, 
        0.038511913269758224, 
        -0.11369302868843079, 
        -0.03280452638864517, 
        -0.13236184418201447, 
        0.08381515741348267, 
        -0.0753774642944336, 
        -0.36311137676239014, 
        -0.091478131711483, 
        -0.1446009874343872, 
        -0.10095168650150299, 
        0.08361458778381348, 
        -0.0028554073069244623, 
        -0.23869283497333527, 
        0.15940359234809875, 
        0.062305983155965805, 
        -0.020426219329237938, 
        0.03848700970411301, 
        -0.14890156686306, 
        0.07745490223169327, 
        -0.30518075823783875, 
        -0.019813625141978264, 
        -0.021178768947720528, 
        -0.2664230167865753, 
        0.12014199048280716, 
        -0.19913893938064575, 
        0.01231506559997797, 
        0.12554346024990082, 
        0.1865009367465973, 
        0.03288865461945534, 
        -0.02669038437306881, 
        -0.060529474169015884, 
        0.0009329033200629056, 
        -0.17288090288639069, 
        -0.07240615040063858, 
        -0.047278620302677155, 
        -0.06741305440664291, 
        -0.129783496260643, 
        -0.054142240434885025, 
        -0.1063048243522644, 
        -0.10298922657966614, 
        0.1239091232419014, 
        -0.18039195239543915, 
        0.161944180727005, 
        -0.14689700305461884, 
        -0.02758631855249405, 
        -0.012422633357346058, 
        -0.2026660442352295, 
        -0.19772331416606903, 
        -0.12531977891921997, 
        -0.0789811834692955, 
        0.0016220282996073365, 
        -0.14411602914333344, 
        -0.12988147139549255, 
        -0.01053086668252945, 
        -0.21969643235206604, 
        -0.38281968235969543, 
        -0.10048986226320267, 
        0.09423751384019852, 
        -0.1965772956609726, 
        0.020694540813565254, 
        0.03994760289788246, 
        0.06546837836503983, 
        0.0332597941160202, 
        0.000718207040335983, 
        -0.28661414980888367, 
        0.02339857816696167, 
        -0.26407524943351746, 
        -0.3556753396987915, 
        0.11689355224370956, 
        0.04039100185036659, 
        -0.04269494116306305, 
        -0.027715343981981277, 
        -0.021481221541762352, 
        0.11015569418668747, 
        -0.14008264243602753, 
        -0.09036034345626831, 
        0.134496808052063, 
        -0.18944519758224487, 
        0.03739192336797714, 
        0.03971058875322342, 
        -0.265228271484375, 
        -0.17140650749206543, 
        0.13149505853652954, 
        0.010172474198043346, 
        -0.29886338114738464, 
        -0.08152361959218979, 
        -0.0950491726398468, 
        -0.01616658829152584, 
        0.03254508972167969, 
        0.11906255036592484, 
        -0.01611906848847866, 
        0.08105699717998505, 
        -0.2530137300491333, 
        0.059594932943582535, 
        0.09182128310203552, 
        0.18136203289031982, 
        0.12807495892047882, 
        -0.10055852681398392, 
        -0.09802873432636261, 
        0.06658579409122467, 
        0.09333407878875732, 
        -0.0961509495973587, 
        0.0775127038359642, 
        0.04292099550366402, 
        -0.20223432779312134, 
        -0.02778099849820137, 
        0.02678132988512516, 
        -0.11713982373476028, 
        0.06863348931074142, 
        -0.21208231151103973, 
        0.09245026856660843, 
        0.10688580572605133, 
        0.014860577881336212, 
        0.15236429870128632, 
        0.2305702567100525, 
        0.09615295380353928, 
        -0.1037115529179573, 
        -0.042271748185157776, 
        0.1508064568042755, 
        -0.14994047582149506, 
        0.07044298201799393, 
        -0.09845183789730072, 
        0.13634343445301056, 
        -0.0981239452958107, 
        0.11843990534543991, 
        -0.07576119899749756, 
        -0.11479229480028152, 
        0.060442619025707245, 
        -0.09948723763227463, 
        0.17320691049098969, 
        0.07286018133163452, 
        -0.12798848748207092, 
        -0.1761360615491867, 
        0.07991667091846466, 
        -0.2439335286617279, 
        0.03914251551032066, 
        0.10714446008205414, 
        0.03855668008327484, 
        -0.20186050236225128, 
        0.126417338848114, 
        0.020240021869540215, 
        0.12260771542787552, 
        -0.03362417593598366, 
        0.13307715952396393, 
        0.06808504462242126, 
        -0.14463438093662262, 
        0.003437803126871586, 
        -0.19482876360416412, 
        -0.028920331969857216, 
        0.04241981357336044, 
        -0.10234487801790237, 
        -0.02546544186770916, 
        -0.05393537878990173, 
        0.1426316648721695, 
        -0.08441423624753952, 
        0.14664116501808167, 
        -0.04988587275147438, 
        -0.007230038288980722, 
        -0.04989279806613922, 
        -0.05438247695565224, 
        -0.06319424510002136, 
        -0.07960425317287445, 
        0.22704605758190155, 
        -0.12994863092899323, 
        0.050619617104530334, 
        -0.12658748030662537, 
        -0.07002786546945572, 
        -0.31910741329193115, 
        -0.08059423416852951, 
        -0.20918354392051697, 
        0.04698792099952698, 
        0.047674041241407394, 
        0.022397859022021294, 
        -0.1963750720024109, 
        -0.12786324322223663, 
        -0.2543947100639343, 
        0.06239280477166176, 
        0.057482726871967316, 
        -0.07350969314575195, 
        0.06878064572811127, 
        0.006679133046418428, 
        0.02488700859248638, 
        -0.02425244450569153, 
        -0.09796883910894394, 
        -0.15991029143333435, 
        -0.22967348992824554, 
        -0.03375242277979851, 
        0.15381459891796112, 
        -0.06980762630701065, 
        0.012760191224515438, 
        0.07935691624879837, 
        0.14588084816932678, 
        0.17930075526237488, 
        -0.27203068137168884, 
        -0.03565355762839317, 
        -0.10188807547092438, 
        -0.0029838932678103447, 
        -0.00036134797846898437, 
        -0.0016805529594421387, 
        0.11605790257453918, 
        -0.02946428768336773, 
        0.08799715340137482, 
        -0.2621763050556183, 
        0.05699528381228447, 
        0.171144500374794, 
        -0.024907371029257774, 
        -0.056492678821086884, 
        -0.12847648561000824, 
        -0.06130625307559967, 
        -0.17140185832977295, 
        -0.060223083943128586, 
        0.034186869859695435, 
        -0.070720374584198, 
        -0.13906696438789368, 
        -0.022280724719166756, 
        0.11403299123048782, 
        0.003624235512688756, 
        -0.03474375233054161, 
        0.09248963743448257, 
        -0.012342510744929314, 
        0.09725702553987503, 
        -0.002933686599135399, 
        -0.03873981535434723, 
        -0.09381566196680069, 
        -0.020232466980814934, 
        -0.183401420712471, 
        0.20280568301677704, 
        0.04683660343289375, 
        -0.04536867514252663, 
        -0.13717447221279144, 
        -0.016638334840536118, 
        -0.011923156678676605, 
        0.13731183111667633, 
        0.032521773129701614, 
        0.08382746577262878, 
        -0.04902797192335129, 
        0.09677817672491074, 
        -0.03519456088542938, 
        0.11918497830629349, 
        -0.013945616781711578, 
        0.2135486751794815, 
        -0.07354743033647537, 
        -0.16984425485134125, 
        -0.4714025855064392, 
        0.07363218069076538, 
        -0.039032164961099625, 
        -0.1912236213684082, 
        0.014144938439130783, 
        0.09921619296073914, 
        -0.12150280922651291, 
        0.07685807347297668, 
        0.08412928879261017, 
        -0.24333688616752625, 
        0.3066055476665497, 
        0.017558692023158073, 
        0.03484160825610161, 
        -0.09904052317142487, 
        -0.20538008213043213, 
        -0.16381745040416718, 
        0.016245290637016296, 
        0.02792459912598133, 
        -0.06813756376504898, 
        -0.19939865171909332, 
        0.036440398544073105, 
        -0.10704736411571503, 
        -0.056254416704177856, 
        0.098771832883358, 
        -0.10466401278972626, 
        -0.00637608440592885, 
        -0.016273891553282738, 
        0.11848527938127518, 
        0.1429157704114914, 
        -0.13932499289512634, 
        -0.15049853920936584, 
        -0.10646896809339523, 
        -0.28687819838523865, 
        -0.08893216401338577, 
        -0.1024891808629036, 
        -0.06722051650285721, 
        -0.2132461816072464, 
        -0.03309057652950287, 
        0.04497171938419342, 
        -0.018443385139107704, 
        0.09345604479312897, 
        -0.035401757806539536, 
        -0.17901568114757538, 
        -0.25040650367736816, 
        -0.07372099906206131, 
        -0.22612087428569794, 
        -0.25005170702934265, 
        0.0485423319041729, 
        -0.23398536443710327, 
        -0.08466815203428268, 
        0.018355049192905426, 
        -0.23089982569217682, 
        -0.35399800539016724, 
        0.007571062538772821, 
        0.22092314064502716, 
        -0.19206751883029938, 
        0.10498923808336258, 
        -0.17193332314491272, 
        -0.026949461549520493, 
        -0.229132741689682, 
        0.030055198818445206, 
        -0.3166060149669647, 
        -0.20575661957263947, 
        -0.10061979293823242, 
        -0.023001430556178093, 
        -0.044728588312864304, 
        -0.3030664920806885, 
        0.0236409530043602, 
        -0.24442458152770996, 
        -0.14138740301132202, 
        -0.0430758073925972, 
        -0.10001058131456375, 
        0.0666263997554779, 
        -0.1416987031698227, 
        -0.012003293260931969, 
        0.003742398228496313, 
        -0.21453696489334106, 
        0.16717688739299774, 
        -0.1603354513645172, 
        0.05370406061410904, 
        0.11173833906650543, 
        -0.004611873999238014, 
        0.06503996253013611, 
        0.20307543873786926, 
        -0.2973916530609131, 
        -0.12920880317687988, 
        0.06816410273313522, 
        -0.0036422244738787413, 
        0.05115503445267677, 
        0.038718145340681076, 
        -0.15313296020030975, 
        0.09577810019254684, 
        -0.07154476642608643, 
        -0.35137006640434265, 
        -0.0864839255809784, 
        -0.2481973022222519, 
        0.15972045063972473, 
        -0.020832372829318047, 
        -0.09775633364915848, 
        -0.10607437789440155, 
        0.0982116311788559, 
        -0.05866100266575813, 
        -0.028136685490608215, 
        -0.15205781161785126, 
        -0.1379328817129135, 
        0.07808845490217209, 
        0.14476317167282104, 
        -0.22715938091278076, 
        0.07050216943025589, 
        -0.25562405586242676, 
        -0.04989086464047432, 
        -0.21306069195270538, 
        -0.0018816615920513868, 
        -0.08635710924863815, 
        -0.012801546603441238, 
        0.21547695994377136, 
        0.01555501390248537, 
        -0.07201600074768066, 
        -0.003339964896440506, 
        -0.0025651128962635994, 
        -0.12524279952049255, 
        0.11620131880044937, 
        -0.15925557911396027, 
        -0.06062312796711922, 
        -0.219764843583107, 
        0.11413447558879852, 
        -0.09364373981952667, 
        -0.12607839703559875, 
        -0.08936090767383575, 
        0.03580944612622261, 
        -0.1883683055639267, 
        -0.049936436116695404, 
        -0.42413195967674255, 
        -0.15422755479812622, 
        0.13172540068626404, 
        -0.04778033494949341, 
        -0.16020731627941132, 
        0.1272941529750824, 
        0.07065089792013168, 
        -0.306679904460907, 
        0.02473822794854641, 
        -0.05109718069434166, 
        -0.05899106711149216, 
        0.08079073578119278, 
        -0.05021584406495094, 
        -0.055946897715330124, 
        0.03109235316514969, 
        -0.09703179448843002, 
        -0.027744222432374954, 
        0.189976766705513, 
        -0.22301135957241058, 
        0.10051290690898895, 
        -0.08896860480308533, 
        -0.12121311575174332, 
        0.1851830780506134, 
        -0.150491401553154, 
        0.2298690378665924, 
        -0.00984398927539587, 
        -0.0687507763504982, 
        -0.13249565660953522, 
        0.020027119666337967, 
        -0.001694935723207891, 
        0.10815012454986572, 
        0.14214813709259033, 
        -0.23446695506572723, 
        0.049161262810230255, 
        -0.04976306110620499, 
        -0.05999360606074333, 
        0.05529419332742691, 
        0.06548600643873215, 
        -0.12778764963150024, 
        -0.03529771789908409, 
        -5.857320866198279e-05, 
        0.10333562642335892, 
        0.05307893455028534, 
        0.0745917335152626, 
        -0.1453441083431244, 
        -0.19320198893547058, 
        0.010546623729169369, 
        0.1038866862654686, 
        -0.05055931583046913, 
        -0.1016794964671135, 
        -0.0005147508927620947, 
        0.11759787797927856, 
        -0.005936098285019398, 
        0.053870197385549545, 
        -0.21254214644432068, 
        0.02452121675014496, 
        -0.13245785236358643, 
        -0.052797019481658936, 
        -0.09828543663024902, 
        0.0023230945225805044, 
        0.12296680361032486, 
        0.1764184832572937, 
        0.057619452476501465, 
        -0.2399168461561203, 
        0.011952539905905724, 
        -0.41568922996520996, 
        0.11473032832145691, 
        -0.03773865848779678, 
        -0.5414672493934631, 
        -0.11388690024614334, 
        -0.2474517524242401, 
        -0.01388186402618885, 
        0.19832417368888855, 
        -0.3744411766529083, 
        -0.047409895807504654, 
        0.012420923449099064, 
        0.031065892428159714, 
        -0.32330718636512756, 
        -0.18937978148460388, 
        -0.03888197988271713, 
        -0.2678150236606598, 
        -0.1473132073879242, 
        -0.1093529537320137, 
        -0.056111592799425125, 
        0.02031116932630539, 
        -0.1833968460559845, 
        -0.1976117044687271, 
        0.1333850771188736, 
        0.05506144091486931, 
        -0.20691217482089996, 
        -0.08847224712371826, 
        0.04174884781241417, 
        0.1627352237701416, 
        -0.006761217024177313, 
        -0.2556850016117096, 
        -0.26728901267051697, 
        -0.10041080415248871, 
        0.2105019986629486, 
        -0.13464349508285522, 
        0.09901601076126099, 
        -0.36879995465278625, 
        -0.015273240394890308, 
        0.004678557626903057, 
        0.02030235156416893, 
        -0.015050595626235008, 
        0.03831878677010536, 
        0.16372615098953247, 
        -0.052950043231248856, 
        -0.15860839188098907, 
        -0.002147265477105975, 
        0.0539986677467823, 
        0.049125902354717255, 
        0.04149375855922699, 
        -0.010724635794758797, 
        -0.016570186242461205, 
        0.02896517515182495, 
        -0.006729734130203724, 
        -0.10932038724422455, 
        -0.0629902258515358, 
        0.08668699860572815, 
        0.04965388774871826, 
        -0.15049254894256592, 
        -0.37058883905410767, 
        -0.3557506799697876, 
        0.11490652710199356, 
        0.004906534682959318, 
        -0.13768716156482697, 
        -0.29847797751426697, 
        0.038395337760448456, 
        -0.2931625247001648, 
        -0.10608867555856705, 
        0.06522984802722931, 
        0.11334673315286636, 
        -0.14893755316734314, 
        -0.0537230558693409, 
        0.06749394536018372, 
        0.08330021798610687, 
        0.02883363515138626, 
        -0.06390519440174103, 
        -0.15020960569381714, 
        -0.17513270676136017, 
        -0.10220400243997574, 
        0.09971302002668381, 
        0.08879342675209045, 
        -0.13981671631336212, 
        -0.10089314728975296, 
        -0.06966029107570648, 
        -0.15539884567260742, 
        0.08929917961359024, 
        0.21395018696784973, 
        0.01810157299041748, 
        -0.29720237851142883, 
        -0.37678098678588867, 
        -0.022072864696383476, 
        -0.20592446625232697, 
        -0.13877952098846436, 
        -0.1251095086336136, 
        0.17274747788906097, 
        0.13468000292778015, 
        -0.16296140849590302, 
        -0.007561893668025732, 
        0.03750483691692352, 
        0.12278532236814499, 
        -0.1127772256731987, 
        -0.09290102869272232, 
        -0.07511704415082932, 
        0.10613764822483063, 
        -0.30799755454063416, 
        0.03259817883372307, 
        -0.09529190510511398, 
        -0.3235495090484619, 
        -0.29151850938796997, 
        -0.058880772441625595, 
        0.05407710745930672, 
        -0.21121059358119965, 
        -0.03561237454414368, 
        -0.2614198327064514, 
        -0.07948009669780731, 
        0.08244659006595612, 
        -0.18743683397769928, 
        0.08868082612752914, 
        -0.27174046635627747, 
        0.004865220282226801, 
        -0.1025916114449501, 
        -0.06184335798025131, 
        0.23667804896831512, 
        -0.44644129276275635, 
        -0.112580806016922, 
        0.06843597441911697, 
        0.0052742972038686275, 
        0.07078711688518524, 
        -0.0625627264380455, 
        -0.0765264704823494, 
        -0.024057302623987198, 
        0.007079220376908779, 
        0.1203356385231018, 
        0.1318817138671875, 
        0.04374203458428383, 
        -0.2785051167011261, 
        -0.0008198340074159205, 
        -0.10449045151472092, 
        -0.042809855192899704, 
        -0.05764472857117653, 
        0.15874001383781433, 
        0.011660297401249409, 
        0.02356330119073391, 
        -0.16833728551864624, 
        0.19997088611125946, 
        -0.06576737761497498, 
        0.08711343258619308, 
        -0.23434558510780334, 
        0.18909424543380737, 
        -0.05345699563622475, 
        0.09453069418668747, 
        0.07974457740783691, 
        0.137447327375412, 
        -0.04350504279136658, 
        0.1289331614971161, 
        -0.176182359457016, 
        0.025171350687742233, 
        -0.16315092146396637, 
        -0.19163918495178223, 
        -0.02973165363073349, 
        -0.059870168566703796, 
        -0.16813765466213226, 
        0.08145144581794739, 
        -0.03347986564040184, 
        -0.3130452334880829, 
        0.15765194594860077, 
        -0.1097520962357521, 
        -0.17047984898090363, 
        -0.16644735634326935, 
        0.1012561246752739, 
        0.13119490444660187, 
        -0.2726513743400574, 
        0.07915517687797546, 
        0.08440866321325302, 
        -0.007679434958845377, 
        -0.08205033838748932, 
        -0.10916541516780853, 
        0.18417175114154816, 
        0.2563979923725128, 
        -0.07346565276384354, 
        -0.3684069812297821, 
        0.08545926958322525, 
        -0.17734430730342865, 
        -0.2933872938156128, 
        0.0672241747379303, 
        0.13388143479824066, 
        0.022154513746500015, 
        0.11156924068927765, 
        -0.1425275206565857, 
        -0.05157461017370224, 
        -0.08884621411561966, 
        -0.04640454426407814, 
        -0.03042723797261715, 
        -0.005135819315910339, 
        0.13345463573932648, 
        -0.11757603287696838, 
        0.05716349557042122, 
        -0.028200939297676086, 
        -0.27488386631011963, 
        -0.07464954257011414, 
        -0.03952576592564583, 
        -0.04455335810780525, 
        -0.25553789734840393, 
        0.10624928772449493, 
        -0.09776471555233002, 
        0.027590161189436913, 
        0.006451867520809174, 
        -0.12880150973796844, 
        -0.27349069714546204, 
        0.1586270034313202, 
        0.04669571295380592, 
        -0.1583101898431778, 
        -0.023850217461586, 
        0.09966153651475906, 
        -0.30853062868118286, 
        0.03824334964156151, 
        0.1495523899793625, 
        0.019869262352585793, 
        -0.281406968832016, 
        -0.11222270131111145, 
        -0.03913011774420738, 
        -0.09615666419267654, 
        -0.001196027733385563, 
        -0.1820654273033142, 
        -0.09067979454994202, 
        0.06243811175227165, 
        -0.26645198464393616, 
        -0.10729704052209854, 
        0.05340908095240593, 
        0.011006461456418037, 
        0.05008865147829056, 
        0.011185672134160995, 
        0.1639050990343094, 
        -0.01539019774645567, 
        -0.05971724912524223, 
        -0.08739901334047318, 
        0.12683382630348206, 
        -0.060712821781635284, 
        -0.04206463694572449, 
        -0.08234304934740067, 
        0.14526954293251038, 
        -0.23687298595905304, 
        -0.0712236687541008, 
        -0.1739305853843689, 
        -0.111604705452919, 
        0.08585549890995026, 
        0.11466571688652039, 
        -0.33537861704826355, 
        -0.33936673402786255, 
        0.17407384514808655, 
        0.09469440579414368, 
        -0.2383432537317276, 
        0.0839684009552002, 
        -0.19737114012241364, 
        0.016072779893875122, 
        -0.09717215597629547, 
        0.0669197291135788, 
        -0.05138007923960686, 
        -0.14543461799621582, 
        -0.0864483043551445, 
        -0.05573510751128197, 
        -0.03950085863471031, 
        0.11324314028024673, 
        0.05493370443582535, 
        -0.4032908082008362, 
        -0.09486901760101318, 
        -0.15182814002037048, 
        -0.27324599027633667, 
        -0.19428063929080963, 
        -0.20689164102077484, 
        -0.1666739135980606, 
        -0.1544606238603592, 
        0.1247798353433609, 
        -0.35894665122032166, 
        0.19068247079849243, 
        0.09720644354820251, 
        -0.1768305003643036, 
        0.1845899075269699, 
        -0.35931748151779175, 
        0.12134315073490143, 
        0.04394470527768135, 
        0.14066201448440552, 
        0.15991008281707764, 
        -0.17758598923683167, 
        -0.022399671375751495, 
        0.1042829230427742, 
        0.07253962010145187, 
        0.03579091653227806, 
        -0.057833313941955566, 
        -0.1815524846315384, 
        -0.048627693206071854, 
        0.10131199657917023, 
        -0.06468434631824493, 
        -0.2477514147758484, 
        -0.2050764411687851, 
        -0.16259698569774628, 
        0.27119243144989014, 
        -0.386555016040802, 
        0.17779961228370667, 
        -0.15083712339401245, 
        -0.09666289389133453, 
        0.002037766156718135, 
        0.03573799133300781, 
        0.16168144345283508, 
        -0.22458258271217346, 
        0.19114217162132263, 
        -0.0844484493136406, 
        0.10831370949745178, 
        -0.3385448157787323, 
        0.12116191536188126, 
        0.019997289404273033, 
        0.09954412281513214, 
        0.0016255324007943273, 
        0.12943969666957855, 
        0.27176371216773987, 
        -0.1335618793964386, 
        -0.22177433967590332, 
        0.26958540081977844, 
        -0.04056084528565407, 
        0.17892299592494965, 
        0.0285833440721035, 
        -0.0793355405330658, 
        -0.13956178724765778, 
        0.01767903007566929, 
        -0.05620749667286873, 
        -0.04832414537668228, 
        -0.21400867402553558, 
        0.011290987022221088, 
        -0.10492366552352905, 
        -0.04309302568435669, 
        -0.23280271887779236, 
        -0.2105938047170639, 
        -0.32199183106422424, 
        -0.11205706000328064, 
        0.03872351348400116, 
        -0.12143534421920776, 
        0.26870742440223694, 
        0.17881323397159576, 
        -0.048938050866127014, 
        -0.06181248649954796, 
        0.03773573786020279, 
        0.13670726120471954, 
        0.14188584685325623, 
        -0.10761241614818573, 
        0.18507248163223267, 
        0.004499522037804127, 
        -0.07455857843160629, 
        -0.13807235658168793, 
        -0.1588602364063263, 
        -0.43444889783859253, 
        -0.06023328751325607, 
        -0.03832933306694031, 
        -0.20648904144763947, 
        -0.01975429430603981, 
        -0.0185348242521286, 
        -0.025312798097729683, 
        -0.1564643234014511, 
        -0.1925521045923233, 
        -0.029047537595033646, 
        0.12619024515151978, 
        -0.15000073611736298, 
        -0.07594440132379532, 
        0.0967545211315155, 
        0.1079803854227066, 
        -0.03611386567354202, 
        -0.2844056785106659, 
        0.11470139026641846, 
        -0.03433629870414734, 
        -0.06439663469791412, 
        0.04301434010267258, 
        -0.2233114242553711, 
        0.01164065208286047, 
        -0.07788557559251785, 
        -0.11068626493215561, 
        -0.23593935370445251, 
        -0.039436452090740204, 
        0.14767800271511078, 
        0.11808564513921738, 
        0.056450217962265015, 
        -0.10720977932214737, 
        0.04080973565578461, 
        -0.13774056732654572, 
        0.19172509014606476, 
        -0.12205379456281662, 
        0.026856116950511932, 
        0.07251279056072235, 
        -0.17966918647289276, 
        -0.05658825859427452, 
        0.0830133929848671, 
        -0.1830669790506363, 
        0.0685761570930481, 
        -0.06494813412427902, 
        0.12233971059322357, 
        -0.11113866418600082, 
        0.04850851371884346, 
        0.06184744834899902, 
        -0.033982474356889725, 
        -0.19906207919120789, 
        -0.20437799394130707, 
        -0.07820156961679459, 
        0.009706131182610989, 
        -0.1409250944852829, 
        0.336084246635437, 
        0.0399826355278492, 
        0.004777517635375261, 
        -0.18612611293792725, 
        0.018804313614964485, 
        -0.07712667435407639, 
        -0.14373613893985748, 
        -0.07812697440385818, 
        -0.16148638725280762, 
        -0.1570877879858017, 
        -0.09977979212999344, 
        -0.0646684542298317, 
        0.13083405792713165, 
        -0.08492603898048401, 
        -0.2588126063346863, 
        -0.09505893290042877, 
        -0.18024350702762604, 
        -0.11454426497220993, 
        0.010906864888966084, 
        -0.1425592452287674, 
        -0.05797581747174263, 
        -0.06806006282567978, 
        -0.028491102159023285, 
        -0.04966479912400246, 
        -0.051216159015893936, 
        0.08009380847215652, 
        0.05761780962347984, 
        -0.14645494520664215, 
        0.0378248430788517, 
        -0.13226619362831116, 
        -0.052617162466049194, 
        0.019168321043252945, 
        -0.06424318999052048, 
        -0.03459331765770912, 
        -0.27229323983192444, 
        0.1347746104001999, 
        0.021663455292582512, 
        0.05252860113978386, 
        0.17923377454280853, 
        0.22050386667251587, 
        0.13790252804756165, 
        -0.24331839382648468, 
        0.16802345216274261, 
        -0.08225109428167343, 
        -0.05371644347906113, 
        -0.1469728648662567, 
        0.10908478498458862, 
        -0.02372266724705696, 
        -0.10495865345001221, 
        -0.09829282015562057, 
        0.012383838184177876, 
        -0.008778729476034641, 
        -0.013066684827208519, 
        -0.17946000397205353, 
        -0.00512180058285594, 
        0.011297104880213737, 
        -0.05104351043701172, 
        0.031298357993364334, 
        -0.17663311958312988, 
        0.07308334112167358, 
        0.020849745720624924, 
        0.09295952320098877, 
        -0.06356493383646011, 
        -0.06483335047960281, 
        0.10811640322208405, 
        -0.01818527840077877, 
        0.2201053649187088, 
        -0.0797974020242691, 
        0.0946701318025589, 
        -0.05061941221356392, 
        -0.04922613501548767, 
        0.18007956445217133, 
        -0.06509002298116684, 
        -0.007060748990625143, 
        0.006293830461800098, 
        -0.07863473147153854, 
        0.23211580514907837, 
        -0.10186737030744553, 
        -0.13148970901966095, 
        0.023260870948433876, 
        -0.4711315929889679, 
        -0.11585500836372375, 
        0.08103496581315994, 
        -0.13018862903118134, 
        -0.2251986563205719, 
        -0.05755436420440674, 
        -0.02780308574438095, 
        0.231525257229805, 
        -0.1462540179491043, 
        0.20165283977985382, 
        0.061439983546733856, 
        0.17952865362167358, 
        -0.03911972418427467, 
        -0.14936132729053497, 
        -0.13863493502140045, 
        0.11689214408397675, 
        0.17589989304542542, 
        -0.24829363822937012, 
        -0.18300065398216248, 
        -0.11413499712944031, 
        -0.21509093046188354, 
        -0.17031800746917725, 
        0.15644963085651398, 
        0.14716997742652893, 
        0.16785526275634766, 
        0.16164053976535797, 
        0.10211274027824402, 
        -0.11782381683588028, 
        -0.0922943726181984, 
        0.019558720290660858, 
        -0.3581225275993347, 
        -0.11287717521190643, 
        -0.13390447199344635, 
        0.01842520572245121, 
        0.24083034694194794, 
        -0.13946005702018738, 
        -0.06405646353960037, 
        0.01687793619930744, 
        -0.13671796023845673, 
        -0.12859371304512024, 
        -0.11994556337594986, 
        0.13688328862190247, 
        0.009032339788973331, 
        0.08725070208311081, 
        -0.0484887957572937, 
        -0.06267990171909332, 
        -0.00615571066737175, 
        0.08802113682031631, 
        -0.1305973082780838, 
        0.028163183480501175, 
        0.07676872611045837, 
        0.05309409275650978, 
        -0.05164681747555733, 
        -0.32642456889152527, 
        -0.04933013394474983, 
        0.022165359929203987, 
        -0.31557103991508484, 
        -0.04917437955737114, 
        0.02530653215944767, 
        -0.15281622111797333, 
        0.04439994692802429, 
        -0.2583754062652588, 
        -0.09683620929718018, 
        0.013023169711232185, 
        0.002466319827362895, 
        -0.27358052134513855, 
        -0.10918717086315155, 
        -0.089227095246315, 
        0.009520375169813633, 
        -0.054246433079242706, 
        -0.08697651326656342, 
        -0.06733694672584534, 
        -0.11745410412549973, 
        0.07384481281042099, 
        -0.21027767658233643, 
        -0.15991665422916412, 
        -0.21263904869556427, 
        -0.05655496567487717, 
        0.0399232916533947, 
        -0.22720694541931152, 
        0.0443088673055172, 
        -0.07705645263195038, 
        -0.054559823125600815, 
        0.2803623080253601, 
        -0.027879230678081512, 
        -0.27906638383865356, 
        -0.1572890430688858, 
        -0.3536946177482605, 
        -0.0716671347618103, 
        -0.31175145506858826, 
        -0.004084506072103977, 
        -0.21718481183052063, 
        0.07498463243246078, 
        -0.10802137851715088, 
        -0.14338594675064087, 
        -0.17735154926776886, 
        -0.3710003197193146, 
        0.014278581365942955, 
        -0.03259297087788582, 
        -0.08783603459596634, 
        -0.07457209378480911, 
        -0.016911566257476807, 
        -0.08816387504339218, 
        0.11501427739858627, 
        -0.07778619974851608, 
        -0.38236692547798157, 
        -0.10947583615779877, 
        -0.07301954180002213, 
        -0.13013990223407745, 
        -0.07197082042694092, 
        0.10994624346494675, 
        -0.10067621618509293, 
        -0.020253034308552742, 
        0.31848669052124023, 
        -0.08105157315731049, 
        -0.10863322764635086, 
        -0.058413561433553696, 
        0.0322425402700901, 
        -0.03899790719151497, 
        -0.12234044820070267, 
        0.008852414786815643, 
        -0.3754899799823761, 
        0.13222715258598328, 
        0.14187484979629517, 
        0.22411710023880005, 
        0.05863625556230545, 
        0.132106751203537, 
        0.07784592360258102, 
        0.10322379320859909, 
        0.033315688371658325, 
        -0.4179984927177429, 
        -0.19436515867710114, 
        -0.060853708535432816, 
        0.054642368108034134, 
        0.12766505777835846, 
        -0.6274170875549316, 
        0.14720042049884796, 
        -0.016591854393482208, 
        0.09925239533185959, 
        0.004289817996323109, 
        0.12778803706169128, 
        -0.014458296820521355, 
        -0.024922098964452744, 
        -0.3160625696182251, 
        -0.2526622414588928, 
        -0.09476323425769806, 
        -0.7174177765846252, 
        0.1360253095626831, 
        0.14876915514469147, 
        0.04760763794183731, 
        0.11391562968492508, 
        -0.07384033501148224, 
        -0.14194315671920776, 
        -0.23406767845153809, 
        -0.43850046396255493, 
        0.17323817312717438, 
        0.22351479530334473, 
        0.1710570603609085, 
        -0.06564263999462128, 
        0.008300499990582466, 
        -0.49325475096702576, 
        -0.011288787238299847, 
        0.13859519362449646, 
        -0.22658750414848328, 
        -0.17308732867240906, 
        -0.24131129682064056, 
        0.1474115550518036, 
        -0.03446846455335617, 
        -0.06626402586698532, 
        -0.2107934206724167, 
        -0.48174622654914856, 
        -0.17891567945480347, 
        -0.17911627888679504, 
        -0.4755505919456482, 
        0.004650508053600788, 
        0.00028735047089867294, 
        0.10226123780012131, 
        0.06979189068078995, 
        0.05296340212225914, 
        0.08410708606243134, 
        0.028950674459338188, 
        0.054485023021698, 
        -0.2598170042037964, 
        -0.08926490694284439, 
        0.0463891364634037, 
        -0.30585041642189026, 
        -0.0380084253847599, 
        0.031027017161250114, 
        0.24777983129024506, 
        -0.17352062463760376, 
        -0.4288814067840576, 
        0.12964081764221191, 
        0.06153307855129242, 
        0.006928022485226393, 
        -0.22147978842258453, 
        -0.3506343960762024, 
        -0.20153121650218964, 
        -0.1897067427635193, 
        0.057997796684503555, 
        0.08657072484493256, 
        0.016230851411819458, 
        -0.06017005816102028, 
        -0.10347723960876465, 
        -0.07843536138534546, 
        0.19927282631397247, 
        0.1214701309800148, 
        -0.09320305287837982, 
        0.09750990569591522, 
        -0.4066314697265625, 
        0.12711085379123688, 
        0.1251518726348877, 
        0.11250362545251846, 
        -0.31589818000793457, 
        -0.12631042301654816, 
        0.08777185529470444, 
        -0.0630803108215332, 
        -0.12933290004730225, 
        -0.01679021492600441, 
        -0.11022965610027313, 
        -0.19221417605876923, 
        -0.04547913745045662, 
        0.15852704644203186, 
        -0.027880189940333366, 
        0.02133549004793167, 
        -0.12533536553382874, 
        -0.19907113909721375, 
        0.1953839659690857, 
        -0.01884186826646328, 
        -0.09641477465629578, 
        0.09145142883062363, 
        -0.030612366273999214, 
        0.10179607570171356, 
        0.016691656783223152, 
        0.16084423661231995, 
        -0.2950392961502075, 
        0.031180528923869133, 
        -0.08749659359455109, 
        -0.24511660635471344, 
        -0.14102482795715332, 
        -0.009287766180932522, 
        0.10726598650217056, 
        -0.33263757824897766, 
        0.16263286769390106, 
        -0.05385274812579155, 
        -0.22921860218048096, 
        -0.2539094090461731, 
        -0.15209327638149261, 
        -0.1933649182319641, 
        0.029094887897372246, 
        -0.11581491678953171, 
        0.17856040596961975, 
        -0.05239781737327576, 
        0.07927311956882477, 
        0.06469033658504486, 
        0.050896257162094116, 
        -0.5805270671844482, 
        -0.1313835084438324, 
        -0.07740319520235062, 
        0.004258857108652592, 
        0.02172360010445118, 
        -0.018453996628522873, 
        0.07556221634149551, 
        -0.09046004712581635, 
        -0.0410020649433136, 
        -0.24543797969818115, 
        -0.12797009944915771, 
        0.10262312740087509, 
        -0.10069403797388077, 
        -0.020101606845855713, 
        0.014750068075954914, 
        0.0253896564245224, 
        0.09864366054534912, 
        -0.07087412476539612, 
        0.036996856331825256, 
        -0.370151162147522, 
        0.04172354191541672, 
        -0.1909935027360916, 
        0.08758179098367691, 
        0.1713537871837616, 
        -0.025191038846969604, 
        -0.2376222461462021, 
        -0.4458252787590027, 
        0.056236594915390015, 
        0.11176976561546326, 
        -0.3014358878135681, 
        0.09852289408445358, 
        -0.013658774085342884, 
        -0.33500051498413086, 
        0.13015447556972504, 
        0.15416327118873596, 
        0.03335431218147278, 
        0.03213649243116379, 
        -0.08489642292261124, 
        0.00303095206618309, 
        0.26377230882644653, 
        -0.02482663281261921, 
        -0.28913986682891846, 
        0.08939248323440552, 
        0.10778403282165527, 
        -0.18260915577411652, 
        0.0854741707444191, 
        -0.16245338320732117, 
        -0.06449602544307709, 
        0.019396666437387466, 
        -0.10962919145822525, 
        -0.0012111793039366603, 
        -0.16284950077533722, 
        -0.10957859456539154, 
        0.057734016329050064, 
        -0.11969521641731262, 
        -0.2147856056690216, 
        0.17501802742481232, 
        0.199728861451149, 
        0.05350630730390549, 
        -0.11841041594743729, 
        -0.1408368945121765, 
        -0.013908566907048225, 
        -0.3064848780632019, 
        0.02503860369324684, 
        -0.2537018954753876, 
        0.09927480667829514, 
        0.03890356421470642, 
        -0.03138134256005287, 
        -0.05190808326005936, 
        -0.11582335084676743, 
        0.07733464241027832, 
        0.03514804318547249, 
        -0.009116326458752155, 
        0.13889430463314056, 
        0.008677423931658268, 
        -0.07322297245264053, 
        -0.31804630160331726, 
        0.013534501194953918, 
        -0.1180199608206749, 
        -0.07110275328159332, 
        -0.06394962966442108, 
        -0.10059254616498947, 
        -0.0546700581908226, 
        -0.1893380731344223, 
        -0.0705234706401825, 
        0.2181389480829239, 
        -0.037272751331329346, 
        -0.11912839114665985, 
        -0.04278770089149475, 
        -0.2467314898967743, 
        -0.2337547242641449, 
        -0.016613664105534554, 
        -0.22364938259124756, 
        0.0070841652341187, 
        -0.23184075951576233, 
        0.12783893942832947, 
        -0.06299982964992523, 
        0.1781121790409088, 
        0.1540186107158661, 
        0.2152702510356903, 
        0.05117213726043701, 
        -0.22429056465625763, 
        0.04400953650474548, 
        0.044536735862493515, 
        -0.07048299908638, 
        -0.1035986915230751, 
        0.004018585197627544, 
        -0.14410944283008575, 
        0.19555896520614624, 
        -0.16097421944141388, 
        0.06661298871040344, 
        0.19234105944633484, 
        -0.08735361695289612, 
